{"learner":{"attributes":{"best_iteration":"299","best_ntree_limit":"300","scikit_learn":"{\"use_label_encoder\": null, \"n_estimators\": 300, \"objective\": \"binary:logistic\", \"max_depth\": 6, \"max_leaves\": null, \"max_bin\": null, \"grow_policy\": null, \"learning_rate\": 0.1, \"verbosity\": null, \"booster\": null, \"tree_method\": null, \"gamma\": null, \"min_child_weight\": null, \"max_delta_step\": null, \"subsample\": 0.9, \"sampling_method\": null, \"colsample_bytree\": 0.8, \"colsample_bylevel\": null, \"colsample_bynode\": null, \"reg_alpha\": null, \"reg_lambda\": null, \"scale_pos_weight\": null, \"base_score\": null, \"missing\": NaN, \"num_parallel_tree\": null, \"random_state\": null, \"n_jobs\": null, \"monotone_constraints\": null, \"interaction_constraints\": null, \"importance_type\": null, \"gpu_id\": null, \"validate_parameters\": null, \"predictor\": null, \"enable_categorical\": false, \"feature_types\": null, \"max_cat_to_onehot\": null, \"max_cat_threshold\": null, \"eval_metric\": null, \"early_stopping_rounds\": null, \"callbacks\": null, \"classes_\": [0, 1], \"n_classes_\": 2, \"_estimator_type\": \"classifier\"}"},"feature_names":["DC024","DC025","DC205","DC220","DC226","DC230a","DC232b","DC235","DC237","DC237a","DC237b","DC237c","DC237d","DC237f","DC241","DC244","DC246","DC252","DC109"],"feature_types":["float","float","float","float","float","float","float","float","float","float","float","float","float","float","float","float","float","float","float"],"gradient_booster":{"model":{"gbtree_model_param":{"num_parallel_tree":"1","num_trees":"300","size_leaf_vector":"0"},"tree_info":[0,0,0,0,0,0,0,0,0,0,0,0,0,0,0,0,0,0,0,0,0,0,0,0,0,0,0,0,0,0,0,0,0,0,0,0,0,0,0,0,0,0,0,0,0,0,0,0,0,0,0,0,0,0,0,0,0,0,0,0,0,0,0,0,0,0,0,0,0,0,0,0,0,0,0,0,0,0,0,0,0,0,0,0,0,0,0,0,0,0,0,0,0,0,0,0,0,0,0,0,0,0,0,0,0,0,0,0,0,0,0,0,0,0,0,0,0,0,0,0,0,0,0,0,0,0,0,0,0,0,0,0,0,0,0,0,0,0,0,0,0,0,0,0,0,0,0,0,0,0,0,0,0,0,0,0,0,0,0,0,0,0,0,0,0,0,0,0,0,0,0,0,0,0,0,0,0,0,0,0,0,0,0,0,0,0,0,0,0,0,0,0,0,0,0,0,0,0,0,0,0,0,0,0,0,0,0,0,0,0,0,0,0,0,0,0,0,0,0,0,0,0,0,0,0,0,0,0,0,0,0,0,0,0,0,0,0,0,0,0,0,0,0,0,0,0,0,0,0,0,0,0,0,0,0,0,0,0,0,0,0,0,0,0,0,0,0,0,0,0,0,0,0,0,0,0,0,0,0,0,0,0,0,0,0,0,0,0,0,0,0,0,0,0,0,0,0,0,0,0],"trees":[{"base_weights":[-1.4699037E-4,-1.0016913E0,9.714782E-1,-1.6088568E0,-2.5815728E-1,-1.3306123E0,1.1789584E0,-1.9726511E0,-1.3554705E0,1.9951457E0,-7.6003784E-1,-1.8454288E0,-4.924012E-1,3.8563395E-1,1.5025554E0,-1.9861432E0,-1.6538461E0,-1.5633649E0,-8.761329E-1,-1.4831705E0,-3.2858992E-1,1E0,-1.8599811E0,1.9139785E0,-8.8224953E-1,-5.048445E-1,8.7626547E-1,1.9983344E0,1.2282234E0,-1.8933333E0,-9.677419E-1,1.7419355E0,-1.5846221E0,1.9715302E0,-1.3423054E0,-1.5382309E0,6.0606062E-2,1.9857143E0,-6.457619E-1,-1.9390863E0,-1.6043956E0,-1.5942029E0,-2.0875421E-1,1.9607843E0,-7.893242E-1,-6.632124E-1,1.0623819E0,-2.1487603E-1,1.3353907E0,1.2E0,-1.2857143E0,-1.325926E0,-1.8177215E0,1.2E0,-1.354081E0,-1.9529412E0,-1.3686419E0,-1.3076923E0,1.4509804E0,-1.8269231E0,-4.3212017E-1,-1.8171428E0,-1.1764706E0,-1.632353E0,5E-1,-1.254902E0,3.316583E-1,-1.3571428E0,-2.0023015E-1,1.7037038E0,-8.319559E-1,1.9564428E0,8.7323946E-1,1.9120879E0,-5.868726E-1,6.4343166E-1,1.4907001E0],"categories":[],"categories_nodes":[],"categories_segments":[],"categories_sizes":[],"default_left":[1,1,1,1,1,1,1,1,1,0,1,1,1,1,1,0,1,1,1,1,1,0,1,0,1,1,1,0,1,0,1,0,1,0,1,1,1,0,1,0,1,1,1,0,1,1,1,1,1,0,0,0,0,0,0,0,0,0,0,0,0,0,0,0,0,0,0,0,0,0,0,0,0,0,0,0,0],"id":0,"left_children":[1,3,5,7,9,11,13,15,17,-1,19,21,23,25,27,-1,29,31,33,35,37,-1,39,-1,41,43,45,-1,47,-1,49,-1,51,-1,53,55,57,-1,59,-1,61,63,65,-1,67,69,71,73,75,-1,-1,-1,-1,-1,-1,-1,-1,-1,-1,-1,-1,-1,-1,-1,-1,-1,-1,-1,-1,-1,-1,-1,-1,-1,-1,-1,-1],"loss_changes":[9.931479E3,2.2683374E3,2.4758545E3,2.5232031E2,2.5576082E3,1.8410767E2,1.2194697E3,1.5913086E0,1.6143604E2,0E0,5.764678E2,1.2843323E1,1.5600986E2,6.0259534E2,4.5660645E2,0E0,6.712021E0,8.2736084E1,6.6175134E2,5.8807617E1,8.523929E2,0E0,2.2315674E0,0E0,6.787569E1,3.454196E2,2.5542273E2,0E0,3.3673438E2,0E0,1.22267275E1,0E0,6.582153E1,0E0,1.4415466E1,4.423755E1,4.8982998E1,0E0,2.5672894E2,0E0,4.075653E0,6.3288574E0,4.2393536E1,0E0,1.469913E2,3.995967E1,1.3247632E2,1.2079468E2,2.1668994E2,0E0,0E0,0E0,0E0,0E0,0E0,0E0,0E0,0E0,0E0,0E0,0E0,0E0,0E0,0E0,0E0,0E0,0E0,0E0,0E0,0E0,0E0,0E0,0E0,0E0,0E0,0E0,0E0],"parents":[2147483647,0,0,1,1,2,2,3,3,4,4,5,5,6,6,7,7,8,8,10,10,11,11,12,12,13,13,14,14,16,16,17,17,18,18,19,19,20,20,22,22,24,24,25,25,26,26,28,28,30,30,32,32,34,34,35,35,36,36,38,38,40,40,41,41,42,42,44,44,45,45,46,46,47,47,48,48],"right_children":[2,4,6,8,10,12,14,16,18,-1,20,22,24,26,28,-1,30,32,34,36,38,-1,40,-1,42,44,46,-1,48,-1,50,-1,52,-1,54,56,58,-1,60,-1,62,64,66,-1,68,70,72,74,76,-1,-1,-1,-1,-1,-1,-1,-1,-1,-1,-1,-1,-1,-1,-1,-1,-1,-1,-1,-1,-1,-1,-1,-1,-1,-1,-1,-1],"split_conditions":[-6.6473687E-1,-9.945991E-1,-1.9072568E0,-1.763511E0,1.1117638E0,-9.8316264E-1,-9.814327E-1,-1.8620968E0,-9.717399E-1,1.9951457E-1,-9.7992814E-1,-1.4462599E-1,1.1028333E0,-3.800536E-1,1.1175177E0,-1.9861433E-1,-9.4205135E-1,4.605022E-1,1.1056991E0,-1.18682E-1,1.1164467E0,1E-1,7.497932E-1,1.9139785E-1,-3.771127E-1,-1.24344386E-1,-1.0984484E0,1.9983344E-1,-1.6470072E0,-1.8933333E-1,1.0781778E0,1.7419355E-1,8.945594E-1,1.9715302E-1,3.103676E-1,-1.6761775E0,1.21560425E-1,1.9857143E-1,-1.7974365E0,-1.9390863E-1,-3.4595063E-1,7.6486903E-1,-3.7176389E-1,1.9607843E-1,-2.1954742E-1,-1.16888046E-1,-3.5640627E-2,-1.202766E-1,-9.952593E-1,1.20000005E-1,-1.2857144E-1,-1.325926E-1,-1.8177216E-1,1.20000005E-1,-1.354081E-1,-1.9529413E-1,-1.3686419E-1,-1.3076924E-1,1.4509805E-1,-1.8269232E-1,-4.321202E-2,-1.8171428E-1,-1.1764707E-1,-1.6323529E-1,5E-2,-1.254902E-1,3.316583E-2,-1.3571428E-1,-2.0023016E-2,1.7037039E-1,-8.319559E-2,1.9564429E-1,8.732395E-2,1.912088E-1,-5.868726E-2,6.434317E-2,1.4907001E-1],"split_indices":[2,16,8,9,16,16,15,8,15,0,15,2,16,4,15,0,15,9,15,12,15,0,2,0,4,2,17,0,7,0,15,0,7,0,9,8,4,0,9,0,4,6,7,0,1,2,4,2,16,0,0,0,0,0,0,0,0,0,0,0,0,0,0,0,0,0,0,0,0,0,0,0,0,0,0,0,0],"split_type":[0,0,0,0,0,0,0,0,0,0,0,0,0,0,0,0,0,0,0,0,0,0,0,0,0,0,0,0,0,0,0,0,0,0,0,0,0,0,0,0,0,0,0,0,0,0,0,0,0,0,0,0,0,0,0,0,0,0,0,0,0,0,0,0,0,0,0,0,0,0,0,0,0,0,0,0,0],"sum_hessian":[1.020375E4,5.0245E3,5.17925E3,2.76525E3,2.25925E3,4.2775E2,4.7515E3,1.1325E3,1.63275E3,4.11E2,1.84825E3,2.6425E2,1.635E2,1.37725E3,3.37425E3,1.0815E3,5.1E1,1.13725E3,4.955E2,6.8975E2,1.1585E3,1E0,2.6325E2,2.225E1,1.4125E2,4.8925E2,8.88E2,1.19975E3,2.1745E3,3.65E1,1.45E1,6.75E0,1.1305E3,6.925E1,4.2625E2,6.66E2,2.375E1,1.39E2,1.0195E3,1.96E2,6.725E1,6.8E1,7.325E1,5E1,4.3925E2,9.55E1,7.925E2,1.5025E2,2.02425E3,1.5E0,1.3E1,5.39E2,5.915E2,1.5E0,4.2475E2,1.9025E2,4.7575E2,1.2E1,1.175E1,1.55E2,8.645E2,4.275E1,2.45E1,6.7E1,1E0,2.45E1,4.875E1,2.23E2,2.1625E2,5.75E0,8.975E1,1.3675E2,6.5575E2,2.175E1,1.285E2,3.72E2,1.65225E3],"tree_param":{"num_deleted":"0","num_feature":"19","num_nodes":"77","size_leaf_vector":"0"}},{"base_weights":[4.9707512E-3,-9.063522E-1,8.841742E-1,-1.4574614E0,-2.317339E-1,-1.1806188E0,1.0694911E0,-1.7928861E0,-1.2247658E0,1.8146905E0,-6.8885386E-1,-1.6778463E0,-3.713227E-1,3.474594E-1,1.3633753E0,-1.8057755E0,-1.2897147E0,-1.4106094E0,-7.943094E-1,-1.3460867E0,-3.0204108E-1,-1.7300677E0,-1.4128112E0,1.7556351E0,-7.683161E-1,-2.3479024E-1,9.6220994E-1,1.8173404E0,1.1147921E0,-1.6061963E0,-5.247626E-1,1.6155984E0,-1.4313904E0,1.794986E0,-1.2198092E0,-1.7802495E0,-1.1815555E0,1.8067976E0,-5.8937114E-1,1.3509562E0,-1.5435504E0,-1.7227094E0,-2.2657326E-1,1.8285447E0,-4.772683E-1,1.8964585E0,5.139402E-1,4.1053492E-1,1.2881408E0,3.7951934E-1,-1.3768834E0,-1.1985185E0,-1.6480154E0,-1.315431E0,-5.6618255E-1,-6.0836864E-1,-1.3957525E0,-8.587585E-1,2.1016105E-1,-1.5771583E0,-3.0793744E-1,-1.0129246E0,2.2614974E-1,-1.1075212E0,1.9232021E-1,-1.179849E-3,9.9555963E-1,-9.3429774E-1,5.996247E-1,1.8613472E0,1.0630573E0],"categories":[],"categories_nodes":[],"categories_segments":[],"categories_sizes":[],"default_left":[1,1,1,1,1,1,1,1,1,0,1,1,1,1,1,0,1,1,1,1,1,0,1,0,1,1,1,0,1,0,1,0,1,0,1,0,1,0,1,0,1,0,1,0,1,0,1,1,1,0,0,0,0,0,0,0,0,0,0,0,0,0,0,0,0,0,0,0,0,0,0],"id":1,"left_children":[1,3,5,7,9,11,13,15,17,-1,19,21,23,25,27,-1,29,31,33,35,37,-1,39,-1,41,43,45,-1,47,-1,49,-1,51,-1,53,-1,55,-1,57,-1,59,-1,61,-1,63,-1,65,67,69,-1,-1,-1,-1,-1,-1,-1,-1,-1,-1,-1,-1,-1,-1,-1,-1,-1,-1,-1,-1,-1,-1],"loss_changes":[8.137825E3,1.8538398E3,1.9792793E3,2.1203027E2,2.0999746E3,1.7088971E2,1.0062051E3,4.948242E0,1.287666E2,0E0,4.659967E2,1.2059326E0,1.393997E2,4.919369E2,3.784331E2,0E0,6.788761E0,7.3548096E1,5.441298E2,4.642981E1,7.01633E2,0E0,1.9741325E1,0E0,7.120465E1,3.542537E2,2.7895312E2,0E0,2.6574414E2,0E0,8.775696E0,0E0,5.48042E1,0E0,2.5697144E1,0E0,6.000763E1,0E0,2.1950476E2,0E0,1.471199E0,0E0,3.208513E1,0E0,2.6727618E2,0E0,1.1240088E2,1.1048849E2,2.2378027E2,0E0,0E0,0E0,0E0,0E0,0E0,0E0,0E0,0E0,0E0,0E0,0E0,0E0,0E0,0E0,0E0,0E0,0E0,0E0,0E0,0E0,0E0],"parents":[2147483647,0,0,1,1,2,2,3,3,4,4,5,5,6,6,7,7,8,8,10,10,11,11,12,12,13,13,14,14,16,16,17,17,18,18,19,19,20,20,22,22,24,24,25,25,26,26,28,28,30,30,32,32,34,34,36,36,38,38,40,40,42,42,44,44,46,46,47,47,48,48],"right_children":[2,4,6,8,10,12,14,16,18,-1,20,22,24,26,28,-1,30,32,34,36,38,-1,40,-1,42,44,46,-1,48,-1,50,-1,52,-1,54,-1,56,-1,58,-1,60,-1,62,-1,64,-1,66,68,70,-1,-1,-1,-1,-1,-1,-1,-1,-1,-1,-1,-1,-1,-1,-1,-1,-1,-1,-1,-1,-1,-1],"split_conditions":[-6.6473687E-1,-9.945991E-1,-1.9072568E0,-1.763511E0,1.1117638E0,-9.8316264E-1,-9.814327E-1,-5.418656E-1,-9.717399E-1,1.8146905E-1,-9.7992814E-1,-8.776561E-1,1.1028333E0,-5.4015636E-1,1.1175177E0,-1.8057756E-1,-9.4205135E-1,4.605022E-1,1.1056991E0,-1.6761775E0,1.1164467E0,-1.7300677E-1,9.588942E-1,1.7556351E-1,3.262981E-1,-1.1756846E-1,8.7203217E-1,1.8173404E-1,-9.952593E-1,-1.6061963E-1,5.977646E-2,1.6155985E-1,8.945594E-1,1.794986E-1,-3.1990772E-1,-1.7802495E-1,-7.1144575E-1,1.8067977E-1,-5.3993106E-1,1.3509563E-1,1.9948275E0,-1.7227094E-1,3.1219658E-2,1.8285447E-1,2.2210099E-2,1.8964586E-1,-9.9293804E-1,-1.6421103E0,1.1119134E0,3.7951935E-2,-1.3768834E-1,-1.1985185E-1,-1.6480154E-1,-1.315431E-1,-5.6618255E-2,-6.0836863E-2,-1.3957526E-1,-8.5875854E-2,2.1016104E-2,-1.5771584E-1,-3.0793745E-2,-1.0129245E-1,2.2614975E-2,-1.1075212E-1,1.9232022E-2,-1.17984906E-4,9.955596E-2,-9.3429774E-2,5.996247E-2,1.8613473E-1,1.0630573E-1],"split_indices":[2,16,8,9,16,16,15,13,15,0,15,15,16,5,15,0,15,9,15,8,15,0,15,0,0,2,5,0,16,0,3,0,7,0,14,0,0,0,5,0,0,0,2,0,2,0,16,7,16,0,0,0,0,0,0,0,0,0,0,0,0,0,0,0,0,0,0,0,0,0,0],"split_type":[0,0,0,0,0,0,0,0,0,0,0,0,0,0,0,0,0,0,0,0,0,0,0,0,0,0,0,0,0,0,0,0,0,0,0,0,0,0,0,0,0,0,0,0,0,0,0,0,0,0,0,0,0,0,0,0,0,0,0,0,0,0,0,0,0,0,0,0,0,0,0],"sum_hessian":[1.0154561E4,4.986186E3,5.168375E3,2.7436682E3,2.2425178E3,4.2522028E2,4.7431543E3,1.121029E3,1.6226392E3,4.0891714E2,1.8336007E3,2.6272815E2,1.6249214E2,1.3727311E3,3.3704236E3,1.0905055E3,3.0523535E1,1.1317463E3,4.9089285E2,6.7841956E2,1.1551813E3,2.1486447E2,4.7863663E1,2.5020159E1,1.3747198E2,7.053191E2,6.674119E2,1.190327E3,2.1800964E3,2.0812923E1,9.710611E0,7.195279E0,1.124551E3,6.8828995E1,4.2206387E2,1.8374246E2,4.946771E2,1.3788629E2,1.0172949E3,1.7403466E0,4.6123318E1,4.8988514E1,8.848347E1,7.348312E1,6.3183594E2,2.153551E2,4.5205682E2,4.3128793E2,1.7488086E3,4.9801884E0,4.7304235E0,5.4510065E2,5.794504E2,3.6731522E2,5.474866E1,1.3561482E2,3.5906226E2,7.608625E2,2.5643243E2,4.463291E1,1.4904046E0,3.1877262E1,5.6606205E1,3.2514133E2,3.0669464E2,2.1891354E2,2.3314328E2,5.267993E1,3.78608E2,4.910393E2,1.2577693E3],"tree_param":{"num_deleted":"0","num_feature":"19","num_nodes":"71","size_leaf_vector":"0"}},{"base_weights":[4.1800793E-3,-8.2450414E-1,8.0501544E-1,-1.3406564E0,-1.9540036E-1,-9.7663176E-1,9.9267507E-1,-1.6588818E0,-1.1220127E0,1.6790048E0,-6.1252946E-1,-1.450596E0,-2.924297E-1,3.51177E-1,1.2580826E0,-1.6709316E0,-1.1770098E0,-6.4544594E-1,-1.2723289E0,-1.6651702E0,-3.9034143E-1,-1.5431966E0,-2.9032227E-1,1.6564025E0,-6.888325E-1,1.7329203E0,1.994033E-1,1.7290745E0,9.5500404E-1,7.5213647E-1,-1.285577E0,-1.1327047E0,4.214998E-1,1.5807709E0,-1.2972788E0,-6.403564E-1,3.5688E-1,-1.6251647E0,-1.2816613E0,1.4360672E0,-7.935578E-1,-1.5134277E0,-1.8816896E-1,-6.369729E-1,7.649768E-1,-3.7013677E-1,1.0552973E0,-1.3358542E0,-8.624672E-2,-1.4807209E0,-7.0277035E-1,2.1309276E-1,1.4620187E0,-1.4411973E0,-9.950985E-1,-1.129269E0,-4.062899E-1,1.9552383E0,-8.46279E-2,-1.3250701E0,5.872187E-1,-1.2360102E0,1.3904066E0,-1.0410374E0,-1.6918169E0,-1.0355325E0,2.7421778E-1,-1.0939287E0,-2.7385923E-1,1.8016586E0,5.3057367E-1,1.6281053E0,-6.565122E-1,1.7330842E0,9.523469E-1],"categories":[],"categories_nodes":[],"categories_segments":[],"categories_sizes":[],"default_left":[1,1,1,1,1,1,1,1,1,0,1,1,1,1,1,0,1,1,1,0,1,1,1,0,1,0,1,0,1,0,1,1,1,0,1,1,1,0,1,0,1,1,1,1,1,1,1,0,0,0,0,0,0,0,0,0,0,0,0,0,0,0,0,0,0,0,0,0,0,0,0,0,0,0,0],"id":2,"left_children":[1,3,5,7,9,11,13,15,17,-1,19,21,23,25,27,-1,29,31,33,-1,35,37,39,-1,41,-1,43,-1,45,-1,47,49,51,-1,53,55,57,-1,59,-1,61,63,65,67,69,71,73,-1,-1,-1,-1,-1,-1,-1,-1,-1,-1,-1,-1,-1,-1,-1,-1,-1,-1,-1,-1,-1,-1,-1,-1,-1,-1,-1,-1],"loss_changes":[6.613319E3,1.5900098E3,1.6953428E3,1.8530762E2,1.7277031E3,1.563436E2,7.80251E2,4.3825684E0,1.13624756E2,0E0,4.2200946E2,3.0208984E1,1.5494002E2,2.8136005E2,4.6128516E2,0E0,7.262615E0,2.0068773E2,8.843298E1,0E0,2.792345E2,3.5769043E0,2.053168E1,0E0,6.8306274E1,0E0,5.735556E2,0E0,2.6294006E2,0E0,1.6230125E0,3.855664E1,2.6028217E1,0E0,5.090674E1,1.2764398E2,2.648465E2,0E0,6.2728806E0,0E0,1.9041584E1,3.5160522E0,4.123521E1,8.088504E1,1.7478253E2,8.103254E1,1.2651611E2,0E0,0E0,0E0,0E0,0E0,0E0,0E0,0E0,0E0,0E0,0E0,0E0,0E0,0E0,0E0,0E0,0E0,0E0,0E0,0E0,0E0,0E0,0E0,0E0,0E0,0E0,0E0,0E0],"parents":[2147483647,0,0,1,1,2,2,3,3,4,4,5,5,6,6,7,7,8,8,10,10,11,11,12,12,13,13,14,14,16,16,17,17,18,18,20,20,21,21,22,22,24,24,26,26,28,28,30,30,31,31,32,32,34,34,35,35,36,36,38,38,40,40,41,41,42,42,43,43,44,44,45,45,46,46],"right_children":[2,4,6,8,10,12,14,16,18,-1,20,22,24,26,28,-1,30,32,34,-1,36,38,40,-1,42,-1,44,-1,46,-1,48,50,52,-1,54,56,58,-1,60,-1,62,64,66,68,70,72,74,-1,-1,-1,-1,-1,-1,-1,-1,-1,-1,-1,-1,-1,-1,-1,-1,-1,-1,-1,-1,-1,-1,-1,-1,-1,-1,-1,-1],"split_conditions":[-6.6473687E-1,-9.945991E-1,-1.8004327E0,-1.763511E0,1.1117638E0,-9.8316264E-1,-9.952593E-1,-5.418656E-1,-9.352728E-1,1.6790049E-1,-1.8884797E0,-4.3477005E-1,1.1028333E0,-1.1855711E-1,1.1119134E0,-1.6709316E-1,-1.7425381E0,-1.0980562E0,5.2381295E-1,-1.6651702E-1,-4.1856968E-1,5.8041763E-1,4.8246533E-1,1.6564025E-1,3.262981E-1,1.7329203E-1,2.0274363E-2,1.7290746E-1,-1.6470052E0,7.521365E-2,1.2826502E0,-2.1954742E-1,-3.8974017E-1,1.5807709E-1,-2.1954742E-1,-2.1954742E-1,1.8078129E0,-1.6251647E-1,-1.4807954E0,1.4360672E-1,1.802627E-1,-7.7370596E-1,3.1219658E-2,-2.1954742E-1,1.0968854E0,-1.202766E-1,-1.16776645E-1,-1.3358542E-1,-8.624672E-3,-1.480721E-1,-7.0277035E-2,2.1309277E-2,1.4620188E-1,-1.4411972E-1,-9.950985E-2,-1.129269E-1,-4.0628992E-2,1.9552384E-1,-8.4627895E-3,-1.3250701E-1,5.872187E-2,-1.2360102E-1,1.3904066E-1,-1.04103744E-1,-1.6918169E-1,-1.0355325E-1,2.7421778E-2,-1.09392874E-1,-2.7385924E-2,1.8016587E-1,5.305737E-2,1.6281053E-1,-6.565122E-2,1.7330842E-1,9.523469E-2],"split_indices":[2,16,9,9,16,16,16,13,0,0,8,13,16,2,16,0,3,0,9,0,14,2,8,0,0,0,2,0,7,0,0,1,14,0,1,1,14,0,8,0,10,3,2,1,18,2,2,0,0,0,0,0,0,0,0,0,0,0,0,0,0,0,0,0,0,0,0,0,0,0,0,0,0,0,0],"split_type":[0,0,0,0,0,0,0,0,0,0,0,0,0,0,0,0,0,0,0,0,0,0,0,0,0,0,0,0,0,0,0,0,0,0,0,0,0,0,0,0,0,0,0,0,0,0,0,0,0,0,0,0,0,0,0,0,0,0,0,0,0,0,0,0,0,0,0,0,0,0,0,0,0,0,0],"sum_hessian":[9.963227E3,4.896462E3,5.0667646E3,2.6890676E3,2.207394E3,4.8242258E2,4.584342E3,1.0924594E3,1.5966083E3,4.012624E2,1.8061317E3,2.8433582E2,1.9808678E2,1.3422957E3,3.2420461E3,1.0634E3,2.9059322E1,3.841096E2,1.2124987E3,3.1365613E2,1.4924757E3,2.6301477E2,2.1321032E1,3.2944317E1,1.6514246E2,1.3181729E2,1.2104784E3,1.2675446E3,1.9745017E3,1.2324208E0,2.7826902E1,2.6364502E2,1.2046455E2,9.970624E0,1.2025281E3,1.1184075E3,3.7406815E2,1.9628333E2,6.6731445E1,4.3938637E0,1.6927168E1,6.162423E1,1.0351823E2,4.8827936E2,7.2219904E2,1.3873619E2,1.8357655E3,2.6598053E1,1.2288496E0,1.4435274E2,1.192923E2,1.0136649E2,1.9098047E1,8.1202026E2,3.905078E2,3.6084937E2,7.5755817E2,8.022111E1,2.9384705E2,6.550102E1,1.230424E0,1.4436507E1,2.4906597E0,1.8765995E1,4.2858234E1,3.6107883E1,6.741034E1,2.1531117E2,2.7296817E2,1.3194907E2,5.9025E2,1.680321E1,1.2193299E2,2.3998157E2,1.5957839E3],"tree_param":{"num_deleted":"0","num_feature":"19","num_nodes":"75","size_leaf_vector":"0"}},{"base_weights":[1.3313812E-3,-7.5891495E-1,7.3817945E-1,-1.2446749E0,-1.7065232E-1,-1.0491635E0,8.9553285E-1,-1.5646768E0,-1.0447263E0,1.5735843E0,-5.552084E-1,-1.4500375E0,-3.7872577E-1,1.8034264E-1,1.1003914E0,-1.1922693E0,-6.5297747E-1,-1.0032587E0,-2.7104521E-2,-1.4632664E0,-3.0157635E-1,1.5132952E0,-6.858866E-1,1.5904068E0,-8.714709E-2,1.7550135E-1,1.1797686E0,-8.137871E-1,-1.3249531E0,1.179897E0,-8.790924E-1,-1.5646476E0,-8.223566E-1,1.6929957E0,-2.0562093E-1,-1.4995337E0,-1.2288475E0,-1.0312417E0,6.1264336E-1,-1.4752581E0,-2.4869733E-1,-6.511626E-1,4.371439E-1,-7.038184E-1,4.7733098E-1,1.2278508E0,1.3099141E-1,-1.1349182E0,2.7879024E-2,-1.4063474E0,-1.084605E0,1.1409348E-1,1.9822229E0,-1.3737156E0,-6.056266E-1,-3.450284E-1,-1.0907334E0,-1.6047136E-1,1.74717E0,-1.3622946E0,-5.751501E-3,1.4545113E0,-1.3716234E0,-8.645851E-1,-1.5474309E0,3.091741E-1,-7.787113E-1,-1.0510286E0,-1.2798356E-1,1.6702515E0,4.5132216E-2,1.2148045E0,-8.4288085E-1,-1.872253E-1,8.382251E-1,9.7177345E-1,1.4002248E0,2.517709E-1,-1.3078755E0],"categories":[],"categories_nodes":[],"categories_segments":[],"categories_sizes":[],"default_left":[1,1,1,1,1,1,1,0,1,0,1,1,1,1,1,1,1,1,1,1,1,0,1,0,1,1,1,1,1,1,1,0,1,1,1,0,1,0,0,1,1,1,1,1,1,1,1,0,0,0,0,0,0,0,0,0,0,0,0,0,0,0,0,0,0,0,0,0,0,0,0,0,0,0,0,0,0,0,0],"id":3,"left_children":[1,3,5,7,9,11,13,-1,15,-1,17,19,21,23,25,27,29,31,33,35,37,-1,39,-1,41,43,45,47,49,51,53,-1,55,57,59,-1,61,-1,-1,63,65,67,69,71,73,75,77,-1,-1,-1,-1,-1,-1,-1,-1,-1,-1,-1,-1,-1,-1,-1,-1,-1,-1,-1,-1,-1,-1,-1,-1,-1,-1,-1,-1,-1,-1,-1,-1],"loss_changes":[5.4743257E3,1.3742095E3,1.396625E3,1.6691577E2,1.460803E3,1.07492615E2,6.6812476E2,0E0,9.310339E1,0E0,4.2212097E2,3.3755493E0,8.924426E1,3.83679E2,2.6009814E2,5.811267E1,1.8612035E2,9.6733215E1,2.5211798E2,2.6660156E-1,3.3804212E0,0E0,4.4933945E1,0E0,2.533149E2,7.5027176E1,1.6449707E2,8.342555E1,1.5516602E1,4.2076973E1,5.3018158E1,0E0,9.340393E1,8.032166E0,1.7192804E2,0E0,1.6852818E1,0E0,0E0,7.153168E-1,2.557505E1,8.61868E1,2.1457632E2,2.0319218E1,5.0547356E1,1.3644678E2,2.5398754E1,0E0,0E0,0E0,0E0,0E0,0E0,0E0,0E0,0E0,0E0,0E0,0E0,0E0,0E0,0E0,0E0,0E0,0E0,0E0,0E0,0E0,0E0,0E0,0E0,0E0,0E0,0E0,0E0,0E0,0E0,0E0,0E0],"parents":[2147483647,0,0,1,1,2,2,3,3,4,4,5,5,6,6,8,8,10,10,11,11,12,12,13,13,14,14,15,15,16,16,17,17,18,18,19,19,20,20,22,22,24,24,25,25,26,26,27,27,28,28,29,29,30,30,32,32,33,33,34,34,36,36,39,39,40,40,41,41,42,42,43,43,44,44,45,45,46,46],"right_children":[2,4,6,8,10,12,14,-1,16,-1,18,20,22,24,26,28,30,32,34,36,38,-1,40,-1,42,44,46,48,50,52,54,-1,56,58,60,-1,62,-1,-1,64,66,68,70,72,74,76,78,-1,-1,-1,-1,-1,-1,-1,-1,-1,-1,-1,-1,-1,-1,-1,-1,-1,-1,-1,-1,-1,-1,-1,-1,-1,-1,-1,-1,-1,-1,-1,-1],"split_conditions":[-6.6473687E-1,-9.945991E-1,-1.9072568E0,-1.8692207E0,1.1117638E0,-9.8316264E-1,-3.800536E-1,-1.5646768E-1,-3.782366E-1,1.5735844E-1,-3.7974572E-1,1.9948275E0,1.1028333E0,-1.16776645E-1,-1.0984484E0,-9.352728E-1,-3.6148008E-2,-1.8280423E0,-3.6318757E-2,-5.695823E-2,2.6114276E-1,1.5132952E-1,3.262981E-1,1.5904067E-1,2.1185024E-2,-3.746479E-1,2.4468088E0,-1.0980562E0,7.3325646E-1,-2.6350963E-1,-3.172745E-2,-1.5646476E-1,-7.1144575E-1,-1.8467118E0,-3.5124592E-2,-1.4995337E-1,1.77127E0,-1.03124164E-1,6.1264336E-2,-1.3015354E0,7.7395225E-1,-9.9357474E-1,1.0980567E0,-4.331503E-2,-9.9502635E-1,-5.4015636E-1,1.4250858E0,-1.13491826E-1,2.7879025E-3,-1.4063475E-1,-1.084605E-1,1.1409349E-2,1.982223E-1,-1.3737157E-1,-6.056266E-2,-3.450284E-2,-1.0907334E-1,-1.6047137E-2,1.74717E-1,-1.3622946E-1,-5.751501E-4,1.4545113E-1,-1.3716234E-1,-8.645851E-2,-1.5474309E-1,3.091741E-2,-7.787114E-2,-1.0510286E-1,-1.2798356E-2,1.6702515E-1,4.513222E-3,1.2148046E-1,-8.428808E-2,-1.872253E-2,8.382251E-2,9.717735E-2,1.4002249E-1,2.5177091E-2,-1.3078755E-1],"split_indices":[2,16,8,8,16,16,4,0,4,0,4,0,16,2,17,0,4,8,4,14,7,0,0,0,2,7,17,0,0,4,4,0,0,8,4,0,14,0,0,0,0,16,18,4,16,5,0,0,0,0,0,0,0,0,0,0,0,0,0,0,0,0,0,0,0,0,0,0,0,0,0,0,0,0,0,0,0,0,0],"split_type":[0,0,0,0,0,0,0,0,0,0,0,0,0,0,0,0,0,0,0,0,0,0,0,0,0,0,0,0,0,0,0,0,0,0,0,0,0,0,0,0,0,0,0,0,0,0,0,0,0,0,0,0,0,0,0,0,0,0,0,0,0,0,0,0,0,0,0,0,0,0,0,0,0,0,0,0,0,0,0],"sum_hessian":[9.770335E3,4.808802E3,4.9615327E3,2.6332612E3,2.1755405E3,4.0099954E2,4.560533E3,1.01000415E3,1.6232571E3,3.924423E2,1.7830984E3,2.5022188E2,1.5077768E2,1.0158694E3,3.544664E3,1.1776711E3,4.4558585E2,9.641776E2,8.189208E2,2.4710144E2,3.1204371E0,2.051075E1,1.3026692E2,1.6119406E2,8.546753E2,2.8042386E2,3.2642402E3,3.075405E2,8.701307E2,4.8470295E1,3.9711554E2,2.331134E2,7.310642E2,7.6200905E1,7.4271985E2,2.0932036E2,3.778108E1,1.6641937E0,1.4562433E0,4.558538E1,8.468154E1,4.1162274E2,4.4305258E2,7.131887E1,2.0910498E2,3.120985E3,1.4325511E2,2.2235448E2,8.518603E1,6.463812E2,2.237495E2,2.1307623E1,2.716267E1,1.3995418E2,2.5716138E2,2.639302E2,4.6713397E2,2.1082768E0,7.409263E1,1.08573456E2,6.341464E2,1.4445506E0,3.633653E1,6.1899548E0,3.9395424E1,4.1459553E1,4.322199E1,2.327346E2,1.7888812E2,1.0608671E2,3.3696588E2,4.297077E0,6.702179E1,7.376118E1,1.353438E2,1.2583016E3,1.8626835E3,1.3292253E2,1.033259E1],"tree_param":{"num_deleted":"0","num_feature":"19","num_nodes":"79","size_leaf_vector":"0"}},{"base_weights":[3.8415391E-4,-7.0645666E-1,6.8062025E-1,-1.1642262E0,-1.3109149E-1,-4.147908E-2,1.0334315E0,-1.4833453E0,-9.7291523E-1,1.6136761E0,-4.9401304E-1,-6.9641674E-1,4.0204242E-1,1.5405718E0,7.753141E-1,-7.206211E-1,-1.2478299E0,-1.4801677E0,-2.9248914E-1,1.4731113E0,-8.594917E-1,-9.6971077E-1,5.668086E-1,-5.8909535E-1,8.702238E-1,-8.730217E-1,2.0064273E0,-1.4724191E0,-6.785285E-1,-9.430549E-1,-2.2550639E-2,-1.24061E0,-3.7581718E-1,1.0333667E0,-1.1020808E0,-6.283292E-1,7.1664554E-1,-1.4014909E0,-1.5605855E-1,5.2679515E-1,1.1725426E0,-1.2201995E0,-4.920735E-1,2.3077374E0,1.6069859E0,1.3787265E0,-1.4847376E0,6.9842374E-1,-8.1501305E-1,-1.0137113E0,-4.8441473E-1,1.4830052E0,-2.6940128E-1,-9.3448144E-1,-1.561307E0,-4.707512E-1,1.5966041E0,-4.8830166E-1,1.4160919E0,-1.3038911E0,-5.060846E-1,1.3750405E0,-7.908035E-1,1.6143782E0,5.3918266E-1,-1.4205265E0,-4.6806338E-1,-1.0056492E0,2.7578327E-1,1.5679752E0,3.5773638E-1,1.5982021E0,8.806485E-1],"categories":[],"categories_nodes":[],"categories_segments":[],"categories_sizes":[],"default_left":[1,1,1,1,1,1,1,0,1,0,1,1,1,0,1,1,1,0,1,0,1,1,1,1,1,1,1,1,1,1,1,1,1,1,1,1,1,1,1,1,1,0,0,0,0,0,0,0,0,0,0,0,0,0,0,0,0,0,0,0,0,0,0,0,0,0,0,0,0,0,0,0,0],"id":4,"left_children":[1,3,5,7,9,11,13,-1,15,-1,17,19,21,-1,23,25,27,-1,29,-1,31,33,35,37,39,41,43,45,47,49,51,53,55,57,59,61,63,65,67,69,71,-1,-1,-1,-1,-1,-1,-1,-1,-1,-1,-1,-1,-1,-1,-1,-1,-1,-1,-1,-1,-1,-1,-1,-1,-1,-1,-1,-1,-1,-1,-1,-1],"loss_changes":[4.585727E3,1.23175E3,1.2382329E3,1.5757422E2,1.31379E3,4.6393423E2,4.2619434E2,0E0,1.122489E2,0E0,3.4084515E2,2.2941037E2,2.1579256E2,0E0,2.80964E2,3.5627444E2,9.864172E1,0E0,2.5060019E2,0E0,1.1020926E2,2.8313782E1,1.5281418E2,4.954233E1,2.0965576E2,1.0633966E2,1.7618408E0,2.1644531E1,4.234983E1,1.3070221E1,3.7563135E2,3.1465271E1,5.0566143E1,4.6919293E0,1.0961487E1,3.2113693E1,1.19653076E2,2.0675659E-1,3.4541794E1,1.6665588E2,1.3231824E2,0E0,0E0,0E0,0E0,0E0,0E0,0E0,0E0,0E0,0E0,0E0,0E0,0E0,0E0,0E0,0E0,0E0,0E0,0E0,0E0,0E0,0E0,0E0,0E0,0E0,0E0,0E0,0E0,0E0,0E0,0E0,0E0],"parents":[2147483647,0,0,1,1,2,2,3,3,4,4,5,5,6,6,8,8,10,10,11,11,12,12,14,14,15,15,16,16,18,18,20,20,21,21,22,22,23,23,24,24,25,25,26,26,27,27,28,28,29,29,30,30,31,31,32,32,33,33,34,34,35,35,36,36,37,37,38,38,39,39,40,40],"right_children":[2,4,6,8,10,12,14,-1,16,-1,18,20,22,-1,24,26,28,-1,30,-1,32,34,36,38,40,42,44,46,48,50,52,54,56,58,60,62,64,66,68,70,72,-1,-1,-1,-1,-1,-1,-1,-1,-1,-1,-1,-1,-1,-1,-1,-1,-1,-1,-1,-1,-1,-1,-1,-1,-1,-1,-1,-1,-1,-1,-1,-1],"split_conditions":[-6.6473687E-1,-9.7992814E-1,-9.814327E-1,-1.8054655E0,1.11721E0,-3.800536E-1,1.1172302E0,-1.4833453E-1,8.945594E-1,1.6136761E-1,-1.8884797E0,-1.24344386E-1,-1.893285E0,1.5405719E-1,-1.8004327E0,-3.703365E-1,-2.1954742E-1,-1.4801678E-1,-9.945991E-1,1.4731114E-1,-2.1954742E-1,-3.8851168E-2,-1.0984484E0,-3.7176389E-1,-5.3996E-1,-1.6440344E0,-9.835035E-1,4.594356E-1,4.605022E-1,-3.6895788E-1,1.1088328E0,8.825414E-1,-3.225859E-2,-6.5939415E-1,-3.0478925E-1,-1.16888046E-1,-2.1321654E-1,1.9017822E0,3.1219658E-2,-1.1708285E-1,8.7207633E-1,-1.2201995E-1,-4.9207352E-2,2.3077373E-1,1.606986E-1,1.3787265E-1,-1.4847377E-1,6.9842376E-2,-8.1501305E-2,-1.0137113E-1,-4.8441473E-2,1.4830051E-1,-2.6940128E-2,-9.344815E-2,-1.561307E-1,-4.707512E-2,1.5966041E-1,-4.8830166E-2,1.4160919E-1,-1.3038911E-1,-5.0608464E-2,1.3750406E-1,-7.908035E-2,1.6143782E-1,5.391827E-2,-1.4205265E-1,-4.680634E-2,-1.0056492E-1,2.7578328E-2,1.5679751E-1,3.577364E-2,1.5982021E-1,8.806485E-2],"split_indices":[2,15,15,8,15,4,15,0,7,0,8,2,8,0,9,7,1,0,16,0,1,4,17,7,5,7,16,8,9,14,16,7,10,16,14,2,17,12,2,2,5,0,0,0,0,0,0,0,0,0,0,0,0,0,0,0,0,0,0,0,0,0,0,0,0,0,0,0,0,0,0,0,0],"split_type":[0,0,0,0,0,0,0,0,0,0,0,0,0,0,0,0,0,0,0,0,0,0,0,0,0,0,0,0,0,0,0,0,0,0,0,0,0,0,0,0,0,0,0,0,0,0,0,0,0,0,0,0,0,0,0,0,0,0,0,0,0,0,0,0,0,0,0,0,0,0,0,0,0],"sum_hessian":[9.535331E3,4.6762007E3,4.8591304E3,2.6036628E3,2.072538E3,1.5951718E3,3.2639585E3,9.733304E2,1.6303325E3,3.5627548E2,1.7162626E3,6.438474E2,9.5132434E2,1.0992402E3,2.1647183E3,8.520304E2,7.783021E2,2.901368E2,1.4261257E3,4.4450497E1,5.993969E2,1.0148985E2,8.498345E2,1.4044814E2,2.0242701E3,8.0757886E2,4.445155E1,5.569853E2,2.2131682E2,4.1748105E2,1.00864465E3,3.3436456E2,2.6503238E2,5.8691306E0,9.562072E1,9.432008E1,7.555144E2,4.8056206E1,9.239193E1,9.4898395E2,1.0752861E3,4.2136456E2,3.862143E2,2.2614994E1,2.1836555E1,1.9189359E0,5.5506635E2,1.9587458E1,2.0172935E2,3.607023E2,5.6778748E1,1.4137611E2,8.6726855E2,1.7307027E2,1.6129428E2,2.5358833E2,1.1444053E1,1.1240784E0,4.7450523E0,7.054554E1,2.5075176E1,6.515713E0,8.7804375E1,1.2336255E2,6.3215186E2,4.6584362E1,1.471844E0,3.0688227E1,6.17037E1,1.314081E2,8.1757587E2,4.355957E2,6.396905E2],"tree_param":{"num_deleted":"0","num_feature":"19","num_nodes":"73","size_leaf_vector":"0"}},{"base_weights":[1.375954E-5,-7.1973985E-1,5.7672644E-1,-9.627997E-1,4.7442336E-2,-9.78929E-1,7.0789474E-1,-1.3851388E0,-7.0035446E-1,1.7061288E0,-6.4346945E-1,-1.2710041E0,4.1706074E-2,1.18094675E-1,9.48577E-1,-1.4039911E0,-1.0943083E0,-1.008947E0,-2.4613282E-1,1.876039E0,1.5566096E0,-8.963469E-1,2.0598565E-1,1.33967E0,-1.2945884E0,1.6967735E0,-2.0135865E-1,1.4199241E0,-7.784729E-2,5.099762E-1,1.0940616E0,-1.4223088E0,-1.248195E0,1.418161E0,-1.2640367E0,-1.1160052E0,-4.0784585E-1,1.4957826E0,-6.4125013E-1,2.200789E0,1.7505099E0,-9.801979E-1,9.0552735E-1,1.6085731E0,-1.6799201E-1,-6.7122906E-1,-1.3307724E0,-6.928833E-1,5.353836E-1,9.738116E-1,1.6720039E0,-1.1329837E0,1.4350377E-1,1.500521E0,3.3651233E-1,1.4566731E0,9.1198E-1,1.4523194E0,-1.3374894E0,-1.3392733E0,-9.8553056E-1,1.6309786E0,-1.1358542E0,1.8448786E0,-8.2969606E-1,-1.17823E0,-4.3857333E-1,1.4221647E0,2.046433E0,-1.2400479E0,-6.848715E-1,-1.0020682E-1,1.5783714E0,-8.7783253E-1,4.4537437E-1,-1.3415276E0,1.2288504E0,-1.4230475E0,-1.2276707E0,-9.7791976E-1,-1.7458919E-1,-1.0279725E0,1.0154543E0,1.6923232E0,-1.5129473E0,-1.3721027E0,-7.507428E-1,1.7126743E0,-1.8090013E-1,1.5069193E0,4.075019E-1,-1.6359538E0,4.9898058E-1,-1.867062E-1,9.7208005E-1],"categories":[],"categories_nodes":[],"categories_segments":[],"categories_sizes":[],"default_left":[1,1,1,1,1,1,1,1,1,1,1,1,1,1,1,1,1,1,1,1,0,1,1,0,1,0,1,1,1,1,1,0,1,0,1,1,1,0,1,0,1,1,1,0,1,1,1,1,1,1,0,1,1,1,1,0,1,0,0,0,0,0,0,0,0,0,0,0,0,0,0,0,0,0,0,0,0,0,0,0,0,0,0,0,0,0,0,0,0,0,0,0,0,0,0],"id":5,"left_children":[1,3,5,7,9,11,13,15,17,19,21,23,25,27,29,31,33,35,37,39,-1,41,43,-1,45,-1,47,49,51,53,55,-1,57,-1,59,61,63,-1,65,-1,67,69,71,-1,73,75,77,79,81,83,-1,85,87,89,91,-1,93,-1,-1,-1,-1,-1,-1,-1,-1,-1,-1,-1,-1,-1,-1,-1,-1,-1,-1,-1,-1,-1,-1,-1,-1,-1,-1,-1,-1,-1,-1,-1,-1,-1,-1,-1,-1,-1,-1],"loss_changes":[3.8603093E3,7.7146216E2,1.0542148E3,3.472522E2,1.1428384E3,1.1985922E2,6.758887E2,5.0595703E0,2.7162732E2,4.529297E0,1.5141882E2,2.09758E1,3.670425E1,3.5244296E2,2.1523657E2,1.4389648E0,3.4956367E1,7.384888E1,5.419232E2,1.54422E0,0E0,8.288678E1,8.541412E1,0E0,6.103882E0,0E0,2.9235546E1,1.8698181E1,2.8077872E2,1.4455336E2,1.6628369E2,0E0,3.2484406E1,0E0,2.1763611E-1,5.5260254E1,1.6891061E2,0E0,6.928522E1,0E0,6.841675E0,3.8984314E1,1.6840584E1,0E0,5.6581753E1,2.589435E1,1.0326538E0,6.9568977E0,2.540702E1,1.2344183E2,0E0,1.8023346E1,5.0631927E2,2.637329E-1,2.3145604E2,0E0,1.1195093E2,0E0,0E0,0E0,0E0,0E0,0E0,0E0,0E0,0E0,0E0,0E0,0E0,0E0,0E0,0E0,0E0,0E0,0E0,0E0,0E0,0E0,0E0,0E0,0E0,0E0,0E0,0E0,0E0,0E0,0E0,0E0,0E0,0E0,0E0,0E0,0E0,0E0,0E0],"parents":[2147483647,0,0,1,1,2,2,3,3,4,4,5,5,6,6,7,7,8,8,9,9,10,10,11,11,12,12,13,13,14,14,15,15,16,16,17,17,18,18,19,19,21,21,22,22,24,24,26,26,27,27,28,28,29,29,30,30,32,32,34,34,35,35,36,36,38,38,40,40,41,41,42,42,44,44,45,45,46,46,47,47,48,48,49,49,51,51,52,52,53,53,54,54,56,56],"right_children":[2,4,6,8,10,12,14,16,18,20,22,24,26,28,30,32,34,36,38,40,-1,42,44,-1,46,-1,48,50,52,54,56,-1,58,-1,60,62,64,-1,66,-1,68,70,72,-1,74,76,78,80,82,84,-1,86,88,90,92,-1,94,-1,-1,-1,-1,-1,-1,-1,-1,-1,-1,-1,-1,-1,-1,-1,-1,-1,-1,-1,-1,-1,-1,-1,-1,-1,-1,-1,-1,-1,-1,-1,-1,-1,-1,-1,-1,-1,-1],"split_conditions":[-3.800536E-1,-5.846267E-1,-1.9058547E0,-1.8004327E0,1.7729785E0,3.1219658E-2,-6.6473687E-1,3.236643E-2,-9.808835E-1,-6.6424906E-1,-5.3993106E-1,-2.6667213E-1,1.0911355E0,-3.6148008E-2,-9.814327E-1,-5.148605E-1,1.0618397E0,-5.349411E-1,1.1115766E0,-9.9064386E-1,1.5566097E-1,1.1114557E-1,8.6987305E-1,1.33967E-1,-4.327826E-2,1.6967736E-1,1.983429E0,-2.646587E-1,-3.5124592E-2,-3.5640627E-2,1.1175177E0,-1.4223088E-1,8.651254E-1,1.4181611E-1,-9.372232E-1,5.189548E-1,8.6343014E-1,1.4957826E-1,-2.1954742E-1,2.200789E-1,1.1033764E0,-2.1954742E-1,-3.636456E-1,1.608573E-1,8.813191E-1,-2.644685E-1,-2.9622687E-2,8.994595E-1,-3.0296206E-1,-2.6562282E-1,1.6720039E-1,-9.6690196E-1,3.087718E-1,3.8235397E0,-3.4821413E-2,1.4566731E-1,-1.6470072E0,1.4523195E-1,-1.3374893E-1,-1.3392733E-1,-9.8553054E-2,1.6309786E-1,-1.1358543E-1,1.8448786E-1,-8.2969606E-2,-1.17823005E-1,-4.3857332E-2,1.4221647E-1,2.046433E-1,-1.24004796E-1,-6.848715E-2,-1.0020683E-2,1.5783714E-1,-8.7783255E-2,4.4537436E-2,-1.3415276E-1,1.2288504E-1,-1.4230476E-1,-1.2276707E-1,-9.779198E-2,-1.745892E-2,-1.0279725E-1,1.0154543E-1,1.6923232E-1,-1.5129474E-1,-1.3721028E-1,-7.507428E-2,1.7126743E-1,-1.8090013E-2,1.5069193E-1,4.075019E-2,-1.6359538E-1,4.989806E-2,-1.867062E-2,9.720801E-2],"split_indices":[4,13,8,9,13,2,2,2,15,2,5,4,18,4,15,5,18,5,15,16,0,10,5,0,4,0,18,4,4,4,15,0,5,0,15,9,5,0,1,0,16,1,18,0,5,4,4,5,7,4,0,15,4,14,4,0,7,0,0,0,0,0,0,0,0,0,0,0,0,0,0,0,0,0,0,0,0,0,0,0,0,0,0,0,0,0,0,0,0,0,0,0,0,0,0],"split_type":[0,0,0,0,0,0,0,0,0,0,0,0,0,0,0,0,0,0,0,0,0,0,0,0,0,0,0,0,0,0,0,0,0,0,0,0,0,0,0,0,0,0,0,0,0,0,0,0,0,0,0,0,0,0,0,0,0,0,0,0,0,0,0,0,0,0,0,0,0,0,0,0,0,0,0,0,0,0,0,0,0,0,0,0,0,0,0,0,0,0,0,0,0,0,0],"sum_hessian":[9.29791E3,4.1359194E3,5.161991E3,3.1406414E3,9.9527795E2,4.0089648E2,4.7610947E3,1.2020192E3,1.9386222E3,2.9223465E2,7.030433E2,3.1150717E2,8.938933E1,1.3802461E3,3.3808486E3,1.1252498E3,7.676937E1,1.1536354E3,7.849869E2,1.3138475E2,1.608499E2,5.4172107E2,1.6132219E2,2.2893012E0,3.0921786E2,1.0680859E1,7.8708466E1,1.7974982E2,1.2004962E3,8.432276E2,2.537621E3,9.995936E2,1.2565608E2,4.3924837E0,7.237689E1,9.7850385E2,1.751315E2,1.4462166E2,6.4036523E2,3.201872E1,9.9366035E1,5.1806854E2,2.3652529E1,3.326436E1,1.2805783E2,1.803692E1,2.9118094E2,4.7246826E1,3.1461641E1,6.66538E1,1.1309601E2,2.0745952E2,9.9303674E2,1.2452007E2,7.187075E2,8.459436E2,1.6916775E3,3.5333428E0,1.2212274E2,5.3984528E1,1.839236E1,6.4374313E0,9.720664E2,2.709075E1,1.4804074E2,1.7415051E2,4.662147E2,4.9854828E1,4.951121E1,2.7388522E2,2.4418335E2,9.822063E0,1.3830466E1,5.9160744E1,6.8897095E1,1.3550588E1,4.486332E0,1.4690227E2,1.4427867E2,2.9910633E1,1.7336191E1,7.123285E0,2.4338356E1,5.1960167E1,1.469364E1,1.2602947E2,8.143004E1,1.693922E2,8.2364453E2,1.2341894E2,1.1011412E0,5.4003376E1,6.6470416E2,8.762911E1,1.6040485E3],"tree_param":{"num_deleted":"0","num_feature":"19","num_nodes":"95","size_leaf_vector":"0"}},{"base_weights":[5.1316265E-3,-6.7429733E-1,5.4283637E-1,-9.0413386E-1,4.527067E-2,-7.500985E-2,8.258352E-1,-1.3226336E0,-6.4969486E-1,1.5966382E0,-5.726171E-1,-7.20491E-1,3.0824676E-1,-3.7366733E-1,8.997601E-1,-1.3385599E0,-8.264184E-1,-1.918192E-1,-9.558261E-1,1.7253495E0,1.4765788E0,-1.0820895E0,-1.2774445E-1,5.527533E-1,-8.6509603E-1,1.4706277E0,4.4614347E-3,-1.0193683E0,1.9722264E-1,-1.2849426E-1,9.5860785E-1,-1.3563775E0,-1.2004586E0,-1.1939499E0,5.9222095E-2,-1.0643886E0,-1.9971116E-2,1.5205636E0,-1.0019188E0,1.9737135E0,1.6226552E0,-7.5385576E-1,-1.3360919E0,-2.5262034E-1,1.3369827E0,-2.5476888E-1,1.6549923E0,-1.321819E0,-5.663815E-1,1.4617908E0,-1.2486463E-1,4.8085657E-1,-1.0673432E0,-1.1010839E0,5.150425E-1,1.0964005E0,-7.0568156E-1,1.027358E0,2.2908644E-1,1.3196219E0,-1.2708592E0,-1.2904849E0,-3.3882344E-1,-8.251294E-1,7.069565E-1,-1.3750523E0,-7.6772714E-1,1.7100822E0,-1.7263527E-1,-1.1361194E0,-4.3165046E-1,1.3602618E0,1.8490403E0,2.0937657E-1,-9.869875E-1,-1.3598278E0,-1.4434355E-1,4.888992E-1,-4.0545154E-1,-3.812859E-1,1.5309478E0,1.7101486E0,-1.3862171E0,4.1860965E-1,1.6971531E0,1.5151882E0,-7.85399E-1,4.532826E-2,1.524068E0,-4.710482E-1,3.9531487E-1,-2.6890388E-1,1.0017612E0,-1.2293881E0,-7.174865E-1,1.008716E0,-1.3903441E0,-4.4804502E-1,7.814027E-1,1.2446694E0,-7.460377E-1,-1.2839812E-1,-1.3949338E0,3.3036405E-1,1.0801247E0,-1.1654962E0,5.277089E-1],"categories":[],"categories_nodes":[],"categories_segments":[],"categories_sizes":[],"default_left":[1,1,1,1,1,1,1,1,1,1,1,1,1,1,1,1,1,1,1,1,0,1,1,1,1,0,1,1,1,1,1,0,1,1,1,1,1,0,1,0,1,1,1,1,1,1,1,0,1,1,1,1,1,1,1,1,1,1,1,0,0,0,0,0,0,0,0,0,0,0,0,0,0,0,0,0,0,0,0,0,0,0,0,0,0,0,0,0,0,0,0,0,0,0,0,0,0,0,0,0,0,0,0,0,0,0,0],"id":6,"left_children":[1,3,5,7,9,11,13,15,17,19,21,23,25,27,29,31,33,35,37,39,-1,41,43,45,47,-1,49,51,53,55,57,-1,59,61,63,65,67,-1,69,-1,71,73,75,77,79,81,83,-1,85,87,89,91,93,95,97,99,101,103,105,-1,-1,-1,-1,-1,-1,-1,-1,-1,-1,-1,-1,-1,-1,-1,-1,-1,-1,-1,-1,-1,-1,-1,-1,-1,-1,-1,-1,-1,-1,-1,-1,-1,-1,-1,-1,-1,-1,-1,-1,-1,-1,-1,-1,-1,-1,-1,-1],"loss_changes":[3.2927063E3,6.585502E2,8.7976355E2,3.2049023E2,9.258083E2,3.9145007E2,3.0632324E2,7.9038086E0,2.631634E2,1.7033691E0,1.5642546E2,1.0901013E2,3.5063E2,7.4304855E1,1.968247E2,1.0858154E0,1.246171E1,1.1304914E2,1.3001587E2,3.2196045E-2,0E0,2.5828003E1,6.799564E1,5.447609E1,7.15238E1,0E0,1.4874327E2,7.314377E0,4.4938087E1,1.2580627E2,1.5398291E2,0E0,2.5583145E1,1.7874908E0,7.5243735E0,1.0377304E1,1.6695415E2,0E0,8.413245E1,0E0,3.1487885E0,3.225425E1,4.899933E0,3.8920082E1,1.032143E1,8.222226E1,6.350632E-1,0E0,1.4799954E2,5.605438E0,1.3072734E2,1.6822395E0,4.326706E0,1.4502506E1,2.2685297E1,1.6509201E1,4.7892822E1,1.0298071E2,1.11435524E2,0E0,0E0,0E0,0E0,0E0,0E0,0E0,0E0,0E0,0E0,0E0,0E0,0E0,0E0,0E0,0E0,0E0,0E0,0E0,0E0,0E0,0E0,0E0,0E0,0E0,0E0,0E0,0E0,0E0,0E0,0E0,0E0,0E0,0E0,0E0,0E0,0E0,0E0,0E0,0E0,0E0,0E0,0E0,0E0,0E0,0E0,0E0,0E0],"parents":[2147483647,0,0,1,1,2,2,3,3,4,4,5,5,6,6,7,7,8,8,9,9,10,10,11,11,12,12,13,13,14,14,15,15,16,16,17,17,18,18,19,19,21,21,22,22,23,23,24,24,26,26,27,27,28,28,29,29,30,30,32,32,33,33,34,34,35,35,36,36,38,38,40,40,41,41,42,42,43,43,44,44,45,45,46,46,48,48,49,49,50,50,51,51,52,52,53,53,54,54,55,55,56,56,57,57,58,58],"right_children":[2,4,6,8,10,12,14,16,18,20,22,24,26,28,30,32,34,36,38,40,-1,42,44,46,48,-1,50,52,54,56,58,-1,60,62,64,66,68,-1,70,-1,72,74,76,78,80,82,84,-1,86,88,90,92,94,96,98,100,102,104,106,-1,-1,-1,-1,-1,-1,-1,-1,-1,-1,-1,-1,-1,-1,-1,-1,-1,-1,-1,-1,-1,-1,-1,-1,-1,-1,-1,-1,-1,-1,-1,-1,-1,-1,-1,-1,-1,-1,-1,-1,-1,-1,-1,-1,-1,-1,-1,-1],"split_conditions":[-3.800536E-1,-5.846267E-1,-6.460644E-1,-1.8004327E0,1.7729785E0,-9.7992814E-1,-1.800302E0,1.3029982E0,-9.352728E-1,-6.459868E-1,-2.1954742E-1,-3.6148008E-2,1.1164467E0,-9.8316264E-1,-1.6470072E0,-5.576425E-1,-3.8675508E-1,-1.0897847E0,5.260105E-1,-9.9064386E-1,1.4765789E-1,8.930128E-1,-3.225859E-2,-2.6350963E-1,-3.438738E-2,1.4706276E-1,-3.7575576E-2,-4.2043317E-2,3.262981E-1,3.0734235E-1,3.1720972E0,-1.3563775E-1,2.1151337E-1,1.0692503E0,-9.6257216E-1,-2.1954742E-1,-2.1612708E-1,1.5205637E-1,-5.5223536E-1,1.9737135E-1,1.1033764E0,-1.0166645E0,7.1269256E-1,-1.1275289E0,2.0421056E-1,-2.6562282E-1,-1.4683536E0,-1.321819E-1,3.07216E-1,-1.7586462E0,-4.1856968E-1,-8.776561E-1,2.6462945E-1,1.1028333E0,-3.6102265E-1,1.4250858E0,-4.4692284E-1,-1.0984484E0,-9.8142904E-1,1.319622E-1,-1.2708592E-1,-1.290485E-1,-3.3882346E-2,-8.251294E-2,7.069565E-2,-1.3750523E-1,-7.677271E-2,1.7100821E-1,-1.7263528E-2,-1.1361194E-1,-4.3165047E-2,1.3602619E-1,1.8490402E-1,2.0937657E-2,-9.869875E-2,-1.3598278E-1,-1.4434355E-2,4.888992E-2,-4.0545154E-2,-3.8128592E-2,1.5309478E-1,1.7101486E-1,-1.3862172E-1,4.1860964E-2,1.6971532E-1,1.5151882E-1,-7.85399E-2,4.532826E-3,1.524068E-1,-4.710482E-2,3.9531488E-2,-2.6890388E-2,1.0017612E-1,-1.2293881E-1,-7.174865E-2,1.008716E-1,-1.3903442E-1,-4.4804502E-2,7.814027E-2,1.2446695E-1,-7.460377E-2,-1.2839812E-2,-1.3949339E-1,3.3036407E-2,1.08012475E-1,-1.16549626E-1,5.277089E-2],"split_indices":[4,13,18,9,13,15,9,0,0,18,1,4,15,16,7,18,18,17,9,16,0,7,10,4,4,0,4,4,0,4,11,0,18,3,16,1,17,0,18,0,16,0,10,3,0,4,9,0,4,9,14,15,18,16,7,0,0,17,16,0,0,0,0,0,0,0,0,0,0,0,0,0,0,0,0,0,0,0,0,0,0,0,0,0,0,0,0,0,0,0,0,0,0,0,0,0,0,0,0,0,0,0,0,0,0,0,0],"split_type":[0,0,0,0,0,0,0,0,0,0,0,0,0,0,0,0,0,0,0,0,0,0,0,0,0,0,0,0,0,0,0,0,0,0,0,0,0,0,0,0,0,0,0,0,0,0,0,0,0,0,0,0,0,0,0,0,0,0,0,0,0,0,0,0,0,0,0,0,0,0,0,0,0,0,0,0,0,0,0,0,0,0,0,0,0,0,0,0,0,0,0,0,0,0,0,0,0,0,0,0,0,0,0,0,0,0,0],"sum_hessian":[9.010908E3,3.9807227E3,5.0301855E3,3.0168552E3,9.638674E2,1.5804545E3,3.4497312E3,1.1390895E3,1.8777657E3,2.740955E2,6.8977185E2,5.8847107E2,9.9198346E2,2.0002808E2,3.2497031E3,1.102022E3,3.7067497E1,7.53057E2,1.1247087E3,1.25828575E2,1.4826692E2,3.2087286E2,3.6889902E2,5.9729702E1,5.2874133E2,2.047402E2,7.872432E2,9.349531E1,1.06532776E2,1.7585101E2,3.073852E3,9.682754E2,1.3374661E2,2.5950281E1,1.1117216E1,1.2305314E2,6.3000385E2,1.9967018E1,1.1047418E3,3.1478703E1,9.434987E1,1.4171283E2,1.7916003E2,3.4068158E2,2.8217413E1,3.491739E1,2.481231E1,2.0772018E2,3.2102118E2,6.33273E1,7.2391595E2,2.6175876E0,9.0877716E1,2.0465582E1,8.606719E1,5.6035053E1,1.1981596E2,2.808747E3,2.6510516E2,3.1525514E0,1.3059407E2,2.2860455E1,3.0898268E0,4.584344E0,6.5328727E0,5.8332413E1,6.4720726E1,5.0257988E1,5.7974585E2,8.934865E2,2.1125526E2,4.6945705E1,4.7404163E1,2.7634995E1,1.1407784E2,1.7552315E2,3.6368995E0,5.7841637E1,2.8283997E2,2.7642407E0,2.5453173E1,1.2572326E1,2.2345064E1,1.1785871E0,2.3633722E1,2.9998028E1,2.9102313E2,2.7397997E0,6.05875E1,4.3470847E2,2.892075E2,1.2713927E0,1.346195E0,6.0391785E1,3.0485935E1,2.1676924E0,1.829789E1,1.8498707E1,6.756848E1,5.216181E1,3.873242E0,6.584976E1,5.3966206E1,1.9818513E2,2.6105618E3,4.6243347E1,2.188618E2],"tree_param":{"num_deleted":"0","num_feature":"19","num_nodes":"107","size_leaf_vector":"0"}},{"base_weights":[3.550346E-3,-5.686876E-1,5.484316E-1,-9.7403777E-1,-8.4468454E-2,-6.9497995E-2,8.577259E-1,-1.2666368E0,-8.0150014E-1,1.435903E0,-3.8494867E-1,1.4256344E0,-2.0917115E-1,1.3693367E0,6.1597085E-1,-1.302686E0,1.21591024E-1,-5.5052924E-1,-1.1015505E0,-1.2450866E0,-2.0747057E-1,-8.192443E-1,2.956921E-1,1.4189029E0,5.092258E-1,-1.3105127E0,-9.7976476E-1,-1.1923785E0,1.759567E0,-6.833168E-1,1.7415122E0,-1.3029975E0,-6.194542E-1,-1.2642004E0,-3.229798E-1,-4.1080073E-1,4.1531816E-1,-5.0884795E-1,-1.1378589E0,1.5391449E0,3.0295083E-2,-1.0088862E-1,8.0083114E-1,1.0207127E0,-1.1352152E0,-1.2485439E0,-3.7443343E-1,-1.0172149E0,-3.334712E-1,-1.3391733E0,-8.220563E-1,1.2217277E0,-6.658591E-1,-1.3043002E0,-7.856191E-1,-1.1603547E0,1.2033482E0,-6.234406E-1,-1.5274406E-2,1.686644E0,-4.52874E-2,-8.0241513E-1,1.6448301E0,-1.3832543E0,-7.649255E-1,-2.9599336E-1,6.564813E-1,2.594985E-1,-6.806735E-1,1.2710693E-1,9.84955E-1],"categories":[],"categories_nodes":[],"categories_segments":[],"categories_sizes":[],"default_left":[1,1,1,1,1,1,1,1,1,0,1,0,1,0,1,1,1,1,1,1,1,1,1,0,1,0,1,1,0,1,0,1,1,1,1,1,1,1,1,0,1,1,1,0,0,0,0,0,0,0,0,0,0,0,0,0,0,0,0,0,0,0,0,0,0,0,0,0,0,0,0],"id":7,"left_children":[1,3,5,7,9,11,13,15,17,-1,19,-1,21,-1,23,25,27,29,31,33,35,37,39,-1,41,-1,43,45,-1,47,-1,49,51,53,55,57,59,61,63,-1,65,67,69,-1,-1,-1,-1,-1,-1,-1,-1,-1,-1,-1,-1,-1,-1,-1,-1,-1,-1,-1,-1,-1,-1,-1,-1,-1,-1,-1,-1],"loss_changes":[2.7213103E3,8.354717E2,8.5451086E2,1.159624E2,8.872257E2,3.119184E2,3.676731E2,4.3085693E1,1.0936188E2,0E0,2.4725421E2,0E0,4.208524E2,0E0,1.7285431E2,8.293457E-1,5.079393E1,2.4382071E2,6.3690857E1,4.4760437E0,1.7052205E2,6.060193E1,2.4678915E2,0E0,3.183851E2,0E0,8.544001E0,1.3664246E-1,0E0,8.7767975E1,0E0,7.032837E0,1.7699097E1,4.179077E0,1.0305916E1,8.532739E1,1.9425452E2,2.0058409E2,2.6805542E1,0E0,1.2634493E2,1.2125371E2,1.5005328E2,0E0,0E0,0E0,0E0,0E0,0E0,0E0,0E0,0E0,0E0,0E0,0E0,0E0,0E0,0E0,0E0,0E0,0E0,0E0,0E0,0E0,0E0,0E0,0E0,0E0,0E0,0E0,0E0],"parents":[2147483647,0,0,1,1,2,2,3,3,4,4,5,5,6,6,7,7,8,8,10,10,12,12,14,14,15,15,16,16,17,17,18,18,19,19,20,20,21,21,22,22,24,24,26,26,27,27,29,29,31,31,32,32,33,33,34,34,35,35,36,36,37,37,38,38,40,40,41,41,42,42],"right_children":[2,4,6,8,10,12,14,16,18,-1,20,-1,22,-1,24,26,28,30,32,34,36,38,40,-1,42,-1,44,46,-1,48,-1,50,52,54,56,58,60,62,64,-1,66,68,70,-1,-1,-1,-1,-1,-1,-1,-1,-1,-1,-1,-1,-1,-1,-1,-1,-1,-1,-1,-1,-1,-1,-1,-1,-1,-1,-1,-1],"split_conditions":[-6.6473687E-1,-9.7992814E-1,-9.814327E-1,-1.7474711E0,1.11721E0,-1.16888046E-1,1.1175177E0,-1.18682E-1,8.945594E-1,1.435903E-1,-1.7974365E0,1.4256345E-1,2.0912051E-2,1.3693367E-1,-1.1708285E-1,1.4027026E-1,1.368833E-1,-3.703365E-1,-2.1954742E-1,1.1891655E0,-4.1856968E-1,8.961017E-1,1.0968854E0,1.4189029E-1,2.1552823E-2,-1.3105127E-1,1.7349582E0,-2.1954742E-1,1.7595671E-1,-1.6440344E0,1.7415123E-1,3.5053987E-2,4.605022E-1,-5.0846684E-1,1.368833E-1,-5.849105E-1,1.8078129E0,-3.7387437E-1,-2.1954742E-1,1.539145E-1,-5.830451E-1,2.0151606E-2,-3.745204E-1,1.0207128E-1,-1.1352152E-1,-1.24854386E-1,-3.7443344E-2,-1.0172149E-1,-3.3347122E-2,-1.3391733E-1,-8.220563E-2,1.2217277E-1,-6.658591E-2,-1.3043003E-1,-7.856191E-2,-1.1603548E-1,1.2033482E-1,-6.2344063E-2,-1.5274406E-3,1.686644E-1,-4.52874E-3,-8.0241516E-2,1.6448301E-1,-1.3832544E-1,-7.649255E-2,-2.9599337E-2,6.564813E-2,2.594985E-2,-6.806735E-2,1.2710693E-2,9.8495506E-2],"split_indices":[2,15,15,9,15,2,15,12,7,0,9,0,2,0,2,13,4,7,1,12,14,7,18,0,2,0,13,1,0,7,0,4,9,13,4,13,14,7,1,0,13,2,7,0,0,0,0,0,0,0,0,0,0,0,0,0,0,0,0,0,0,0,0,0,0,0,0,0,0,0,0],"split_type":[0,0,0,0,0,0,0,0,0,0,0,0,0,0,0,0,0,0,0,0,0,0,0,0,0,0,0,0,0,0,0,0,0,0,0,0,0,0,0,0,0,0,0,0,0,0,0,0,0,0,0,0,0,0,0,0,0,0,0,0,0,0,0,0,0,0,0,0,0,0,0],"sum_hessian":[8.725695E3,4.2559863E3,4.469709E3,2.3161099E3,1.9398765E3,1.4912207E3,2.9784883E3,8.567844E2,1.4593254E3,3.1949835E2,1.620378E3,1.2661905E2,1.3646017E3,9.543001E2,2.0241882E3,8.351589E2,2.1625553E1,7.961974E2,6.6312805E2,2.7612723E2,1.3442509E3,6.1763416E2,7.469675E2,2.360837E2,1.7881046E3,8.124101E2,2.274876E1,1.2150541E1,9.475013E0,7.5325977E2,4.2937626E1,4.6649664E2,1.9663138E2,2.701563E2,5.9709296E0,1.01365106E3,3.305998E2,3.1416733E2,3.0346683E2,1.3054262E2,6.164249E2,5.784631E2,1.2096415E3,1.238929E0,2.150983E1,1.0877203E1,1.2733375E0,3.8443832E2,3.6882144E2,4.3220245E2,3.429418E1,4.2113767E0,1.9242E2,2.4767828E2,2.2478022E1,4.0104747E0,1.9604551E0,6.5886224E2,3.5478885E2,8.721481E1,2.43385E2,2.7703253E2,3.7134796E1,1.8139636E2,1.22070465E2,4.0560342E2,2.1082149E2,3.5706705E2,2.2139603E2,2.599937E2,9.496478E2],"tree_param":{"num_deleted":"0","num_feature":"19","num_nodes":"71","size_leaf_vector":"0"}},{"base_weights":[3.1485767E-3,-5.348546E-1,5.138849E-1,-9.2296886E-1,-8.209649E-2,-4.002755E-2,8.0026716E-1,-1.2670095E0,-7.444828E-1,1.3768486E0,-3.5249987E-1,-4.3319055E-1,4.2243874E-1,1.3223032E0,5.670015E-1,-3.2240865E-1,-9.037468E-1,-5.6415325E-1,3.005142E-1,1.3442845E0,-5.724293E-1,1.4372904E0,4.1723184E-2,2.4187012E-1,8.745578E-1,-7.266717E-1,3.3493087E-1,-3.450598E-2,-9.529263E-1,-1.2486762E0,-4.2575005E-1,1.800882E0,-2.7106348E-1,-9.3757373E-1,-1.4255452E-1,-4.7221708E-1,3.8567963E-1,1.3606745E0,9.560281E-2,1.3994243E0,5.5687386E-1,-1.1654621E0,-1.8751247E-1,6.3483894E-1,-5.722074E-1,-5.988275E-1,9.4714284E-1,-1.0446752E0,-7.300328E-1,-5.3190184E-1,2.6415594E-2,-6.527668E-1,1.4472142E-1,-4.345088E-1,-1.0944831E0,5.8068925E-1,-5.2632076E-1,1.3772906E0,-7.2404027E-1,-6.389049E-1,5.272457E-1,-4.6873218E-1,4.7751227E-1,-7.904814E-2,7.3713195E-1],"categories":[],"categories_nodes":[],"categories_segments":[],"categories_sizes":[],"default_left":[1,1,1,1,1,1,1,0,1,0,1,1,1,0,1,1,1,1,1,0,1,0,1,1,1,1,1,1,1,0,1,0,1,1,1,1,1,0,1,0,1,0,0,0,0,0,0,0,0,0,0,0,0,0,0,0,0,0,0,0,0,0,0,0,0],"id":8,"left_children":[1,3,5,7,9,11,13,-1,15,-1,17,19,21,-1,23,25,27,29,31,-1,33,-1,35,37,39,41,43,45,47,-1,49,-1,51,53,55,57,59,-1,61,-1,63,-1,-1,-1,-1,-1,-1,-1,-1,-1,-1,-1,-1,-1,-1,-1,-1,-1,-1,-1,-1,-1,-1,-1,-1],"loss_changes":[2.319198E3,7.222141E2,6.8687976E2,1.3495593E2,7.4937445E2,2.6866837E2,3.4681946E2,0E0,9.7823E1,0E0,2.2162503E2,1.9841846E2,2.622906E2,0E0,1.9723004E2,1.0691621E2,4.524469E1,1.1414395E2,3.3739484E2,0E0,1.1622398E2,0E0,8.765061E1,1.5716559E2,1.683446E2,5.8659424E1,4.213707E1,3.256036E1,1.9736694E1,0E0,4.8413788E1,0E0,4.538169E1,3.1149536E1,9.513188E1,9.3603165E1,4.3411915E1,0E0,1.8366676E2,0E0,7.267766E1,0E0,0E0,0E0,0E0,0E0,0E0,0E0,0E0,0E0,0E0,0E0,0E0,0E0,0E0,0E0,0E0,0E0,0E0,0E0,0E0,0E0,0E0,0E0,0E0],"parents":[2147483647,0,0,1,1,2,2,3,3,4,4,5,5,6,6,8,8,10,10,11,11,12,12,14,14,15,15,16,16,17,17,18,18,20,20,22,22,23,23,24,24,25,25,26,26,27,27,28,28,30,30,32,32,33,33,34,34,35,35,36,36,38,38,40,40],"right_children":[2,4,6,8,10,12,14,-1,16,-1,18,20,22,-1,24,26,28,30,32,-1,34,-1,36,38,40,42,44,46,48,-1,50,-1,52,54,56,58,60,-1,62,-1,64,-1,-1,-1,-1,-1,-1,-1,-1,-1,-1,-1,-1,-1,-1,-1,-1,-1,-1,-1,-1,-1,-1,-1,-1],"split_conditions":[-6.6473687E-1,-9.7992814E-1,-9.814327E-1,-1.8054655E0,1.11721E0,-5.4015636E-1,1.1175177E0,-1.2670095E-1,-7.1144575E-1,1.3768487E-1,-5.3993106E-1,-1.1756846E-1,8.7203217E-1,1.3223033E-1,-5.4003465E-1,-1.0980562E0,4.9678546E-1,-1.8669503E0,8.7156445E-1,1.3442846E-1,2.3259316E-2,1.4372905E-1,2.173699E-2,-1.1708285E-1,8.7207633E-1,-2.1954742E-1,8.945594E-1,-3.2358414E-1,-5.8050585E-1,-1.2486762E-1,-4.182415E-1,1.800882E-1,8.791876E-1,-1.0573604E0,1.9344528E0,-1.16888046E-1,-1.893285E0,1.3606745E-1,2.1185024E-2,1.3994244E-1,-3.7435883E-1,-1.1654621E-1,-1.8751247E-2,6.3483894E-2,-5.722074E-2,-5.988275E-2,9.4714284E-2,-1.04467526E-1,-7.3003285E-2,-5.3190183E-2,2.6415593E-3,-6.527668E-2,1.4472142E-2,-4.345088E-2,-1.0944831E-1,5.8068927E-2,-5.2632075E-2,1.3772906E-1,-7.240403E-2,-6.3890494E-2,5.272457E-2,-4.687322E-2,4.775123E-2,-7.904815E-3,7.37132E-2],"split_indices":[2,15,15,8,15,5,15,0,0,0,5,2,5,0,5,0,9,8,5,0,2,0,2,2,5,1,7,14,13,0,14,0,5,0,2,2,8,0,2,0,7,0,0,0,0,0,0,0,0,0,0,0,0,0,0,0,0,0,0,0,0,0,0,0,0],"split_type":[0,0,0,0,0,0,0,0,0,0,0,0,0,0,0,0,0,0,0,0,0,0,0,0,0,0,0,0,0,0,0,0,0,0,0,0,0,0,0,0,0,0,0,0,0,0,0,0,0,0,0,0,0,0,0,0,0,0,0,0,0,0,0,0,0],"sum_hessian":[8.438269E3,4.109415E3,4.3288535E3,2.2121084E3,1.8973068E3,1.4756172E3,2.8532363E3,7.535346E2,1.4585739E3,2.960258E2,1.601281E3,7.97603E2,6.7801416E2,8.797452E2,1.973491E3,4.004209E2,1.058153E3,1.209422E3,3.9185898E2,5.731278E1,7.402902E2,1.8420752E2,4.9380664E2,9.602036E2,1.0132874E3,2.478735E2,1.525474E2,5.6753017E1,1.0013999E3,2.0205658E2,1.0073655E3,1.0750695E2,2.8435202E2,3.9964365E2,3.4064658E2,1.9783235E2,2.959743E2,1.1005857E2,8.50145E2,3.807765E2,6.325109E2,1.3601619E2,1.1185732E2,1.1487039E2,3.7677013E1,3.6284237E1,2.046878E1,7.067822E2,2.9461768E2,8.156942E2,1.9167126E2,1.479549E2,1.3639713E2,9.5911705E1,3.0373193E2,1.1791378E2,2.2273279E2,2.3172602E1,1.7465974E2,3.550363E1,2.6047067E2,3.4303146E2,5.071136E2,1.3981766E2,4.9269327E2],"tree_param":{"num_deleted":"0","num_feature":"19","num_nodes":"65","size_leaf_vector":"0"}},{"base_weights":[-1.0276533E-3,-5.724858E-1,4.456087E-1,-1.1646453E0,-3.4099466E-1,-1.0588642E-1,6.829569E-1,-1.2143594E0,-8.6829674E-1,-6.939895E-1,4.1290335E-2,-1.1115429E0,8.690262E-2,1.3411219E0,3.878918E-1,-1.218129E0,-1.3533224E-1,1.4023163E0,-1.0319396E0,-8.968024E-1,-3.51777E-1,1.4099205E0,-3.9374974E-1,-1.1786064E0,-6.782212E-1,1.2485428E0,-8.259571E-2,1.4309808E0,1.3102187E0,4.5031387E-2,7.5114465E-1,-1.2191597E0,-2.096318E-1,-8.5560966E-1,8.172842E-1,-1.2072794E0,-8.2518154E-1,-5.793281E-1,-1.2620103E0,-4.15077E-1,1.217155E0,1.5455483E0,1.3461473E0,-5.818448E-1,2.5104687E-1,-1.2261702E0,-1.0251554E0,1.0791858E0,-8.405694E-1,8.822969E-1,1.4392115E0,-1.0944397E0,1.1484896E-1,1.2562329E0,1.3540496E0,1.351248E0,-7.850039E-2,1.4145999E0,4.073263E-1,-1.2287539E0,-1.0390035E0,-1.2242168E0,-4.351492E-1,1.3972079E0,-1.0911671E0,-7.270304E-1,1.659068E0,-1.2891554E0,-7.316421E-1,1.348613E0,-4.4713494E-1,-6.7481655E-1,1.3987808E0,1.4591502E0,-6.2445134E-1,1.5398219E0,-1.7945476E-1,3.3870292E-1,-1.0807388E0,-6.1319125E-1,-1.2496405E0,1.411639E0,-1.2280241E0,-1.2777596E0,-6.4132625E-1,1.3538606E0,-1.4039743E-1,1.3684363E0,3.4688005E-1,-1.2541616E0,2.6393676E-2,1.6993066E0,1.333142E0,1.6681366E-2,7.062394E-1],"categories":[],"categories_nodes":[],"categories_segments":[],"categories_sizes":[],"default_left":[1,1,1,1,1,1,1,1,1,1,1,1,1,1,1,1,1,0,1,1,1,1,1,1,1,1,1,0,1,1,1,1,0,0,0,1,1,1,1,1,1,0,0,1,1,0,1,0,1,1,0,1,1,0,0,1,1,1,1,0,0,0,0,0,0,0,0,0,0,0,0,0,0,0,0,0,0,0,0,0,0,0,0,0,0,0,0,0,0,0,0,0,0,0,0],"id":9,"left_children":[1,3,5,7,9,11,13,15,17,19,21,23,25,27,29,31,33,-1,35,37,39,41,43,45,47,49,51,-1,53,55,57,59,-1,-1,-1,61,63,65,67,69,71,-1,-1,73,75,-1,77,-1,79,81,-1,83,85,-1,-1,87,89,91,93,-1,-1,-1,-1,-1,-1,-1,-1,-1,-1,-1,-1,-1,-1,-1,-1,-1,-1,-1,-1,-1,-1,-1,-1,-1,-1,-1,-1,-1,-1,-1,-1,-1,-1,-1,-1],"loss_changes":[2.0764827E3,4.8885046E2,5.9781433E2,1.3718018E1,3.4648315E2,2.6665173E2,6.195033E2,3.317505E0,5.6273033E1,9.2332275E1,7.349914E2,5.629822E0,2.2744133E2,8.6828613E-1,2.7468982E2,6.3098145E-1,3.516301E0,0E0,4.0142517E0,9.63728E1,5.0000797E1,4.9468994E-1,1.13759674E2,1.3146973E-1,1.0038994E1,9.00116E0,2.016126E2,0E0,6.640625E-2,1.8338187E2,2.4372607E2,1.9592285E-1,0E0,0E0,0E0,4.170761E-1,4.0882744E1,1.4994426E2,4.6517334E0,2.7730804E1,7.672905E0,0E0,0E0,6.4001526E1,1.1803768E2,0E0,4.240757E0,0E0,2.0113144E0,6.087218E1,0E0,1.2866333E1,2.673504E2,0E0,0E0,1.2204285E0,1.2811722E2,6.203308E0,8.252391E1,0E0,0E0,0E0,0E0,0E0,0E0,0E0,0E0,0E0,0E0,0E0,0E0,0E0,0E0,0E0,0E0,0E0,0E0,0E0,0E0,0E0,0E0,0E0,0E0,0E0,0E0,0E0,0E0,0E0,0E0,0E0,0E0,0E0,0E0,0E0,0E0],"parents":[2147483647,0,0,1,1,2,2,3,3,4,4,5,5,6,6,7,7,8,8,9,9,10,10,11,11,12,12,13,13,14,14,15,15,16,16,18,18,19,19,20,20,21,21,22,22,23,23,24,24,25,25,26,26,28,28,29,29,30,30,31,31,35,35,36,36,37,37,38,38,39,39,40,40,43,43,44,44,46,46,48,48,49,49,51,51,52,52,55,55,56,56,57,57,58,58],"right_children":[2,4,6,8,10,12,14,16,18,20,22,24,26,28,30,32,34,-1,36,38,40,42,44,46,48,50,52,-1,54,56,58,60,-1,-1,-1,62,64,66,68,70,72,-1,-1,74,76,-1,78,-1,80,82,-1,84,86,-1,-1,88,90,92,94,-1,-1,-1,-1,-1,-1,-1,-1,-1,-1,-1,-1,-1,-1,-1,-1,-1,-1,-1,-1,-1,-1,-1,-1,-1,-1,-1,-1,-1,-1,-1,-1,-1,-1,-1,-1],"split_conditions":[-3.800536E-1,-1.8004327E0,-9.9513775E-1,-5.148605E-1,-9.952593E-1,-1.7961504E0,1.1119134E0,2.535655E0,8.651254E-1,-2.1954742E-1,1.1117638E0,2.5635862E-1,-3.553004E-2,-9.813149E-1,-5.4015636E-1,3.2262387E0,-2.1954742E-1,1.4023164E-1,8.872754E-1,8.945594E-1,5.434126E-2,-9.7843075E-1,-5.3993106E-1,-2.1954742E-1,1.024608E0,-2.6397404E-1,-3.4803897E-2,1.4309809E-1,1.1167977E0,-3.622611E-2,8.7131715E-1,3.6647707E-1,-2.096318E-2,-8.556097E-2,8.172842E-2,1.622175E0,2.2546542E0,-3.6191556E-1,1.0820098E0,5.2381295E-1,-3.6628684E-1,1.5455483E-1,1.3461474E-1,5.1654994E-1,8.664199E-1,-1.2261702E-1,-5.8398835E-2,1.0791858E-1,6.0703844E-1,-2.6551074E-1,1.4392115E-1,-9.353669E-1,3.0910462E-1,1.2562329E-1,1.3540496E-1,2.4225836E0,-3.5320677E-2,-6.4593893E-1,8.722749E-1,-1.2287539E-1,-1.0390035E-1,-1.2242168E-1,-4.351492E-2,1.3972078E-1,-1.0911671E-1,-7.270304E-2,1.659068E-1,-1.2891553E-1,-7.316422E-2,1.348613E-1,-4.4713493E-2,-6.748166E-2,1.3987808E-1,1.4591502E-1,-6.2445134E-2,1.5398219E-1,-1.7945476E-2,3.387029E-2,-1.0807388E-1,-6.1319124E-2,-1.2496405E-1,1.411639E-1,-1.22802414E-1,-1.2777595E-1,-6.413262E-2,1.3538606E-1,-1.4039743E-2,1.3684364E-1,3.4688007E-2,-1.2541616E-1,2.6393677E-3,1.6993067E-1,1.333142E-1,1.6681366E-3,7.062394E-2],"split_indices":[4,9,16,5,16,9,16,10,5,1,16,18,4,15,5,3,1,0,5,7,10,15,5,1,18,4,4,0,15,4,5,18,0,0,0,18,5,7,5,9,7,0,0,9,5,0,4,0,3,4,0,15,4,0,0,17,4,18,5,0,0,0,0,0,0,0,0,0,0,0,0,0,0,0,0,0,0,0,0,0,0,0,0,0,0,0,0,0,0,0,0,0,0,0,0],"split_type":[0,0,0,0,0,0,0,0,0,0,0,0,0,0,0,0,0,0,0,0,0,0,0,0,0,0,0,0,0,0,0,0,0,0,0,0,0,0,0,0,0,0,0,0,0,0,0,0,0,0,0,0,0,0,0,0,0,0,0,0,0,0,0,0,0,0,0,0,0,0,0,0,0,0,0,0,0,0,0,0,0,0,0,0,0,0,0,0,0,0,0,0,0,0,0],"sum_hessian":[8.1336045E3,3.568075E3,4.5655293E3,1.00169244E3,2.5663826E3,1.3738489E3,3.1916804E3,8.5514026E2,1.4655217E2,1.3338838E3,1.2324988E3,2.2023883E2,1.1536101E3,9.8686273E2,2.2048179E3,8.520347E2,3.1055636E0,9.343122E0,1.3720905E2,8.3650616E2,4.9737762E2,2.9673468E2,9.357641E2,1.8923224E2,3.1006605E1,1.4608243E2,1.00752765E3,2.4094685E2,7.459159E2,1.1348245E3,1.0699933E3,8.509562E2,1.078509E0,1.8264266E0,1.2791371E0,7.162709E1,6.5581955E1,4.4888116E2,3.87625E2,4.7879562E2,1.8582016E1,8.747168E1,2.0926299E2,7.245126E2,2.1125154E2,1.3911986E2,5.011237E1,2.1445591E0,2.8862045E1,5.1940315E1,9.414212E1,1.637607E2,8.4376697E2,3.475295E2,3.9838635E2,9.7191345E1,1.0376332E3,3.6416376E2,7.058295E2,8.024033E2,4.85529E1,6.951668E1,2.110419E0,6.555535E0,5.902642E1,4.2172827E2,2.7152872E1,3.6739075E2,2.0234262E1,7.8143773E0,4.7098123E2,1.3897505E0,1.7192265E1,1.4135336E1,7.103772E2,5.2251514E1,1.5900003E2,1.7628692E0,4.8349503E1,2.0156973E1,8.705072E0,4.1789204E1,1.0151111E1,1.1529494E2,4.846576E1,1.4339548E2,7.0037146E2,9.519965E1,1.9916884E0,8.409813E1,9.5353503E2,7.659439E1,2.8756937E2,3.0642422E2,3.9940533E2],"tree_param":{"num_deleted":"0","num_feature":"19","num_nodes":"95","size_leaf_vector":"0"}},{"base_weights":[5.848803E-4,-4.8025492E-1,4.5493296E-1,-8.616006E-1,-7.690477E-2,-6.439749E-2,7.204702E-1,-1.1955104E0,-6.807798E-1,1.3158377E0,-3.3541748E-1,-1.0957854E0,9.769477E-2,1.312971E0,4.1013235E-1,-1.2073581E0,-8.285288E-1,-1.0229394E0,-5.4090285E-1,-1.1757029E0,-2.0892176E-1,-1.1111157E0,7.939251E-2,1.2915378E0,-9.381504E-3,1.4055701E0,1.2768487E0,-3.3272612E-1,6.1580247E-1,-1.0280161E0,-1.736673E-1,-7.559171E-1,-1.0979813E0,1.9142512E0,-6.583599E-1,-1.2024306E0,-9.142803E-1,-6.6599554E-1,-6.5800156E-3,-1.1573652E0,-8.3729255E-1,3.8596207E-1,-3.0126858E-1,-5.382184E-1,3.6045662E-1,1.2869182E0,-4.5012748E-1,1.2735714E0,4.473062E-1,-1.1542573E0,3.0961225E-2,8.7068456E-1,-6.156422E-1,-1.0348456E0,-1.3065673E-1,-1.1137637E0,-2.473658E-1,-8.05318E-1,-2.6469487E-1,-4.2320186E-1,-1.2075012E0,-1.1729091E0,-6.149926E-1,5.544286E-1,-7.3507607E-1,1.3501784E0,-1.7952982E-1,-1.2085847E0,-9.090961E-1,1.3665669E0,-1.0134903E0,-2.2768627E-1,-8.669152E-1,1.3576044E0,1.6718948E-1,-9.4225305E-1,-1.07993126E-1,9.200525E-2,7.649628E-1],"categories":[],"categories_nodes":[],"categories_segments":[],"categories_sizes":[],"default_left":[1,1,1,1,1,1,1,1,1,0,1,1,1,1,1,0,1,1,1,1,1,1,1,0,1,0,0,1,1,1,1,1,1,0,1,1,1,1,1,1,1,0,0,1,1,0,1,0,1,0,0,0,0,0,0,0,0,0,0,0,0,0,0,0,0,0,0,0,0,0,0,0,0,0,0,0,0,0,0],"id":10,"left_children":[1,3,5,7,9,11,13,15,17,-1,19,21,23,25,27,-1,29,31,33,35,37,39,41,-1,43,-1,-1,45,47,49,51,53,55,-1,57,59,61,63,65,67,69,-1,-1,71,73,-1,75,-1,77,-1,-1,-1,-1,-1,-1,-1,-1,-1,-1,-1,-1,-1,-1,-1,-1,-1,-1,-1,-1,-1,-1,-1,-1,-1,-1,-1,-1,-1,-1],"loss_changes":[1.7197144E3,5.8817883E2,5.581797E2,1.1787048E2,6.699926E2,2.2917957E2,4.9190137E2,1.9962769E0,6.0587463E1,0E0,1.6656009E2,3.4423676E0,1.5149814E2,1.2828369E0,2.6895258E2,0E0,3.0536594E0,6.5755615E0,2.6336655E2,3.338318E-1,1.2625563E2,1.3592224E0,5.049723E-1,0E0,2.1308566E2,0E0,0E0,7.322661E1,1.5215082E2,2.5438957E0,3.75803E0,1.45648E1,3.567871E0,0E0,5.0011536E1,2.1173096E-1,1.0743465E0,3.5723938E1,2.2252579E2,8.68042E-1,1.3104809E1,0E0,0E0,4.5566727E1,1.2333015E2,0E0,6.0003174E1,0E0,1.2390959E2,0E0,0E0,0E0,0E0,0E0,0E0,0E0,0E0,0E0,0E0,0E0,0E0,0E0,0E0,0E0,0E0,0E0,0E0,0E0,0E0,0E0,0E0,0E0,0E0,0E0,0E0,0E0,0E0,0E0,0E0],"parents":[2147483647,0,0,1,1,2,2,3,3,4,4,5,5,6,6,7,7,8,8,10,10,11,11,12,12,13,13,14,14,16,16,17,17,18,18,19,19,20,20,21,21,22,22,24,24,27,27,28,28,29,29,30,30,31,31,32,32,34,34,35,35,36,36,37,37,38,38,39,39,40,40,43,43,44,44,46,46,48,48],"right_children":[2,4,6,8,10,12,14,16,18,-1,20,22,24,26,28,-1,30,32,34,36,38,40,42,-1,44,-1,-1,46,48,50,52,54,56,-1,58,60,62,64,66,68,70,-1,-1,72,74,-1,76,-1,78,-1,-1,-1,-1,-1,-1,-1,-1,-1,-1,-1,-1,-1,-1,-1,-1,-1,-1,-1,-1,-1,-1,-1,-1,-1,-1,-1,-1,-1,-1],"split_conditions":[-6.6473687E-1,-9.945991E-1,-9.952593E-1,-1.763511E0,1.1117638E0,-1.9028455E0,1.1119134E0,-5.418656E-1,-1.0863345E0,1.3158378E-1,-1.8884797E0,1.9948275E0,-1.1855711E-1,-9.813149E-1,-9.808835E-1,-1.2073582E-1,-5.137756E-1,-7.1144575E-1,-2.148101E-1,-1.2960705E-1,-9.7992814E-1,-5.695823E-2,8.128248E-1,1.2915377E-1,2.0274363E-2,1.4055702E-1,1.2768488E-1,-1.1947443E-1,1.1175177E0,1.06639236E-1,8.4556466E-1,-1.0573604E0,1.3081726E0,1.9142513E-1,-5.849105E-1,-1.8580911E0,3.262981E-1,4.346323E-1,1.1164467E0,-8.776561E-1,1.7870108E0,3.859621E-2,-3.0126859E-2,8.93682E-1,1.0974686E0,1.2869182E-1,2.0912051E-2,1.2735714E-1,-5.3993285E-1,-1.1542573E-1,3.0961225E-3,8.706846E-2,-6.156422E-2,-1.0348456E-1,-1.3065673E-2,-1.1137637E-1,-2.4736581E-2,-8.05318E-2,-2.6469488E-2,-4.2320188E-2,-1.2075012E-1,-1.17290914E-1,-6.1499264E-2,5.544286E-2,-7.350761E-2,1.3501784E-1,-1.7952982E-2,-1.2085847E-1,-9.0909615E-2,1.3665669E-1,-1.0134903E-1,-2.2768628E-2,-8.669152E-2,1.3576044E-1,1.6718948E-2,-9.422531E-2,-1.0799313E-2,9.2005255E-3,7.649628E-2],"split_indices":[2,16,16,9,16,8,16,13,17,0,8,0,2,15,15,0,5,0,17,14,15,14,14,0,2,0,0,2,15,17,5,0,12,0,13,3,0,9,15,15,14,0,0,7,18,0,2,0,5,0,0,0,0,0,0,0,0,0,0,0,0,0,0,0,0,0,0,0,0,0,0,0,0,0,0,0,0,0,0],"split_type":[0,0,0,0,0,0,0,0,0,0,0,0,0,0,0,0,0,0,0,0,0,0,0,0,0,0,0,0,0,0,0,0,0,0,0,0,0,0,0,0,0,0,0,0,0,0,0,0,0,0,0,0,0,0,0,0,0,0,0,0,0,0,0,0,0,0,0,0,0,0,0,0,0,0,0,0,0,0,0],"sum_hessian":[7.8696763E3,3.8233457E3,4.0463308E3,1.964696E3,1.8586495E3,1.3692148E3,2.677116E3,6.8821075E2,1.2764854E3,2.9034106E2,1.5683085E3,1.851773E2,1.1840376E3,9.1910956E2,1.7580062E3,6.644689E2,2.3741882E1,3.6857742E2,9.079079E2,2.0411557E2,1.364193E3,1.8284657E2,2.3307369E0,9.654547E1,1.0874921E3,2.4728574E2,6.7182385E2,3.8105582E2,1.3769504E3,1.776147E1,5.9804115E0,8.328761E1,2.8528983E2,4.0753666E1,8.6715424E2,1.8191693E2,2.2198639E1,4.178997E2,9.462933E2,1.5366537E2,2.9181185E1,1.2832954E0,1.0474416E0,4.4735602E2,6.401361E2,2.5081064E1,3.5597476E2,2.7945746E2,1.0974929E3,1.5789252E1,1.972219E0,1.4899027E0,4.490509E0,5.7141666E1,2.6145947E1,2.7978925E2,5.5005703E0,6.306734E2,2.3648083E2,1.7221663E0,1.8019476E2,1.0342332E1,1.1856306E1,2.2011076E1,3.958886E2,1.0621896E2,8.4007434E2,1.24178535E2,2.9486843E1,1.6601655E0,2.7521019E1,2.309046E2,2.164514E2,1.0294976E2,5.3718634E2,1.4526778E2,2.10707E2,5.186591E2,5.7883386E2],"tree_param":{"num_deleted":"0","num_feature":"19","num_nodes":"79","size_leaf_vector":"0"}},{"base_weights":[-4.4117853E-4,-5.2032655E-1,4.013923E-1,-1.1477374E0,-3.2108465E-1,-7.624728E-1,4.9055213E-1,-1.1649383E0,-6.1619014E-1,-6.759373E-1,-6.4622257E-3,-1.0254837E0,-3.0070966E-2,-3.2242036E-1,5.913282E-1,-1.1670382E0,-4.1273683E-1,-9.3799657E-1,1.0900548E-1,-3.295618E-1,-1.1626786E0,-2.3469532E-1,2.9358834E-1,1.0938544E0,-1.049473E0,1.4435622E0,-2.4643955E-1,-8.1348026E-1,-7.215415E-2,1.3720702E0,4.489901E-1,-1.1781338E0,-9.8967874E-1,2.5552377E-1,-7.7940315E-1,-1.0754173E0,2.251916E-1,4.766423E-1,-5.857711E-1,-4.858318E-1,1.4807551E0,1.17257E0,-1.1761669E0,9.219977E-2,-4.828174E-1,1.2521244E0,1.5541011E-1,-1.1065382E0,-7.45309E-1,-9.9055386E-1,6.8889484E-2,1.0559958E0,-9.1545916E-1,-8.704726E-1,1.74138E-1,1.5786855E0,1.3086311E0,1.2558732E0,3.3702967E-1,1.0149714E0,-1.077023E0,-1.613844E-1,-1.1293957E0,-4.2904145E-1,7.9885477E-1,-8.686765E-1,-1.6774911E-2,1.3536263E-1,-7.325294E-1,2.1354604E-1,-1.1861271E0,-1.236979E-1,8.610275E-1,-9.942006E-1,-1.3180606E-1,-1.4894031E-1,3.9949998E-1,-1.120573E0,-6.252885E-1,1.1033362E0,-8.491278E-1,-1.1219465E0,-9.373743E-2,-6.2203074E-1,5.653516E-1,1.1436942E0,2.5812376E-1,-4.0888157E-1,-1.1448618E0,1.2739761E0,-1.1428499E0,-6.01438E-2,5.189662E-1,1.4203615E0,1.7355037E0,1.2705985E0,6.8683755E-1,-9.667665E-1,4.3165496E-1],"categories":[],"categories_nodes":[],"categories_segments":[],"categories_sizes":[],"default_left":[1,1,1,1,1,1,1,1,1,1,1,1,1,1,1,1,1,1,1,1,1,1,1,0,1,0,1,1,1,1,1,0,1,0,0,1,0,1,1,1,0,0,1,1,1,0,1,1,1,1,1,1,1,1,1,1,0,1,1,0,0,0,0,0,0,0,0,0,0,0,0,0,0,0,0,0,0,0,0,0,0,0,0,0,0,0,0,0,0,0,0,0,0,0,0,0,0,0,0],"id":11,"left_children":[1,3,5,7,9,11,13,15,17,19,21,23,25,27,29,31,33,35,37,39,41,43,45,-1,47,-1,49,51,53,55,57,-1,59,-1,-1,61,-1,63,65,67,-1,-1,69,71,73,-1,75,77,79,81,83,85,87,89,91,93,-1,95,97,-1,-1,-1,-1,-1,-1,-1,-1,-1,-1,-1,-1,-1,-1,-1,-1,-1,-1,-1,-1,-1,-1,-1,-1,-1,-1,-1,-1,-1,-1,-1,-1,-1,-1,-1,-1,-1,-1,-1,-1],"loss_changes":[1.5825955E3,4.1248547E2,4.4377557E2,6.5566406E0,2.800039E2,5.8612274E1,3.254037E2,7.338867E-1,6.4178762E0,1.9833167E2,9.117546E1,1.2534714E1,2.6331902E1,5.3823288E1,3.9189893E2,3.4326172E-1,1.1032029E0,3.2550564E0,2.6326406E0,1.9592252E2,1.6802063E1,6.1377922E1,7.59908E1,0E0,3.0280457E0,0E0,1.6937185E1,2.9166435E1,5.7470333E1,5.0666504E0,2.6959106E2,0E0,1.0093449E1,0E0,0E0,6.5797424E-1,0E0,2.2620058E0,5.708797E-1,9.755434E1,0E0,0E0,6.9987183E0,5.4406647E1,7.706236E1,0E0,3.7491875E1,5.477905E-1,8.254713E0,2.4239159E0,1.799287E1,2.7265835E-1,1.58942795E1,4.1700294E1,1.8096895E1,5.883789E-1,0E0,2.1759644E0,3.2440143E2,0E0,0E0,0E0,0E0,0E0,0E0,0E0,0E0,0E0,0E0,0E0,0E0,0E0,0E0,0E0,0E0,0E0,0E0,0E0,0E0,0E0,0E0,0E0,0E0,0E0,0E0,0E0,0E0,0E0,0E0,0E0,0E0,0E0,0E0,0E0,0E0,0E0,0E0,0E0,0E0],"parents":[2147483647,0,0,1,1,2,2,3,3,4,4,5,5,6,6,7,7,8,8,9,9,10,10,11,11,12,12,13,13,14,14,15,15,16,16,17,17,18,18,19,19,20,20,21,21,22,22,24,24,26,26,27,27,28,28,29,29,30,30,32,32,35,35,37,37,38,38,39,39,42,42,43,43,44,44,46,46,47,47,48,48,49,49,50,50,51,51,52,52,53,53,54,54,55,55,57,57,58,58],"right_children":[2,4,6,8,10,12,14,16,18,20,22,24,26,28,30,32,34,36,38,40,42,44,46,-1,48,-1,50,52,54,56,58,-1,60,-1,-1,62,-1,64,66,68,-1,-1,70,72,74,-1,76,78,80,82,84,86,88,90,92,94,-1,96,98,-1,-1,-1,-1,-1,-1,-1,-1,-1,-1,-1,-1,-1,-1,-1,-1,-1,-1,-1,-1,-1,-1,-1,-1,-1,-1,-1,-1,-1,-1,-1,-1,-1,-1,-1,-1,-1,-1,-1,-1],"split_conditions":[-3.800536E-1,-1.9072568E0,-1.9058547E0,1.3029982E0,-2.1954742E-1,4.4596538E-2,-1.0984484E0,5.95132E-1,-3.8675508E-1,8.945594E-1,-6.636896E-1,-2.6667213E-1,1.068941E0,-3.746479E-1,-2.1282026E-1,-3.7208247E-1,-1.0429218E0,1.0692503E0,2.927373E-2,-3.6685345E-1,4.125726E-1,-6.9109786E-1,-1.16776645E-1,1.09385446E-1,-3.0478925E-1,1.4435622E-1,-3.6102265E-1,-3.7017062E-2,-2.1954742E-1,-6.6471136E-1,-3.553004E-2,-1.17813386E-1,1.7978868E0,2.5552377E-2,-7.7940315E-2,-1.7810557E0,2.251916E-2,-1.5035716E0,6.8407375E-1,-1.0166645E0,1.480755E-1,1.17257E-1,-3.8012674E-1,-5.751649E-1,3.262981E-1,1.2521245E-1,-3.7168655E-1,1.912441E0,1.6178349E0,1.1175588E0,1.1155436E0,3.0347297E-1,-4.4692284E-1,8.972357E-1,3.3915356E-2,1.1088328E0,1.3086312E-1,2.4468088E0,-3.540734E-2,1.01497136E-1,-1.0770231E-1,-1.613844E-2,-1.12939574E-1,-4.2904146E-2,7.9885475E-2,-8.686765E-2,-1.6774911E-3,1.3536262E-2,-7.325294E-2,2.1354605E-2,-1.1861271E-1,-1.236979E-2,8.610275E-2,-9.942006E-2,-1.3180606E-2,-1.4894031E-2,3.995E-2,-1.12057306E-1,-6.252885E-2,1.1033362E-1,-8.4912784E-2,-1.1219465E-1,-9.373743E-3,-6.2203076E-2,5.6535162E-2,1.14369415E-1,2.5812376E-2,-4.0888157E-2,-1.1448618E-1,1.2739761E-1,-1.1428499E-1,-6.01438E-3,5.189662E-2,1.4203615E-1,1.7355037E-1,1.2705986E-1,6.868376E-2,-9.667665E-2,4.3165497E-2],"split_indices":[4,8,8,0,1,2,17,6,18,7,2,4,18,7,17,14,3,3,3,7,8,0,2,0,14,0,7,4,1,2,4,0,14,0,0,3,0,3,3,0,0,0,4,13,0,0,7,3,14,17,18,13,0,7,2,16,0,17,4,0,0,0,0,0,0,0,0,0,0,0,0,0,0,0,0,0,0,0,0,0,0,0,0,0,0,0,0,0,0,0,0,0,0,0,0,0,0,0,0],"split_type":[0,0,0,0,0,0,0,0,0,0,0,0,0,0,0,0,0,0,0,0,0,0,0,0,0,0,0,0,0,0,0,0,0,0,0,0,0,0,0,0,0,0,0,0,0,0,0,0,0,0,0,0,0,0,0,0,0,0,0,0,0,0,0,0,0,0,0,0,0,0,0,0,0,0,0,0,0,0,0,0,0,0,0,0,0,0,0,0,0,0,0,0,0,0,0,0,0,0,0],"sum_hessian":[7.5735854E3,3.3016594E3,4.271926E3,7.9462665E2,2.5070327E3,3.0343442E2,3.9684915E3,7.685643E2,2.6062431E1,1.1776501E3,1.3293827E3,2.2296564E2,8.046879E1,4.3743677E2,3.5310547E3,7.658747E2,2.6895552E0,1.7848639E1,8.213794E0,6.890117E2,4.886384E2,7.5517645E2,5.742062E2,1.9963949E0,2.2096924E2,9.576158E0,7.0892624E1,1.469157E2,2.905211E2,5.431531E2,2.9879016E3,7.154722E2,5.0402466E1,1.0602796E0,1.6292757E0,1.6030258E1,1.81838E0,5.5768175E0,2.6369762E0,6.349346E2,5.407713E1,2.3126554E0,4.8632574E2,3.261327E2,4.2904376E2,7.13302E1,5.02876E2,1.8384044E2,3.7128807E1,2.0462896E1,5.0429733E1,7.115703E0,1.3979999E2,6.789983E1,2.2262126E2,1.2198252E2,4.2117056E2,3.628288E2,2.6250728E3,1.6609701E0,4.8741497E1,1.1163627E0,1.4913895E1,1.3764119E0,4.2004056E0,1.4094926E0,1.2274835E0,1.8060794E2,4.5432666E2,3.3152719E0,4.8301047E2,2.5528435E2,7.0848335E1,1.7388335E2,2.5516042E2,2.2398442E2,2.7889157E2,1.7734012E2,6.500321E0,1.4623319E0,3.5666477E1,1.7629032E1,2.8338623E0,2.0979664E1,2.9450068E1,6.020524E0,1.095179E0,4.4442455E1,9.535754E1,7.237911E0,6.066192E1,1.3305032E2,8.957094E1,6.570448E1,5.6278038E1,3.524746E2,1.0354185E1,1.7700398E2,2.4480688E3],"tree_param":{"num_deleted":"0","num_feature":"19","num_nodes":"99","size_leaf_vector":"0"}},{"base_weights":[-4.1362795E-4,-4.3836588E-1,4.0508527E-1,-1.134967E0,-2.5388876E-1,-5.564759E-2,6.478713E-1,-1.1455414E0,-9.759005E-1,-6.2116927E-1,4.904131E-2,-3.9935756E-1,3.5411033E-1,1.2237839E0,4.2157984E-1,1.0291106E0,-1.0436404E0,-2.51195E-1,-7.647977E-1,1.2759281E0,-1.8123476E-1,1.2193111E0,-5.116534E-1,1.3172251E0,3.3384196E-2,1.2558255E0,3.280483E-1,-1.1602424E0,-8.24757E-1,-6.43181E-1,3.6820903E-1,-1.0746031E0,-6.4212435E-1,-3.5544288E-1,2.9863212E-1,-8.853958E-1,-1.972181E-1,-4.2331514E-1,2.9227558E-1,-1.4320008E-1,5.7285863E-1,-4.1738024E-1,-9.244495E-1,-8.3277035E-1,3.601549E-1,9.291423E-2,1.0906546E0,-1.1646664E0,-8.163008E-1,1.7828854E0,-7.18738E-1,-8.626585E-1,-2.3711784E-1,1.5666395E0,-1.83795E-1,-5.6385374E-1,-1.2489759E0,-5.8038193E-1,7.836117E-2,2.8268108E-1,-7.038878E-1,1.4303622E0,-3.1838313E-1,1.7120866E-1,-6.359568E-1,-7.10631E-2,7.6469034E-1],"categories":[],"categories_nodes":[],"categories_segments":[],"categories_sizes":[],"default_left":[1,1,1,1,1,1,1,0,1,1,1,1,1,0,1,0,1,1,1,0,1,0,1,0,1,0,1,0,1,1,1,1,1,1,1,1,1,1,1,1,1,0,0,0,0,0,0,0,0,0,0,0,0,0,0,0,0,0,0,0,0,0,0,0,0,0,0],"id":12,"left_children":[1,3,5,7,9,11,13,-1,15,17,19,21,23,-1,25,-1,27,29,31,-1,33,-1,35,-1,37,-1,39,-1,41,43,45,47,49,51,53,55,57,59,61,63,65,-1,-1,-1,-1,-1,-1,-1,-1,-1,-1,-1,-1,-1,-1,-1,-1,-1,-1,-1,-1,-1,-1,-1,-1,-1,-1],"loss_changes":[1.3037908E3,4.532854E2,4.2645E2,1.24572754E-1,3.1065204E2,1.8554996E2,3.248485E2,0E0,8.245308E0,6.686722E1,4.3273932E2,1.3084444E2,1.8562238E2,0E0,1.395593E2,0E0,3.592949E-1,8.628346E1,3.3840088E1,0E0,1.0793161E2,0E0,7.863655E1,0E0,5.3558334E1,0E0,1.863254E2,0E0,4.8255253E-1,4.165538E1,2.7342857E1,5.0101624E0,1.2266412E2,5.6615837E1,2.10769E2,3.5084503E1,3.8639347E1,3.266722E1,2.013203E2,8.574137E1,1.3131598E2,0E0,0E0,0E0,0E0,0E0,0E0,0E0,0E0,0E0,0E0,0E0,0E0,0E0,0E0,0E0,0E0,0E0,0E0,0E0,0E0,0E0,0E0,0E0,0E0,0E0,0E0],"parents":[2147483647,0,0,1,1,2,2,3,3,4,4,5,5,6,6,8,8,9,9,10,10,11,11,12,12,14,14,16,16,17,17,18,18,20,20,22,22,24,24,26,26,28,28,29,29,30,30,31,31,32,32,33,33,34,34,35,35,36,36,37,37,38,38,39,39,40,40],"right_children":[2,4,6,8,10,12,14,-1,16,18,20,22,24,-1,26,-1,28,30,32,-1,34,-1,36,-1,38,-1,40,-1,42,44,46,48,50,52,54,56,58,60,62,64,66,-1,-1,-1,-1,-1,-1,-1,-1,-1,-1,-1,-1,-1,-1,-1,-1,-1,-1,-1,-1,-1,-1,-1,-1,-1,-1],"split_conditions":[-6.6473687E-1,-1.8884797E0,-9.814327E-1,-1.2960705E-1,-9.7992814E-1,-5.4015636E-1,1.1175177E0,-1.14554144E-1,1.7890608E0,-7.1144575E-1,1.1143684E0,-1.1756846E-1,8.7203217E-1,1.2237839E-1,-1.1708285E-1,1.02911055E-1,3.262981E-1,-1.0980562E0,-1.0958493E0,1.2759282E-1,-5.3993106E-1,1.2193111E-1,-2.1954742E-1,1.3172251E-1,8.7413716E-1,1.2558256E-1,2.1185024E-2,-1.1602425E-1,-3.8982517E-1,-5.351237E-1,-1.987167E-1,-2.1954742E-1,-2.148101E-1,-1.0973225E0,8.6910444E-1,8.9190483E-1,2.2210099E-2,-1.0573604E0,2.2826347E0,2.0151606E-2,-3.745204E-1,-4.1738026E-2,-9.244495E-2,-8.327704E-2,3.6015492E-2,9.2914235E-3,1.09065466E-1,-1.1646664E-1,-8.163008E-2,1.7828855E-1,-7.187381E-2,-8.6265855E-2,-2.3711784E-2,1.5666395E-1,-1.83795E-2,-5.6385376E-2,-1.2489759E-1,-5.8038194E-2,7.836117E-3,2.8268108E-2,-7.038879E-2,1.4303623E-1,-3.1838313E-2,1.7120866E-2,-6.359568E-2,-7.10631E-3,7.6469034E-2],"split_indices":[2,8,15,14,15,5,15,0,14,0,15,2,5,0,2,0,0,0,17,0,5,0,1,0,5,0,2,0,17,5,17,1,17,17,5,7,2,0,5,2,7,0,0,0,0,0,0,0,0,0,0,0,0,0,0,0,0,0,0,0,0,0,0,0,0,0,0],"split_type":[0,0,0,0,0,0,0,0,0,0,0,0,0,0,0,0,0,0,0,0,0,0,0,0,0,0,0,0,0,0,0,0,0,0,0,0,0,0,0,0,0,0,0,0,0,0,0,0,0,0,0,0,0,0,0,0,0,0,0,0,0,0,0,0,0,0,0],"sum_hessian":[7.339613E3,3.5285647E3,3.811048E3,7.377199E2,2.790845E3,1.3154678E3,2.49558E3,6.859197E2,5.1800236E1,1.2609657E3,1.5298792E3,7.1540375E2,6.000641E2,7.027278E2,1.7928524E3,1.2290778E0,5.057116E1,3.5339642E2,9.0756934E2,2.4104984E2,1.2888292E3,4.5772095E1,6.6963165E2,1.4913042E2,4.5093365E2,1.7948917E2,1.6133632E3,3.0188572E1,2.0382586E1,2.1640652E2,1.3698991E2,2.5523248E2,6.5233685E2,9.457492E2,3.4308008E2,3.0513177E2,3.6449988E2,1.6291212E2,2.880215E2,5.5172797E2,1.0616353E3,5.027054E0,1.5355532E1,1.8215643E2,3.4250095E1,1.00009094E2,3.6980816E1,1.8664523E2,6.858725E1,1.9296125E1,6.330407E2,1.7770462E2,7.6804456E2,9.393491E1,2.4914516E2,1.6328075E2,1.4185101E2,1.5202255E2,2.1247733E2,4.632883E1,1.165833E2,1.0010785E2,1.8791367E2,3.3721613E2,2.1451184E2,2.438232E2,8.178121E2],"tree_param":{"num_deleted":"0","num_feature":"19","num_nodes":"67","size_leaf_vector":"0"}},{"base_weights":[-1.3509778E-3,-4.6834746E-1,3.3423758E-1,-6.571925E-1,1.9293164E-1,1.2530365E0,2.820444E-2,-1.126946E0,-4.833159E-1,-9.925372E-1,3.2221133E-1,1.3330516E0,1.2221301E0,-2.5851154E-1,4.8806262E-1,-6.1413866E-1,-2.3733968E-2,-1.214278E-1,-1.2945411E0,-7.415379E-1,4.0897635E-1,1.1695281E0,1.2630043E0,-6.824948E-1,-5.8886994E-2,1.3225006E0,1.3444853E-1,-3.8540897E-1,-8.6874247E-1,1.5006319E0,-4.3145537E-1,-8.542445E-1,4.0555558E-1,-9.584641E-1,-1.4088519E0,-8.854779E-1,1.8943394E-2,-3.3000898E-1,5.090776E-1,-8.0824995E-1,-3.0989796E-1,1.2319858E0,-2.2290762E-1,1.5341712E0,1.2386965E0,-3.5224038E-1,3.6141917E-1,-5.277815E-1,1.564906E0,-1.1150343E0,-5.290208E-1,1.7723393E0,1.2911891E0,-6.9954216E-1,-1.5513235E-1,-1.2463393E0,7.2028613E-1,9.387257E-1,-9.0985775E-1,-1.3903233E0,4.0685493E-1,-1.0553516E0,-4.5634758E-1,8.565102E-1,-4.635584E-1,-7.196781E-1,7.729896E-2,1.3008701E0,3.6510473E-1,-1.0505363E0,-5.950314E-1,1.7140633E0,-5.133729E-1,-4.36801E-1,1.462961E-1,1.8326388E-1,-6.577908E-1,1.3612388E0,2.0544761E-1],"categories":[],"categories_nodes":[],"categories_segments":[],"categories_sizes":[],"default_left":[1,1,1,1,1,1,1,0,1,1,1,0,1,1,1,1,1,1,1,1,1,0,0,1,1,1,1,1,1,1,1,1,1,1,0,1,1,1,1,1,1,0,1,0,0,1,1,0,0,0,0,0,0,0,0,0,0,0,0,0,0,0,0,0,0,0,0,0,0,0,0,0,0,0,0,0,0,0,0],"id":13,"left_children":[1,3,5,7,9,11,13,-1,15,17,19,-1,21,23,25,27,29,31,33,35,37,-1,-1,39,41,43,45,47,49,51,53,55,57,59,-1,61,63,65,67,69,71,-1,73,-1,-1,75,77,-1,-1,-1,-1,-1,-1,-1,-1,-1,-1,-1,-1,-1,-1,-1,-1,-1,-1,-1,-1,-1,-1,-1,-1,-1,-1,-1,-1,-1,-1,-1,-1],"loss_changes":[1.106897E3,3.6892847E2,1.15554E3,1.871098E2,1.0097996E2,9.100342E-1,4.0673163E2,0E0,1.0090622E2,1.6897934E1,5.503279E1,0E0,1.4123535E-1,1.6078737E2,3.4938626E2,7.575418E1,2.324583E2,7.2177706E0,4.950714E-1,4.9507732E0,4.0772186E1,0E0,0E0,2.824643E1,2.7404376E2,4.3526E0,9.216456E1,1.9243503E2,5.1078217E1,2.2032928E0,2.1747986E1,5.6914687E0,8.588559E0,9.598657E0,0E0,2.2828007E0,3.6917717E0,1.0545071E1,5.467811E1,2.283313E1,6.47505E1,0E0,9.07287E1,0E0,0E0,4.356118E1,8.840467E1,0E0,0E0,0E0,0E0,0E0,0E0,0E0,0E0,0E0,0E0,0E0,0E0,0E0,0E0,0E0,0E0,0E0,0E0,0E0,0E0,0E0,0E0,0E0,0E0,0E0,0E0,0E0,0E0,0E0,0E0,0E0,0E0],"parents":[2147483647,0,0,1,1,2,2,3,3,4,4,5,5,6,6,8,8,9,9,10,10,12,12,13,13,14,14,15,15,16,16,17,17,18,18,19,19,20,20,23,23,24,24,25,25,26,26,27,27,28,28,29,29,30,30,31,31,32,32,33,33,35,35,36,36,37,37,38,38,39,39,40,40,42,42,45,45,46,46],"right_children":[2,4,6,8,10,12,14,-1,16,18,20,-1,22,24,26,28,30,32,34,36,38,-1,-1,40,42,44,46,48,50,52,54,56,58,60,-1,62,64,66,68,70,72,-1,74,-1,-1,76,78,-1,-1,-1,-1,-1,-1,-1,-1,-1,-1,-1,-1,-1,-1,-1,-1,-1,-1,-1,-1,-1,-1,-1,-1,-1,-1,-1,-1,-1,-1,-1,-1],"split_conditions":[-9.952593E-1,2.2228582E-2,1.1119134E0,-1.8940215E0,-1.6418102E0,-9.7963727E-1,-5.4015636E-1,-1.126946E-1,-5.37205E-1,1.9382641E0,-1.9028455E0,1.3330516E-1,1.1164391E0,-9.808835E-1,8.7131715E-1,8.945594E-1,8.7203217E-1,-4.8761865E-1,-1.0573604E0,-3.013302E-1,-1.0982802E0,1.16952814E-1,1.2630044E-1,-2.0992947E-1,1.11672E0,-6.6394866E-1,-3.723901E-1,-3.6810625E-1,-2.1954742E-1,-6.6385126E-1,8.730935E-1,5.806717E-1,-3.8587907E-1,-1.138752E0,-1.4088519E-1,-8.776561E-1,-6.113661E-1,-5.2036256E-1,-2.1338457E-1,-2.1954742E-1,6.720992E-1,1.2319858E-1,-5.854194E-1,1.5341713E-1,1.2386965E-1,-4.4692284E-1,8.972357E-1,-5.277815E-2,1.5649061E-1,-1.1150344E-1,-5.290208E-2,1.7723393E-1,1.291189E-1,-6.995422E-2,-1.5513236E-2,-1.2463393E-1,7.2028615E-2,9.387257E-2,-9.0985775E-2,-1.3903233E-1,4.0685493E-2,-1.05535164E-1,-4.5634758E-2,8.5651025E-2,-4.635584E-2,-7.196781E-2,7.7298963E-3,1.30087E-1,3.6510475E-2,-1.05053626E-1,-5.9503138E-2,1.7140633E-1,-5.133729E-2,-4.3680098E-2,1.462961E-2,1.8326389E-2,-6.577908E-2,1.3612388E-1,2.0544762E-2],"split_indices":[16,2,16,8,7,15,5,0,5,2,8,0,15,15,5,7,5,0,0,14,17,0,0,17,15,2,7,7,1,2,5,2,0,0,0,15,3,5,17,1,17,0,13,0,0,0,7,0,0,0,0,0,0,0,0,0,0,0,0,0,0,0,0,0,0,0,0,0,0,0,0,0,0,0,0,0,0,0,0],"split_type":[0,0,0,0,0,0,0,0,0,0,0,0,0,0,0,0,0,0,0,0,0,0,0,0,0,0,0,0,0,0,0,0,0,0,0,0,0,0,0,0,0,0,0,0,0,0,0,0,0,0,0,0,0,0,0,0,0,0,0,0,0,0,0,0,0,0,0,0,0,0,0,0,0,0,0,0,0,0,0],"sum_hessian":[7.060957E3,2.952265E3,4.108692E3,2.2964587E3,6.55806E2,1.0258131E3,3.082879E3,6.189074E2,1.6775514E3,6.3829044E1,5.91977E2,2.7408676E2,7.517264E2,1.899193E3,1.1836859E3,1.3055752E3,3.7197607E2,1.6792969E1,4.703608E1,4.4074303E1,5.479027E2,3.4165515E2,4.1007126E2,6.071808E2,1.2920122E3,3.5149902E2,8.3218695E2,6.890573E2,6.1651794E2,7.79311E1,2.9404498E2,6.764847E0,1.0028122E1,1.4319884E1,3.2716194E1,3.6921604E1,7.1526976E0,6.508965E1,4.8281305E2,4.5308942E2,1.5409134E2,1.449238E2,1.1470884E3,9.478548E1,2.5671353E2,2.644913E2,5.676956E2,6.4285815E2,4.619911E1,3.560826E2,2.6043536E2,3.0674858E1,4.7256245E1,1.4846936E2,1.4557562E2,5.5829897E0,1.181857E0,7.3395724E0,2.688549E0,1.0864924E1,3.4549592E0,2.5405437E1,1.1516167E1,2.3310764E0,4.821621E0,3.2873173E1,3.2216484E1,7.304726E1,4.0976578E2,2.1024971E2,2.4283972E2,1.3397975E1,1.4069337E2,7.261942E2,4.2089423E2,9.623359E1,1.6825772E2,7.556652E1,4.9212912E2],"tree_param":{"num_deleted":"0","num_feature":"19","num_nodes":"79","size_leaf_vector":"0"}},{"base_weights":[5.1625287E-3,-4.5372233E-1,3.5097095E-1,-1.0762062E0,-2.7899054E-1,1.1555603E0,2.5327113E-1,-1.0985128E0,-4.5589793E-1,-8.8484544E-1,-1.3425644E-1,3.012479E-1,1.1925539E0,-9.50915E-1,3.719511E-1,-1.1022727E0,-1.7448266E-1,-7.301634E-1,6.7796934E-1,-1.103759E0,-5.49786E-1,1.5351684E0,-2.641411E-1,-6.6119087E-1,1.0399356E0,1.1979753E0,-4.8044485E-1,-1.0810454E0,-7.290177E-1,1.3015679E0,1.9931033E-1,-1.131613E0,-1.0249703E0,-7.46275E-1,6.1945945E-1,-8.962484E-1,-9.670465E-3,3.1399287E-2,9.007241E-1,-1.1232892E0,5.0163362E-2,-6.9688857E-1,5.224514E-2,1.7561405E0,1.4216888E0,-4.088524E-1,2.1600628E-1,-9.842268E-1,4.298216E-1,3.342799E-1,1.1815394E0,1.0611731E0,1.2699375E0,-1.0957061E0,-4.168675E-1,1.1682273E0,-8.643713E-1,1.488014E0,1.230805E0,-1.2869398E-1,5.3762364E-1,-6.5016955E-1,-1.159093E0,-9.89725E-1,-8.946291E-2,-5.2699184E-1,7.8328735E-1,2.3074326E-1,1.139097E0,-1.138654E0,-2.3934881E-1,-9.051412E-1,1.0248889E0,-4.6801203E-1,-8.416924E-1,1.2380471E0,-2.5726017E-1,1.921946E0,1.2800828E0,1.2256575E0,1.6156573E0,-1.2217647E-1,-5.8600837E-1,1.375353E0,-2.1910824E-1,7.696513E-1,-2.9374358E-1,1.2782856E0,-1.2472687E0,3.0543616E-1,1.2737867E0,-1.1373128E0,-8.3627206E-1,-8.0760884E-1,6.6601115E-1,-1.1005723E0,-4.540208E-1,1.2829992E0,1.6501276E0,-2.9959017E-1,3.1725237E-1,1.2539979E0,2.4529237E-1],"categories":[],"categories_nodes":[],"categories_segments":[],"categories_sizes":[],"default_left":[1,1,1,1,1,1,1,1,1,1,1,1,1,1,1,1,1,1,1,1,1,1,1,1,1,1,0,1,1,1,1,0,1,0,0,1,1,0,1,1,1,1,1,1,1,1,1,0,0,1,0,1,1,1,1,0,1,1,0,1,1,0,0,0,0,0,0,0,0,0,0,0,0,0,0,0,0,0,0,0,0,0,0,0,0,0,0,0,0,0,0,0,0,0,0,0,0,0,0,0,0,0,0],"id":14,"left_children":[1,3,5,7,9,11,13,15,17,19,21,23,25,27,29,31,33,35,37,39,41,43,45,47,49,51,-1,53,55,57,59,-1,61,-1,-1,63,65,-1,67,69,71,73,75,77,79,81,83,-1,-1,85,-1,87,89,91,93,-1,95,97,-1,99,101,-1,-1,-1,-1,-1,-1,-1,-1,-1,-1,-1,-1,-1,-1,-1,-1,-1,-1,-1,-1,-1,-1,-1,-1,-1,-1,-1,-1,-1,-1,-1,-1,-1,-1,-1,-1,-1,-1,-1,-1,-1,-1],"loss_changes":[1.082646E3,3.1859875E2,3.0554263E2,8.386108E0,2.0074466E2,1.2945923E1,4.9635114E2,1.9591675E0,7.9597306E0,3.1778534E1,4.0157635E2,1.4061442E1,4.232422E0,8.210876E0,5.0688574E2,2.3852539E-1,2.1409082E0,2.3618507E0,7.197633E-1,6.0522156E0,1.5664616E1,8.5595703E-1,1.1942072E2,3.5173979E0,7.0734596E-1,2.6115723E0,0E0,1.4358826E0,3.138242E1,4.696045E0,2.9593643E2,0E0,8.307098E0,0E0,0E0,1.1247416E0,2.3497992E0,0E0,3.4832597E-1,3.281311E0,5.9422317E0,4.308525E0,1.33776865E1,7.8499603E-1,1.5782928E0,6.696858E1,2.0127206E2,0E0,0E0,1.1114969E0,0E0,7.4123276E1,5.704651E-1,1.095047E0,2.9970407E0,0E0,1.0256378E1,2.2477722E0,0E0,1.0332596E2,2.7459293E2,0E0,0E0,0E0,0E0,0E0,0E0,0E0,0E0,0E0,0E0,0E0,0E0,0E0,0E0,0E0,0E0,0E0,0E0,0E0,0E0,0E0,0E0,0E0,0E0,0E0,0E0,0E0,0E0,0E0,0E0,0E0,0E0,0E0,0E0,0E0,0E0,0E0,0E0,0E0,0E0,0E0,0E0],"parents":[2147483647,0,0,1,1,2,2,3,3,4,4,5,5,6,6,7,7,8,8,9,9,10,10,11,11,12,12,13,13,14,14,15,15,16,16,17,17,18,18,19,19,20,20,21,21,22,22,23,23,24,24,25,25,27,27,28,28,29,29,30,30,32,32,35,35,36,36,38,38,39,39,40,40,41,41,42,42,43,43,44,44,45,45,46,46,49,49,51,51,52,52,53,53,54,54,56,56,57,57,59,59,60,60],"right_children":[2,4,6,8,10,12,14,16,18,20,22,24,26,28,30,32,34,36,38,40,42,44,46,48,50,52,-1,54,56,58,60,-1,62,-1,-1,64,66,-1,68,70,72,74,76,78,80,82,84,-1,-1,86,-1,88,90,92,94,-1,96,98,-1,100,102,-1,-1,-1,-1,-1,-1,-1,-1,-1,-1,-1,-1,-1,-1,-1,-1,-1,-1,-1,-1,-1,-1,-1,-1,-1,-1,-1,-1,-1,-1,-1,-1,-1,-1,-1,-1,-1,-1,-1,-1,-1,-1],"split_conditions":[-3.800536E-1,-1.9072568E0,-3.553004E-2,1.3029982E0,-1.0969257E0,-1.8917508E0,-3.540734E-2,5.95132E-1,8.8981616E-1,-2.1954742E-1,-2.1226794E-1,-9.235313E-1,5.440222E0,-9.6690196E-1,3.0910462E-1,3.262981E-1,-4.3942827E-1,8.9816034E-1,-9.6257216E-1,1.2112343E-1,-5.0965613E-1,-9.9064386E-1,-5.3993106E-1,-8.776561E-1,-6.069634E-1,-2.6509458E-1,-4.8044484E-2,1.5220689E0,1.0517676E0,-6.620497E-1,-5.3996E-1,-1.131613E-1,7.7395225E-1,-7.4627504E-2,6.1945945E-2,1.0692503E0,2.3109485E-1,3.1399287E-3,-1.9828591E-1,1.3029982E0,7.6110905E-1,-6.9109786E-1,8.6554104E-1,2.0169694E-2,1.0969139E0,-7.1144575E-1,8.7207633E-1,-9.8422684E-2,4.298216E-2,-3.9125058E-1,1.18153945E-1,-2.6540178E-1,-1.7339847E0,5.9344816E-1,-2.1954742E-1,1.16822734E-1,1.5471733E0,1.1055791E0,1.2308051E-1,-2.1175736E-1,8.716842E-1,-6.5016955E-2,-1.159093E-1,-9.89725E-2,-8.946291E-3,-5.2699186E-2,7.8328736E-2,2.3074327E-2,1.139097E-1,-1.138654E-1,-2.3934882E-2,-9.0514116E-2,1.0248889E-1,-4.6801206E-2,-8.416924E-2,1.2380471E-1,-2.5726018E-2,1.9219461E-1,1.2800829E-1,1.2256575E-1,1.6156574E-1,-1.2217647E-2,-5.860084E-2,1.375353E-1,-2.1910824E-2,7.696513E-2,-2.937436E-2,1.2782857E-1,-1.2472687E-1,3.0543616E-2,1.2737867E-1,-1.1373128E-1,-8.362721E-2,-8.076089E-2,6.660112E-2,-1.10057235E-1,-4.540208E-2,1.2829992E-1,1.6501276E-1,-2.9959017E-2,3.172524E-2,1.253998E-1,2.4529237E-2],"split_indices":[4,8,4,0,17,8,4,6,5,1,17,16,12,15,4,0,5,2,16,10,5,16,5,15,2,4,0,12,15,2,5,0,0,0,0,3,17,0,17,0,3,0,5,2,16,0,5,0,0,3,0,4,3,13,1,0,0,15,0,17,5,0,0,0,0,0,0,0,0,0,0,0,0,0,0,0,0,0,0,0,0,0,0,0,0,0,0,0,0,0,0,0,0,0,0,0,0,0,0,0,0,0,0],"split_type":[0,0,0,0,0,0,0,0,0,0,0,0,0,0,0,0,0,0,0,0,0,0,0,0,0,0,0,0,0,0,0,0,0,0,0,0,0,0,0,0,0,0,0,0,0,0,0,0,0,0,0,0,0,0,0,0,0,0,0,0,0,0,0,0,0,0,0,0,0,0,0,0,0,0,0,0,0,0,0,0,0,0,0,0,0,0,0,0,0,0,0,0,0,0,0,0,0,0,0,0,0,0,0],"sum_hessian":[6.820553E3,2.9309265E3,3.889627E3,6.412626E2,2.289664E3,4.199962E2,3.4696306E3,6.182588E2,2.300375E1,4.4052386E2,1.8491401E3,1.7811451E1,4.0218475E2,3.106463E2,3.1589844E3,6.1556116E2,2.6976476E0,1.8809946E1,4.1938024E0,2.6505435E2,1.7546953E2,1.3270071E2,1.7164395E3,7.779902E0,1.0031549E1,4.011687E2,1.0160459E0,1.9337231E2,1.1727397E2,4.9375082E2,2.6652336E3,4.363175E2,1.7924367E2,1.6031251E0,1.0945226E0,1.508799E1,3.7219572E0,1.366973E0,2.8268294E0,2.6066907E2,4.385288E0,1.4088707E2,3.458245E1,4.011392E1,9.258679E1,1.3190426E3,3.9739685E2,6.0781198E0,1.7017822E0,2.2382622E0,7.7932878E0,1.43713E2,2.5745572E2,1.8856042E2,4.8119035E0,7.3012843E0,1.0997269E2,1.3032973E2,3.6342108E2,1.3535491E3,1.3116844E3,4.877934E1,1.3046432E2,1.3318156E1,1.7698336E0,2.455447E0,1.2665101E0,1.2582716E0,1.5685577E0,2.5593227E2,4.7367916E0,2.250761E0,2.134527E0,5.6234695E1,8.4652374E1,6.5370584E0,2.8045393E1,2.7499083E1,1.2614837E1,4.96886E1,4.2898197E1,5.0444052E2,8.1460205E2,1.0785644E2,2.8954044E2,1.1886961E0,1.049566E0,1.3176642E2,1.1946574E1,1.3427423E0,2.5611298E2,1.595835E2,2.8976927E1,3.72279E0,1.0891137E0,6.872943E1,4.1243256E1,6.14862E1,6.884352E1,9.787857E2,3.7476343E2,3.7918378E2,9.325007E2],"tree_param":{"num_deleted":"0","num_feature":"19","num_nodes":"103","size_leaf_vector":"0"}},{"base_weights":[5.110662E-3,-4.2095646E-1,3.2448182E-1,-1.0534152E0,-2.516909E-1,1.1237384E0,2.3313715E-1,-1.0752531E0,-4.6934018E-1,-5.746928E-1,1.3044928E-2,3.3237347E-1,1.1586387E0,-8.980373E-1,3.4038797E-1,-1.092778E0,-8.2882375E-1,-7.122351E-1,5.7658046E-1,-2.4851277E-1,-1.0654277E0,-1.4107545E-1,4.157157E-1,-5.613143E-1,1.0102216E0,1.0029863E0,1.2404646E0,-9.760553E-1,-3.9617154E-1,1.2501482E0,1.809891E-1,-1.1083295E0,-8.981923E-1,1.0674883E0,-9.7544473E-1,-9.4494796E-1,2.4320912E-1,-6.923511E-1,1.0795301E0,-7.490995E-1,2.0929533E-1,-1.1115276E0,-3.8951537E-1,-6.1896972E-2,-8.0536866E-1,1.3017485E0,5.2903943E-2,-8.7561566E-1,8.1437457E-1,4.2496446E-1,1.1166575E0,1.241169E0,-1.1829352E0,-1.040148E0,-6.4709574E-1,1.2698957E0,-7.6638377E-1,1.4008857E0,1.1912045E0,-1.3129139E-1,5.162731E-1,-7.376751E-1,-1.2284842E0,-1.1021601E0,-5.985881E-1,-6.396841E-1,6.693236E-1,3.391907E-1,1.2466893E0,-5.18901E-1,-1.1574266E0,1.6968321E0,-8.831294E-2,7.2159356E-1,-1.1190013E0,1.3442523E0,-6.7500824E-1,-2.1005103E-1,6.040074E-1,-8.5142493E-1,7.828844E-1,-4.6391922E-1,4.4031847E-1,-9.490095E-1,-2.9910913E-1,-1.8660174E-1,8.782567E-1,-1.2643396E0,-1.5570942E-1,-1.1482534E0,-8.2823974E-1,1.5603836E0,-9.172083E-1,-9.761759E-1,-6.971593E-2,1.3769297E-1,1.415151E0,1.236012E0,1.0988008E0,-8.277008E-1,-2.2600345E-2,1.2248108E0,2.4548098E-1],"categories":[],"categories_nodes":[],"categories_segments":[],"categories_sizes":[],"default_left":[1,1,1,1,1,1,1,1,1,1,1,1,1,1,1,1,1,1,1,1,1,1,1,1,1,1,0,1,1,1,1,0,1,0,1,0,1,0,1,1,1,1,1,1,1,0,1,1,0,1,0,0,1,1,1,0,1,1,1,1,1,0,0,0,0,0,0,0,0,0,0,0,0,0,0,0,0,0,0,0,0,0,0,0,0,0,0,0,0,0,0,0,0,0,0,0,0,0,0,0,0,0,0],"id":15,"left_children":[1,3,5,7,9,11,13,15,17,19,21,23,25,27,29,31,33,35,37,39,41,43,45,47,49,51,-1,53,55,57,59,-1,61,-1,63,-1,65,-1,67,69,71,73,75,77,79,-1,81,83,-1,85,-1,-1,87,89,91,-1,93,95,97,99,101,-1,-1,-1,-1,-1,-1,-1,-1,-1,-1,-1,-1,-1,-1,-1,-1,-1,-1,-1,-1,-1,-1,-1,-1,-1,-1,-1,-1,-1,-1,-1,-1,-1,-1,-1,-1,-1,-1,-1,-1,-1,-1],"loss_changes":[8.99616E2,3.029627E2,2.7561685E2,7.1190186E0,1.9119017E2,1.0311859E1,4.118756E2,1.5791626E0,6.3342156E0,1.6093848E2,7.637329E1,1.1326736E1,3.4752197E0,1.1127472E1,4.492294E2,6.2054443E-1,1.2813965E1,4.5365467E0,3.9046073E0,1.3910011E2,1.208725E1,4.676535E1,1.0943257E2,4.303524E0,1.7689323E-1,7.066196E1,0E0,4.678482E0,2.641465E1,2.4353027E0,2.763224E2,0E0,1.4687996E0,0E0,1.242073E0,0E0,2.1546185E0,0E0,6.3923836E-2,2.6642227E1,1.4068762E2,5.9535522E0,1.4368212E1,7.869238E1,7.5942802E0,0E0,4.880212E1,2.2541523E-2,0E0,1.0575199E0,0E0,0E0,9.3787384E-1,3.8777466E0,2.7688204E1,0E0,4.9556046E0,2.0426025E0,4.4433594E-2,1.0344629E2,2.4386346E2,0E0,0E0,0E0,0E0,0E0,0E0,0E0,0E0,0E0,0E0,0E0,0E0,0E0,0E0,0E0,0E0,0E0,0E0,0E0,0E0,0E0,0E0,0E0,0E0,0E0,0E0,0E0,0E0,0E0,0E0,0E0,0E0,0E0,0E0,0E0,0E0,0E0,0E0,0E0,0E0,0E0,0E0],"parents":[2147483647,0,0,1,1,2,2,3,3,4,4,5,5,6,6,7,7,8,8,9,9,10,10,11,11,12,12,13,13,14,14,15,15,16,16,17,17,18,18,19,19,20,20,21,21,22,22,23,23,24,24,25,25,27,27,28,28,29,29,30,30,32,32,34,34,36,36,38,38,39,39,40,40,41,41,42,42,43,43,44,44,46,46,47,47,49,49,52,52,53,53,54,54,56,56,57,57,58,58,59,59,60,60],"right_children":[2,4,6,8,10,12,14,16,18,20,22,24,26,28,30,32,34,36,38,40,42,44,46,48,50,52,-1,54,56,58,60,-1,62,-1,64,-1,66,-1,68,70,72,74,76,78,80,-1,82,84,-1,86,-1,-1,88,90,92,-1,94,96,98,100,102,-1,-1,-1,-1,-1,-1,-1,-1,-1,-1,-1,-1,-1,-1,-1,-1,-1,-1,-1,-1,-1,-1,-1,-1,-1,-1,-1,-1,-1,-1,-1,-1,-1,-1,-1,-1,-1,-1,-1,-1,-1,-1],"split_conditions":[-3.800536E-1,-1.9072568E0,-3.553004E-2,1.3029982E0,-2.1954742E-1,-1.8896446E0,-3.540734E-2,-3.7208247E-1,1.0115732E0,8.945594E-1,-5.3993106E-1,-9.235313E-1,-2.6509458E-1,-3.8779032E-1,3.0910462E-1,3.236643E-2,1.7978868E0,8.9816034E-1,2.6114276E-1,-1.6452837E0,1.0820098E0,2.445661E0,8.7207633E-1,-2.6078653E-1,-6.5332997E-1,-2.6540178E-1,1.2404646E-1,-1.3498893E-1,1.7875832E0,-6.6320074E-1,-5.3996E-1,-1.1083295E-1,7.7395225E-1,1.06748834E-1,3.262981E-1,-9.44948E-2,5.8309793E-2,-6.923511E-2,-9.1599435E-1,-4.4692284E-1,-3.7516877E-1,2.1648112E-1,2.2623863E0,-2.1175638E-1,1.3987535E0,1.3017486E-1,8.7472785E-1,1.8716131E-1,8.143746E-2,-1.2960705E-1,1.1166575E-1,1.241169E-1,-4.8236877E-2,-2.1954742E-1,3.1350288E0,1.2698957E-1,1.7506523E0,-1.761307E0,1.9425559E-1,-1.6443241E0,8.716842E-1,-7.3767506E-2,-1.22848414E-1,-1.10216014E-1,-5.985881E-2,-6.396841E-2,6.6932365E-2,3.391907E-2,1.2466893E-1,-5.18901E-2,-1.1574266E-1,1.696832E-1,-8.831294E-3,7.215936E-2,-1.1190013E-1,1.3442524E-1,-6.750082E-2,-2.1005103E-2,6.0400743E-2,-8.514249E-2,7.828844E-2,-4.6391923E-2,4.4031847E-2,-9.490095E-2,-2.9910913E-2,-1.8660175E-2,8.782567E-2,-1.2643395E-1,-1.5570941E-2,-1.14825346E-1,-8.282398E-2,1.5603836E-1,-9.1720834E-2,-9.761759E-2,-6.9715935E-3,1.3769298E-2,1.415151E-1,1.236012E-1,1.0988008E-1,-8.277008E-2,-2.2600347E-3,1.22481085E-1,2.4548098E-2],"split_indices":[4,8,4,0,1,8,4,14,5,7,5,16,4,14,4,2,14,2,7,7,5,17,5,4,2,4,0,11,14,2,5,0,0,0,0,0,16,0,16,0,7,8,5,17,10,0,5,17,0,14,0,0,2,1,11,0,0,9,4,7,5,0,0,0,0,0,0,0,0,0,0,0,0,0,0,0,0,0,0,0,0,0,0,0,0,0,0,0,0,0,0,0,0,0,0,0,0,0,0,0,0,0,0],"split_type":[0,0,0,0,0,0,0,0,0,0,0,0,0,0,0,0,0,0,0,0,0,0,0,0,0,0,0,0,0,0,0,0,0,0,0,0,0,0,0,0,0,0,0,0,0,0,0,0,0,0,0,0,0,0,0,0,0,0,0,0,0,0,0,0,0,0,0,0,0,0,0,0,0,0,0,0,0,0,0,0,0,0,0,0,0,0,0,0,0,0,0,0,0,0,0,0,0,0,0,0,0,0,0],"sum_hessian":[6.6092456E3,2.8314897E3,3.777756E3,5.967008E2,2.2347888E3,3.863069E2,3.391449E3,5.743842E2,2.2316603E1,1.0060929E3,1.2286959E3,1.6761568E1,3.6954532E2,2.9306967E2,3.0983794E3,5.3304236E2,4.1341854E1,1.8369642E1,3.9469604E0,6.0528235E2,4.008106E2,8.8906146E2,3.3963452E2,7.303894E0,9.457674E0,1.3189912E2,2.3764621E2,2.5282213E2,4.0247547E1,4.609112E2,2.6374683E3,4.892454E2,4.3796974E1,2.516341E0,3.8825516E1,1.4780592E1,3.5890498E0,1.0134547E0,2.933506E0,2.8882864E2,3.1645367E2,3.746158E2,2.6194786E1,7.953547E2,9.370679E1,9.7918076E1,2.4171645E2,6.2414317E0,1.062462E0,2.2235818E0,7.234092E0,1.1932899E2,1.2570139E1,2.0978653E2,4.3035595E1,6.8755064E0,3.3372044E1,1.2316707E2,3.3774414E2,1.3658945E3,1.2715736E3,3.1649271E1,1.2147703E1,2.7615417E1,1.1210096E1,1.005171E0,2.583879E0,1.0983073E0,1.8351986E0,1.8615352E2,1.02675125E2,5.1973373E1,2.6448032E2,1.1331481E0,3.7348267E2,3.1792154E0,2.301557E1,6.5116455E2,1.4419011E2,9.15169E1,2.1898913E0,1.03477165E2,1.3823927E2,4.9634123E0,1.2780199E0,1.1969881E0,1.0265938E0,1.1433261E1,1.136878E0,1.3599158E2,7.379496E1,4.17106E0,3.8864536E1,2.5340027E1,8.032016E0,1.4943542E0,1.21672714E2,2.1911647E2,1.1862767E2,1.8350691E2,1.1823876E3,3.5062555E2,9.209481E2],"tree_param":{"num_deleted":"0","num_feature":"19","num_nodes":"103","size_leaf_vector":"0"}},{"base_weights":[3.661934E-3,-4.0652812E-1,3.0023617E-1,-1.0049881E0,-2.4774304E-1,1.1798874E0,7.654456E-2,-1.0229686E0,6.8432534E-1,-4.5014852E-1,2.0477673E-1,-2.397661E-1,3.406469E-1,-1.0568022E0,-6.176796E-1,-6.892884E-1,1.2271748E0,-9.0478957E-1,-3.229498E-1,1.2796501E0,-1.0037893E-1,-1.0373318E0,-1.5136123E-1,1.1973522E0,2.5455624E-1,-1.082732E0,-8.153373E-1,-9.1956043E-1,6.4768076E-1,-1.0273907E0,-6.6774213E-1,1.5314355E0,-4.1849458E-1,1.5140039E0,1.1945709E0,-4.915841E-1,2.2618979E-1,-5.494916E-1,-2.5931946E-3,-1.638945E-1,4.8246434E-1,1.3751068E0,-9.3828493E-1,-3.6463588E-1,-1.0943074E0,-7.902937E-1,1.0805134E0,-9.436001E-1,-1.1105713E0,-3.5606718E-1,-8.519345E-1,-1.9022247E-1,-7.065924E-1,1.3569087E-1,-6.980189E-1,1.3608514E0,-3.1677714E-1,-6.1299837E-1,-1.7221783E-1,1.2384989E0,-1.5174173E-1,1.2172584E-1,-5.7805216E-1,1.2697899E0,3.4101698E-1],"categories":[],"categories_nodes":[],"categories_segments":[],"categories_sizes":[],"default_left":[1,1,1,1,1,0,1,1,1,1,1,1,1,1,1,0,0,1,1,1,1,0,1,0,1,0,1,1,1,1,1,0,1,0,0,1,1,1,1,1,1,0,0,0,0,0,0,0,0,0,0,0,0,0,0,0,0,0,0,0,0,0,0,0,0],"id":16,"left_children":[1,3,5,7,9,-1,11,13,15,17,19,21,23,25,27,-1,-1,29,31,33,35,-1,37,-1,39,-1,41,43,45,47,49,-1,51,-1,-1,53,55,57,59,61,63,-1,-1,-1,-1,-1,-1,-1,-1,-1,-1,-1,-1,-1,-1,-1,-1,-1,-1,-1,-1,-1,-1,-1,-1],"loss_changes":[7.766117E2,2.543107E2,7.2895605E2,1.7752075E1,1.9412512E2,0E0,2.4693462E2,6.9696045E0,5.7012825E0,8.437311E1,2.150998E2,9.468911E1,1.1849829E2,2.3206787E0,1.7875195E1,0E0,0E0,8.599548E0,2.0360368E2,1.0823975E0,6.544504E1,0E0,7.1791016E1,0E0,1.3979144E2,0E0,1.574258E1,3.182705E0,6.6423054E0,4.0690613E-1,6.113373E0,0E0,7.156177E1,0E0,0E0,3.0264671E1,1.7257098E2,7.7942505E0,1.6371126E2,6.126294E1,1.0521631E2,0E0,0E0,0E0,0E0,0E0,0E0,0E0,0E0,0E0,0E0,0E0,0E0,0E0,0E0,0E0,0E0,0E0,0E0,0E0,0E0,0E0,0E0,0E0,0E0],"parents":[2147483647,0,0,1,1,2,2,3,3,4,4,6,6,7,7,8,8,9,9,10,10,11,11,12,12,13,13,14,14,17,17,18,18,19,19,20,20,22,22,24,24,26,26,27,27,28,28,29,29,30,30,32,32,35,35,36,36,37,37,38,38,39,39,40,40],"right_children":[2,4,6,8,10,-1,12,14,16,18,20,22,24,26,28,-1,-1,30,32,34,36,-1,38,-1,40,-1,42,44,46,48,50,-1,52,-1,-1,54,56,58,60,62,64,-1,-1,-1,-1,-1,-1,-1,-1,-1,-1,-1,-1,-1,-1,-1,-1,-1,-1,-1,-1,-1,-1,-1,-1],"split_conditions":[-9.814327E-1,-1.893285E0,1.1175177E0,4.2777035E-1,-5.4015636E-1,1.1798874E-1,-6.6394866E-1,1.3029982E0,-9.9505916E-2,-1.0977049E0,8.7203217E-1,-1.8884797E0,-1.1708285E-1,-3.0478925E-1,4.0713873E-2,-6.892884E-2,1.2271748E-1,-2.1954742E-1,-2.1351022E-1,-6.6385126E-1,8.7413716E-1,-1.0373318E-1,-9.945991E-1,1.1973522E-1,2.1185024E-2,-1.082732E-1,1.77127E0,1.4250858E0,-9.6257216E-1,8.662261E-1,-4.4692284E-1,1.5314355E-1,8.961017E-1,1.5140039E-1,1.1945709E-1,-1.0573604E0,2.2826347E0,-3.6895788E-1,1.1088328E0,2.0151606E-2,1.0982122E0,1.3751069E-1,-9.382849E-2,-3.646359E-2,-1.09430745E-1,-7.9029374E-2,1.0805134E-1,-9.436002E-2,-1.11057125E-1,-3.560672E-2,-8.519345E-2,-1.9022247E-2,-7.065924E-2,1.3569087E-2,-6.980189E-2,1.3608514E-1,-3.1677715E-2,-6.1299838E-2,-1.7221784E-2,1.2384989E-1,-1.5174173E-2,1.2172584E-2,-5.7805218E-2,1.26979E-1,3.41017E-2],"split_indices":[15,8,15,6,5,0,2,0,14,17,5,8,2,14,2,0,0,1,17,2,5,0,16,0,2,0,14,0,16,7,0,0,7,0,0,0,5,14,16,2,18,0,0,0,0,0,0,0,0,0,0,0,0,0,0,0,0,0,0,0,0,0,0,0,0],"split_type":[0,0,0,0,0,0,0,0,0,0,0,0,0,0,0,0,0,0,0,0,0,0,0,0,0,0,0,0,0,0,0,0,0,0,0,0,0,0,0,0,0,0,0,0,0,0,0,0,0,0,0,0,0,0,0,0,0,0,0,0,0,0,0,0,0],"sum_hessian":[6.3818857E3,2.6778276E3,3.704058E3,5.603904E2,2.1174373E3,7.5009375E2,2.9539644E3,5.548789E2,5.5115066E0,1.4630442E3,6.54393E2,1.3441692E3,1.6097953E3,5.1064288E2,4.4236015E1,1.4847555E0,4.026751E0,3.1850653E2,1.1445377E3,1.4399498E2,5.1039804E2,1.3305426E2,1.2111149E3,1.4581847E2,1.4639768E3,4.5797855E2,5.2664345E1,3.5935947E1,8.300065E0,2.0773282E2,1.1077371E2,5.534492E1,1.0891927E3,3.3878918E1,1.10116066E2,2.3198813E2,2.784099E2,3.2871637E2,8.823985E2,5.163017E2,9.4767505E2,2.2576356E0,5.0406708E1,9.345411E0,2.6590538E1,1.7292418E0,6.570823E0,1.0963637E2,9.809644E1,4.2236965E1,6.853675E1,6.0861865E2,4.805741E2,5.7527416E1,1.7446071E2,8.962025E1,1.8878966E2,2.808208E2,4.7895584E1,9.388237E1,7.885161E2,3.0598666E2,2.1031505E2,1.4311119E2,8.045639E2],"tree_param":{"num_deleted":"0","num_feature":"19","num_nodes":"65","size_leaf_vector":"0"}},{"base_weights":[2.6254745E-3,-4.0327063E-1,2.8432876E-1,-1.027714E0,-2.5111243E-1,1.1974689E0,1.757028E-2,-1.0582254E0,-7.0430464E-1,-4.8631653E-1,1.0850948E-1,1.2706528E0,1.1675099E0,-4.325713E-1,1.8560795E-1,-1.0845E0,-9.378168E-1,9.086577E-1,-7.6402485E-1,-2.9402354E-1,-7.285021E-1,1.3518841E0,-2.0446697E-2,-9.4034445E-1,-3.0916393E-1,1.1642766E0,4.5737594E-2,-9.816653E-1,-5.715382E-1,-8.170957E-1,5.095154E-1,-4.2750937E-1,1.4742502E0,-1.0071489E0,-3.8260195E-1,1.1583967E0,1.4805715E0,-9.624368E-1,9.4767295E-2,-5.7145905E-1,-1.1197197E0,1.5469824E0,-3.9639044E-1,-3.110802E-1,2.6306292E-1,1.4884014E-1,-9.8811084E-1,-9.7695E-1,-6.7767125E-1,-2.0219056E-1,-7.337105E-1,-1.0704565E0,-7.7665526E-1,-2.734054E-1,-1.0388381E0,-1.0162363E0,8.0244315E-1,-4.2316443E-1,2.7654397E-1,-8.150842E-1,-1.8330893E-1,-4.846365E-1,-1.1412634E0,-7.3190963E-1,-1.8824647E-1,1.0322044E-1,-5.974227E-1,1.4660494E0,1.02524124E-1],"categories":[],"categories_nodes":[],"categories_segments":[],"categories_sizes":[],"default_left":[1,1,1,1,1,1,1,1,1,1,1,0,0,1,1,0,1,0,1,1,1,1,1,1,1,0,1,0,1,1,0,1,0,1,1,0,0,1,1,1,1,0,1,1,1,0,0,0,0,0,0,0,0,0,0,0,0,0,0,0,0,0,0,0,0,0,0,0,0],"id":17,"left_children":[1,3,5,7,9,11,13,15,17,19,21,-1,-1,23,25,-1,27,-1,29,31,33,35,37,39,41,-1,43,-1,45,47,-1,49,-1,51,53,-1,-1,55,57,59,61,-1,63,65,67,-1,-1,-1,-1,-1,-1,-1,-1,-1,-1,-1,-1,-1,-1,-1,-1,-1,-1,-1,-1,-1,-1,-1,-1],"loss_changes":[7.06775E2,2.4035529E2,8.887887E2,4.147461E0,1.72398E2,3.2531738E-1,2.1375728E2,4.100952E-1,5.0998764E0,5.7163177E1,1.2934232E2,0E0,0E0,4.784581E1,2.8162006E2,0E0,8.5546875E-1,0E0,3.4339066E0,1.6312985E2,5.21062E1,1.7230225E-1,7.950272E1,9.265869E0,1.009099E2,0E0,1.3977553E2,0E0,3.6950903E0,3.0176926E-1,0E0,4.4068863E1,0E0,3.5610352E0,1.7243286E1,0E0,0E0,8.395294E0,6.1583183E1,4.67531E0,8.107605E-1,0E0,4.1238075E1,8.100914E1,2.1616992E2,0E0,0E0,0E0,0E0,0E0,0E0,0E0,0E0,0E0,0E0,0E0,0E0,0E0,0E0,0E0,0E0,0E0,0E0,0E0,0E0,0E0,0E0,0E0,0E0],"parents":[2147483647,0,0,1,1,2,2,3,3,4,4,5,5,6,6,7,7,8,8,9,9,10,10,13,13,14,14,16,16,18,18,19,19,20,20,21,21,22,22,23,23,24,24,26,26,28,28,29,29,31,31,33,33,34,34,37,37,38,38,39,39,40,40,42,42,43,43,44,44],"right_children":[2,4,6,8,10,12,14,16,18,20,22,-1,-1,24,26,-1,28,-1,30,32,34,36,38,40,42,-1,44,-1,46,48,-1,50,-1,52,54,-1,-1,56,58,60,62,-1,64,66,68,-1,-1,-1,-1,-1,-1,-1,-1,-1,-1,-1,-1,-1,-1,-1,-1,-1,-1,-1,-1,-1,-1,-1,-1],"split_conditions":[-9.952593E-1,-1.9028455E0,1.1119134E0,4.4596538E-2,-5.584583E-1,-9.813149E-1,-9.808835E-1,-2.1954742E-1,9.640031E-1,8.945594E-1,2.2619987E-1,1.2706529E-1,1.1675099E-1,-1.6470052E0,1.1175177E0,-1.08449996E-1,1.3029982E0,9.0865776E-2,1.9948275E0,-3.7301928E-1,-2.1954742E-1,-1.1483773E-1,-1.6415508E0,-1.0166645E0,-3.769738E-1,1.1642766E-1,-3.7336704E-1,-9.816653E-2,1.4250858E0,-3.8587907E-1,5.095154E-2,-4.4692284E-1,1.4742503E-1,-1.989431E-1,-1.1986296E-1,1.15839675E-1,1.4805715E-1,8.861956E-2,2.282753E-1,-1.1794479E0,-1.4729145E0,1.5469824E-1,-2.1954742E-1,-4.4692284E-1,8.9690745E-1,1.4884015E-2,-9.881108E-2,-9.7695E-2,-6.776713E-2,-2.0219056E-2,-7.337105E-2,-1.0704565E-1,-7.766553E-2,-2.734054E-2,-1.0388382E-1,-1.0162363E-1,8.024432E-2,-4.2316444E-2,2.7654398E-2,-8.150842E-2,-1.8330893E-2,-4.846365E-2,-1.1412634E-1,-7.3190965E-2,-1.8824648E-2,1.0322045E-2,-5.9742272E-2,1.4660494E-1,1.0252412E-2],"split_indices":[16,8,16,2,18,15,15,1,18,7,18,0,0,7,15,0,0,0,0,7,1,2,7,0,7,0,7,0,0,0,0,0,0,17,2,0,0,6,18,0,3,0,1,0,7,0,0,0,0,0,0,0,0,0,0,0,0,0,0,0,0,0,0,0,0,0,0,0,0],"split_type":[0,0,0,0,0,0,0,0,0,0,0,0,0,0,0,0,0,0,0,0,0,0,0,0,0,0,0,0,0,0,0,0,0,0,0,0,0,0,0,0,0,0,0,0,0,0,0,0,0,0,0,0,0,0,0,0,0,0,0,0,0,0,0,0,0,0,0,0,0],"sum_hessian":[6.17922E3,2.531394E3,3.6478262E3,4.9484427E2,2.0365498E3,8.2393335E2,2.8238928E3,4.501077E2,4.4736557E1,1.2310511E3,8.0549866E2,2.2729182E2,5.966415E2,7.6718176E2,2.056711E3,3.6290985E2,8.719786E1,1.0897093E0,4.3646847E1,6.8744244E2,5.4360864E2,7.480055E1,7.306981E2,1.4870381E2,6.1847797E2,2.5627048E2,1.8004406E3,7.637467E1,1.082319E1,4.224483E1,1.402016E0,6.398954E2,4.754705E1,3.0001434E2,2.4359428E2,3.387284E1,4.092771E1,7.8830025E1,6.518681E2,5.0021152E1,9.868266E1,2.7008675E1,5.914693E2,6.813416E2,1.119099E3,4.2010403E0,6.622149E0,1.6882042E1,2.5362791E1,3.6959122E2,2.703042E2,2.32509E2,6.7505356E1,2.100577E2,3.35366E1,7.6909744E1,1.9202759E0,1.690033E2,4.828648E2,3.0056229E1,1.9964922E1,4.0085998E0,9.467406E1,2.2548337E2,3.6598593E2,2.7871564E2,4.0262598E2,1.3080307E2,9.882959E2],"tree_param":{"num_deleted":"0","num_feature":"19","num_nodes":"69","size_leaf_vector":"0"}},{"base_weights":[5.161131E-3,-3.686601E-1,2.8180835E-1,-9.999837E-1,-2.2376603E-1,1.0884053E0,1.9685593E-1,-1.0279555E0,-3.1644043E-1,-7.7611494E-1,-1.00636624E-1,2.1876101E-1,1.1259742E0,-8.322921E-1,2.8950438E-1,-1.0575747E0,-8.56629E-1,-7.770508E-1,1.8616967E-1,-1.002328E0,-4.6574745E-1,1.4468408E0,-2.1031292E-1,-5.518218E-1,9.531106E-1,1.1317445E0,-3.0708846E-1,-9.135611E-1,-3.1761864E-1,1.2098156E0,1.4222318E-1,1.0524956E0,-9.49828E-1,-9.3816E-1,-4.3369168E-1,-3.181776E-1,8.5048556E-1,-1.0154529E0,-3.2286566E-1,-5.8264613E-1,-9.082819E-2,1.5339705E0,1.2433946E0,6.027183E-2,-3.9436114E-1,-8.265538E-1,4.9194735E-1,2.028234E-1,1.0445014E0,9.858858E-1,1.2070916E0,-9.897241E-1,-5.454673E-1,1.1908243E0,-6.5294725E-1,1.3607209E0,1.1461723E0,-7.529565E-2,4.204694E-1,-9.8636055E-1,-3.589898E-1,-7.265586E-1,-9.618194E-2,2.8585315E-1,-7.82043E-1,1.6986634E-1,1.0521432E0,-1.0193303E0,-1.2758389E-1,7.267748E-2,-6.9375044E-1,-3.137716E-1,-8.5714495E-1,7.897108E-1,-6.620826E-1,1.8204436E0,1.3964818E0,-2.1437241E-1,2.8430894E-1,-6.4828634E-1,-9.5254585E-2,-9.10181E-1,-2.1286291E-1,1.209447E0,-1.0730968E0,3.5841262E-1,1.2115697E0,-7.166191E-1,-1.0537868E0,1.6030804E0,-8.298205E-1,-9.078771E-1,7.08124E-2,1.6967925E-1,1.3717654E0,1.1550119E0,6.100453E-1,-3.190471E-1,2.4409959E-1,1.2152472E0,3.142885E-1],"categories":[],"categories_nodes":[],"categories_segments":[],"categories_sizes":[],"default_left":[1,1,1,1,1,1,1,1,1,1,1,1,1,1,1,0,1,1,1,1,1,1,1,1,1,1,0,1,1,1,1,0,1,0,1,1,1,1,1,1,1,1,0,1,1,1,0,0,0,1,1,1,1,0,1,1,1,1,1,0,0,0,0,0,0,0,0,0,0,0,0,0,0,0,0,0,0,0,0,0,0,0,0,0,0,0,0,0,0,0,0,0,0,0,0,0,0,0,0,0,0],"id":18,"left_children":[1,3,5,7,9,11,13,15,17,19,21,23,25,27,29,-1,31,33,35,37,39,41,43,45,47,49,-1,51,53,55,57,-1,59,-1,61,63,65,67,69,71,73,75,-1,77,79,81,-1,-1,-1,83,85,87,89,-1,91,93,95,97,99,-1,-1,-1,-1,-1,-1,-1,-1,-1,-1,-1,-1,-1,-1,-1,-1,-1,-1,-1,-1,-1,-1,-1,-1,-1,-1,-1,-1,-1,-1,-1,-1,-1,-1,-1,-1,-1,-1,-1,-1,-1,-1],"loss_changes":[6.1954834E2,2.3284747E2,2.3569965E2,8.762848E0,1.4094809E2,1.0464661E1,2.9735193E2,1.4089966E0,4.805172E0,2.606073E1,2.8828125E2,8.910735E0,2.9442444E0,1.0484848E1,3.874078E2,0E0,1.3900471E1,1.8490887E-1,3.766273E0,1.6134033E0,7.010208E0,8.555603E-2,7.897454E1,2.6615663E0,3.3353186E-1,2.2495117E0,0E0,5.6824493E0,1.9322744E1,2.2277222E0,1.4928848E2,0E0,1.1494293E0,0E0,4.5164442E-1,2.0891912E0,4.7663927E-1,6.035309E-1,8.706673E-1,8.784622E0,2.0386608E1,3.8954163E-1,0E0,3.960392E1,7.1611435E1,1.4488411E-1,0E0,0E0,0E0,5.288111E1,3.3312988E-1,2.4407654E0,2.5938026E1,0E0,5.7178364E0,1.235733E0,6.399231E-1,1.0789882E2,9.094145E1,0E0,0E0,0E0,0E0,0E0,0E0,0E0,0E0,0E0,0E0,0E0,0E0,0E0,0E0,0E0,0E0,0E0,0E0,0E0,0E0,0E0,0E0,0E0,0E0,0E0,0E0,0E0,0E0,0E0,0E0,0E0,0E0,0E0,