{"learner":{"attributes":{"best_iteration":"299","best_ntree_limit":"300","scikit_learn":"{\"use_label_encoder\": null, \"n_estimators\": 300, \"objective\": \"binary:logistic\", \"max_depth\": 7, \"max_leaves\": null, \"max_bin\": null, \"grow_policy\": null, \"learning_rate\": 0.1, \"verbosity\": null, \"booster\": null, \"tree_method\": null, \"gamma\": null, \"min_child_weight\": null, \"max_delta_step\": null, \"subsample\": 0.7, \"sampling_method\": null, \"colsample_bytree\": 0.5, \"colsample_bylevel\": null, \"colsample_bynode\": null, \"reg_alpha\": null, \"reg_lambda\": null, \"scale_pos_weight\": null, \"base_score\": null, \"missing\": NaN, \"num_parallel_tree\": null, \"random_state\": null, \"n_jobs\": null, \"monotone_constraints\": null, \"interaction_constraints\": null, \"importance_type\": null, \"gpu_id\": null, \"validate_parameters\": null, \"predictor\": null, \"enable_categorical\": false, \"feature_types\": null, \"max_cat_to_onehot\": null, \"max_cat_threshold\": null, \"eval_metric\": null, \"early_stopping_rounds\": null, \"callbacks\": null, \"classes_\": [0, 1], \"n_classes_\": 2, \"_estimator_type\": \"classifier\"}"},"feature_names":["DC024","DC025","DC205","DC220","DC226","DC230a","DC237","DC237a","DC237b","DC237f","DC241","DC244","DC246","DC109"],"feature_types":["float","float","float","float","float","float","float","float","float","float","float","float","float","float"],"gradient_booster":{"model":{"gbtree_model_param":{"num_parallel_tree":"1","num_trees":"300","size_leaf_vector":"0"},"tree_info":[0,0,0,0,0,0,0,0,0,0,0,0,0,0,0,0,0,0,0,0,0,0,0,0,0,0,0,0,0,0,0,0,0,0,0,0,0,0,0,0,0,0,0,0,0,0,0,0,0,0,0,0,0,0,0,0,0,0,0,0,0,0,0,0,0,0,0,0,0,0,0,0,0,0,0,0,0,0,0,0,0,0,0,0,0,0,0,0,0,0,0,0,0,0,0,0,0,0,0,0,0,0,0,0,0,0,0,0,0,0,0,0,0,0,0,0,0,0,0,0,0,0,0,0,0,0,0,0,0,0,0,0,0,0,0,0,0,0,0,0,0,0,0,0,0,0,0,0,0,0,0,0,0,0,0,0,0,0,0,0,0,0,0,0,0,0,0,0,0,0,0,0,0,0,0,0,0,0,0,0,0,0,0,0,0,0,0,0,0,0,0,0,0,0,0,0,0,0,0,0,0,0,0,0,0,0,0,0,0,0,0,0,0,0,0,0,0,0,0,0,0,0,0,0,0,0,0,0,0,0,0,0,0,0,0,0,0,0,0,0,0,0,0,0,0,0,0,0,0,0,0,0,0,0,0,0,0,0,0,0,0,0,0,0,0,0,0,0,0,0,0,0,0,0,0,0,0,0,0,0,0,0,0,0,0,0,0,0,0,0,0,0,0,0,0,0,0,0,0,0],"trees":[{"base_weights":[-1.7704671E-2,-8.927937E-1,9.0281445E-1,-1.8100656E0,-5.362454E-1,-2.2628792E-1,1.0768545E0,-1.8192586E0,1.4666667E0,-5.698786E-1,1.949367E0,-1.0890688E0,5.5443734E-1,1.994959E0,9.537528E-1,-1.8417437E0,-1.5204679E0,-6.3938516E-1,-1.3266583E-1,1.9139785E0,-1.3948832E0,1.9466667E0,3.315734E-1,2.5314653E-1,1.3382046E0,-1.8780037E0,-1.7139939E0,-1.7567568E0,-1.3131313E0,-7.481215E-1,-4.680851E-1,7.3260074E-3,-9.3670887E-1,-1.4138702E0,1.1111112E0,-1.8930042E-1,8.731183E-1,1.6832669E-1,1.959799E0,1.9942197E0,1.1928707E0,-1.4630872E0,-7.924528E-1,-1.309237E0,-6.9793886E-1,-3.915344E-1,-7.287174E-1,8.490566E-2,-1.0103092E0,-5.4545456E-1,-1.3E0,-1.1186441E0,-1.6536082E0,-4.4226043E-2,-8.915663E-1,-2E-1,1.2320917E0,4.5643154E-1,-2.6335403E-1,1.97411E0,1.1516976E0,-8.3870965E-1,-1.5737705E0,-9.5652175E-1,1.8181819E-1,-1.3360324E0,1E0,-5.7719713E-1,-8.763251E-1,-4.3917853E-1,-1.4516129E-1,-6.086956E-1,-9.419355E-1,3.3259425E-1,-5.090909E-2,-1.1208792E0,4E-1,-1.3684211E0,-3.773585E-1,-1.4905149E0,1.8333334E0,-1.8967742E0,-1.5209581E0,-1.0588236E0,-0E0,-1.0933334E0,6.666667E-1,3.3333334E-1,-6.875E-1,1.3095238E0,-5.882353E-1,-1.1363637E-1,1.9877676E0,-4.482412E-1,3.5541195E-2,1.2168674E0,8.235294E-1],"categories":[],"categories_nodes":[],"categories_segments":[],"categories_sizes":[],"default_left":[1,1,1,1,1,1,1,1,0,1,0,1,1,0,1,1,1,1,1,0,1,0,1,1,1,0,0,0,1,1,1,1,1,1,0,1,1,1,0,0,1,1,1,1,1,1,1,1,1,1,0,1,1,1,1,1,1,1,1,0,1,0,0,0,0,0,0,0,0,0,0,0,0,0,0,0,0,0,0,0,0,0,0,0,0,0,0,0,0,0,0,0,0,0,0,0,0],"id":0,"left_children":[1,3,5,7,9,11,13,15,-1,17,-1,19,21,-1,23,25,27,29,31,-1,33,-1,35,37,39,-1,-1,-1,41,43,45,47,49,51,-1,53,55,57,-1,-1,59,61,63,65,67,69,71,73,75,77,-1,79,81,83,85,87,89,91,93,-1,95,-1,-1,-1,-1,-1,-1,-1,-1,-1,-1,-1,-1,-1,-1,-1,-1,-1,-1,-1,-1,-1,-1,-1,-1,-1,-1,-1,-1,-1,-1,-1,-1,-1,-1,-1,-1],"loss_changes":[6.416096E3,1.3344636E3,7.630427E2,3.7083252E1,2.4703827E2,3.5036792E2,3.7824048E2,4.8571777E0,0E0,8.8142456E1,0E0,2.2950845E2,8.413794E1,0E0,7.990227E2,1.6694336E0,1.8819122E0,4.6304688E1,4.497437E1,0E0,1.2264862E1,0E0,6.694691E1,1.5206406E2,1.8029517E2,0E0,0E0,0E0,2.7054749E0,4.2182495E1,1.917247E1,2.7026714E1,7.712658E0,1.3968842E1,0E0,1.2339084E1,4.502835E1,1.2498699E2,0E0,0E0,4.8259277E1,1.2543411E0,2.291893E0,9.039719E0,2.9799072E1,8.8103485E0,5.063019E0,1.0714376E1,4.229841E0,3.6683216E0,0E0,1.16075745E2,1.026123E0,4.5656886E0,7.2526913E0,8.029167E0,1.3068344E1,5.261876E2,2.2258842E1,0E0,3.0965576E1,0E0,0E0,0E0,0E0,0E0,0E0,0E0,0E0,0E0,0E0,0E0,0E0,0E0,0E0,0E0,0E0,0E0,0E0,0E0,0E0,0E0,0E0,0E0,0E0,0E0,0E0,0E0,0E0,0E0,0E0,0E0,0E0,0E0,0E0,0E0,0E0],"parents":[2147483647,0,0,1,1,2,2,3,3,4,4,5,5,6,6,7,7,9,9,11,11,12,12,14,14,15,15,16,16,17,17,18,18,20,20,22,22,23,23,24,24,28,28,29,29,30,30,31,31,32,32,33,33,35,35,36,36,37,37,40,40,41,41,42,42,43,43,44,44,45,45,46,46,47,47,48,48,49,49,51,51,52,52,53,53,54,54,55,55,56,56,57,57,58,58,60,60],"right_children":[2,4,6,8,10,12,14,16,-1,18,-1,20,22,-1,24,26,28,30,32,-1,34,-1,36,38,40,-1,-1,-1,42,44,46,48,50,52,-1,54,56,58,-1,-1,60,62,64,66,68,70,72,74,76,78,-1,80,82,84,86,88,90,92,94,-1,96,-1,-1,-1,-1,-1,-1,-1,-1,-1,-1,-1,-1,-1,-1,-1,-1,-1,-1,-1,-1,-1,-1,-1,-1,-1,-1,-1,-1,-1,-1,-1,-1,-1,-1,-1,-1],"split_conditions":[-5.868801E-1,-6.534897E-1,-6.534897E-1,-5.970365E-1,-5.970365E-1,1.01294875E-1,-1.739751E-1,8.879689E-1,1.4666668E-1,8.879689E-1,1.9493671E-1,-1.739751E-1,1.0659425E0,1.994959E-1,1.01294875E-1,2.0696208E-1,-3.8072154E-1,2.0696208E-1,3.3766932E0,1.9139785E-1,2.7821565E-1,1.9466667E-1,1.240993E0,2.7821565E-1,1.0659425E0,-1.8780038E-1,-1.713994E-1,-1.7567568E-1,3.0387533E-1,-1.2292243E0,9.30601E-1,1.824658E0,-7.217506E-2,1.9069043E-1,1.1111112E-1,1.824658E0,6.5183485E-1,1.9069043E-1,1.9597991E-1,1.9942197E-1,5.1419985E-1,-7.217506E-2,1.316284E0,4.8662233E0,3.1350803E-1,3.0387533E-1,1.6248305E0,-2.264483E-1,2.0876503E0,-1.1520877E0,-1.3E-1,-5.0951123E-1,-1.4606342E0,-1.6149075E0,3.3454409E0,-3.8072154E-1,3.3766932E0,-5.0951123E-1,3.0387533E-1,1.97411E-1,9.30601E-1,-8.387097E-2,-1.5737705E-1,-9.565218E-2,1.818182E-2,-1.3360325E-1,1E-1,-5.7719715E-2,-8.763251E-2,-4.3917853E-2,-1.4516129E-2,-6.0869563E-2,-9.419355E-2,3.3259425E-2,-5.090909E-3,-1.1208792E-1,4.0000003E-2,-1.3684212E-1,-3.773585E-2,-1.4905149E-1,1.8333334E-1,-1.8967742E-1,-1.5209581E-1,-1.0588236E-1,-0E0,-1.0933334E-1,6.666667E-2,3.3333335E-2,-6.875E-2,1.3095239E-1,-5.8823533E-2,-1.1363637E-2,1.9877677E-1,-4.482412E-2,3.5541195E-3,1.2168675E-1,8.235294E-2],"split_indices":[2,6,6,13,13,2,2,10,0,10,0,2,13,0,2,11,3,11,10,0,13,0,13,13,13,0,0,0,5,3,3,5,3,13,0,5,2,13,0,0,2,3,3,5,3,5,3,3,3,3,0,13,3,3,5,3,10,13,5,0,3,0,0,0,0,0,0,0,0,0,0,0,0,0,0,0,0,0,0,0,0,0,0,0,0,0,0,0,0,0,0,0,0,0,0,0,0],"split_type":[0,0,0,0,0,0,0,0,0,0,0,0,0,0,0,0,0,0,0,0,0,0,0,0,0,0,0,0,0,0,0,0,0,0,0,0,0,0,0,0,0,0,0,0,0,0,0,0,0,0,0,0,0,0,0,0,0,0,0,0,0,0,0,0,0,0,0,0,0,0,0,0,0,0,0,0,0,0,0,0,0,0,0,0,0,0,0,0,0,0,0,0,0,0,0,0,0],"sum_hessian":[7.963E3,4.08225E3,3.88075E3,1.1415E3,2.94075E3,5.1825E2,3.3625E3,1.13875E3,2.75E0,2.90225E3,3.85E1,2.46E2,2.7225E2,3.9575E2,2.96675E3,1.05425E3,8.45E1,2.50375E3,3.985E2,2.225E1,2.2375E2,3.65E1,2.3575E2,1.05175E3,1.915E3,8.105E2,2.4375E2,3.6E1,4.85E1,1.5295E3,9.7425E2,3.4025E2,5.825E1,2.225E2,1.25E0,1.205E2,1.1525E2,1.003E3,4.875E1,3.45E2,1.57E3,3.625E1,1.225E1,1.235E2,1.406E3,7.55E2,2.1925E2,3.17E2,2.325E1,2.925E1,2.9E1,1.0225E2,1.2025E2,1.0075E2,1.975E1,2.9E1,8.625E1,6.015E2,4.015E2,7.625E1,1.49375E3,6.75E0,2.95E1,1.05E1,1.75E0,1.225E2,1E0,8.41E2,5.65E2,6.32E2,1.23E2,1.4275E2,7.65E1,1.1175E2,2.0525E2,2.175E1,1.5E0,3.75E0,2.55E1,9.125E1,1.1E1,3.775E1,8.25E1,3.25E0,9.75E1,1.775E1,2E0,1.4E1,1.5E1,8.3E1,3.25E0,4.39E2,1.625E2,2.4775E2,1.5375E2,1.244E3,2.4975E2],"tree_param":{"num_deleted":"0","num_feature":"14","num_nodes":"97","size_leaf_vector":"0"}},{"base_weights":[-5.033247E-3,-8.3735156E-1,7.351704E-1,-1.5774509E0,-5.137824E-1,-2.5217947E-1,8.728642E-1,-1.6197814E0,-4.4596976E-1,6.304481E-2,-8.4774935E-1,-1.0145769E0,2.1770585E-1,1.3052408E0,6.750828E-1,-1.7055756E0,-1.4058802E0,-7.313361E-1,6.591233E-1,-1.7695333E-1,5.280651E-1,-1.2815006E0,-2.3469414E-1,8.4656304E-1,-1.5050693E0,6.197868E-1,-1.8030276E0,1.6415186E0,1.0596548E0,-5.6977414E-2,7.923993E-1,-1.2441415E0,-1.7533079E0,-6.118338E-1,-1.7892312E0,-9.6506596E-1,1.5624554E-1,8.487263E-1,-9.790514E-2,2.9016963E-1,-3.7449485E-1,6.896397E-1,2.1101192E-2,-1.9097073E0,-1.2300886E0,3.2584693E-2,-5.7838744E-1,2.6313114E-1,1.7676196E0,-1.3163067E0,-1.767828E0,-9.979055E-2,1.0397024E0,1.50013E0,1.8766998E0,1.0832622E0,-1.1693642E0,1.6861141E0,-6.050174E-1,9.563705E-1,3.5821056E-1,-8.302252E-1,-1.4828422E0,-1.5739778E0,-1.8015628E0,-5.120563E-1,-1.330343E0,-1.2178864E0,-2.6308066E-1,7.4634385E-1,-8.154501E-1,2.1790458E-1,9.397869E-1,3.281099E-1,-1.5316099E0,-9.902836E-1,-1.01916656E-1,8.4542406E-1,1.8649259E-1,-6.8029955E-2,9.53701E-1,-8.937161E-1,-1.3932767E0,-4.191156E-2,1.181502E0,-7.26732E-1,1.6117951E-1,5.525212E-1,-2.986335E-1,-1.4129031E0,1.4084337E0,1.8656843E0,-4.710784E-1,1.5450609E0,5.214855E-1,1.8186892E0,9.9042886E-1,4.1203812E-1,1.150139E0,-3.87758E-1,-1.540146E0,1.23917E0,1.7845788E0,-4.3517947E-1,-1.5441929E0,8.4701926E-1,1.6184933E0,-8.4277785E-1,7.695779E-1,-1.0155095E0,4.507674E-1,-1.7826383E0,-1.0388798E0,-6.229554E-1,4.590009E-1,-1.4932958E0,-4.1902378E-1,-5.418555E-1,-1.4905198E0,4.983209E-2,-5.516492E-1,5.611706E-2,1.3017615E0,-2.1641047E-1,-1.0505981E0,3.8752002E-1,-4.2410547E-1,-1.1497824E0,5.2043308E-2,-2.8382254E-1,6.154069E-1,8.7557065E-1,-2.594427E-1,2.4927048E-1,-5.4714715E-1,-1.164386E0,-4.924435E-3,1.3993049E0,3.944958E-1,-8.234301E-1,-1.4209583E0,-7.9689187E-1,-1.4175781E0,3.7317908E-1,-2.6362735E-1,1.3693906E0,2.6851764E-1,-2.3279984E-1,-9.5056826E-1,7.0810854E-1,-3.1213718E-2,-1.2544064E-1,1.4633275E0,-1.1101712E0,1.0093901E0,-6.874602E-1,-1.4903175E0,5.5243605E-1,-6.045352E-1,1.5731233E0,-1.8776526E-1,-1.3485155E0,6.869425E-1,8.692684E-1,1.5510138E0,4.718034E-1,-1.1892235E0,1.2157364E0,5.0618684E-1,-1.1729898E0,6.569605E-1,1.522476E0,9.979204E-2,-7.9922825E-1,-4.3129753E-2,1.7115785E0,7.7440506E-1,1.6296563E0,-2.0457791E-2,-1.4943091E0,-2.3512124E-1,1.8735032E-1,1.0262375E0],"categories":[],"categories_nodes":[],"categories_segments":[],"categories_sizes":[],"default_left":[1,1,1,1,1,1,1,1,1,1,1,1,1,1,1,1,1,1,1,1,1,1,1,1,1,1,0,1,1,1,1,1,1,1,0,1,1,1,0,1,1,1,1,0,1,1,1,1,0,1,0,1,1,1,0,1,1,1,1,1,1,1,0,1,0,1,1,1,1,1,1,0,0,1,0,1,1,1,1,1,1,1,1,1,1,1,1,1,1,1,0,0,1,1,1,0,1,1,1,1,0,1,0,1,0,1,1,1,1,0,0,0,0,0,0,0,0,0,0,0,0,0,0,0,0,0,0,0,0,0,0,0,0,0,0,0,0,0,0,0,0,0,0,0,0,0,0,0,0,0,0,0,0,0,0,0,0,0,0,0,0,0,0,0,0,0,0,0,0,0,0,0,0,0,0,0,0,0,0,0,0,0,0],"id":1,"left_children":[1,3,5,7,9,11,13,15,17,19,21,23,25,27,29,31,33,35,37,39,41,43,45,47,49,51,-1,53,55,57,59,61,63,65,-1,67,69,71,-1,73,75,77,79,-1,81,83,85,87,-1,89,-1,91,93,95,-1,97,99,101,103,105,107,109,-1,111,-1,113,115,117,119,121,123,-1,-1,125,-1,127,129,131,133,135,137,139,141,143,145,147,149,151,153,155,-1,-1,157,159,161,-1,163,165,167,169,-1,171,-1,173,-1,175,177,179,181,-1,-1,-1,-1,-1,-1,-1,-1,-1,-1,-1,-1,-1,-1,-1,-1,-1,-1,-1,-1,-1,-1,-1,-1,-1,-1,-1,-1,-1,-1,-1,-1,-1,-1,-1,-1,-1,-1,-1,-1,-1,-1,-1,-1,-1,-1,-1,-1,-1,-1,-1,-1,-1,-1,-1,-1,-1,-1,-1,-1,-1,-1,-1,-1,-1,-1,-1,-1,-1,-1,-1,-1,-1,-1],"loss_changes":[4.8722266E3,8.906421E2,5.692898E2,5.3492676E1,4.993086E2,1.8402502E2,3.1328223E2,1.7618164E1,1.3790045E1,1.0625358E2,4.3617212E2,1.8003265E2,2.5970087E2,9.3395874E1,2.1670752E2,1.4861816E1,9.5683716E1,7.2069626E0,1.4017086E0,5.807301E1,2.653003E1,2.869043E1,6.2609287E1,2.18268E1,5.377533E0,8.053455E1,0E0,1.3291382E1,3.644818E1,3.3477664E2,1.5446179E2,6.2761917E0,3.21167E0,6.848957E0,0E0,4.482582E0,5.167375E0,2.2317362E-1,0E0,1.3445453E1,7.407315E1,1.910157E1,6.6608706E0,0E0,4.767273E1,3.2935944E1,3.2824272E1,4.484637E0,0E0,2.681282E1,0E0,7.3127975E1,4.323819E1,4.8127686E1,0E0,2.924701E1,1.5727282E0,1.4780884E0,4.1843735E1,1.1286328E2,2.9591882E2,7.593298E0,0E0,1.5575409E1,0E0,1.0393059E1,1.1832905E0,2.8087254E0,7.897201E-1,2.0234299E0,2.6310086E-1,0E0,0E0,8.398754E0,0E0,2.2582626E1,4.028978E1,6.466919E0,2.8709085E0,5.069944E0,1.1894889E0,9.721207E0,7.5408936E0,3.3395695E1,3.6516228E0,2.725235E1,5.3492494E0,1.1229159E1,1.1399447E1,4.118698E0,0E0,0E0,1.1817776E1,4.4110413E0,2.7084417E1,0E0,6.833786E0,6.4512405E0,2.47948E1,3.8433042E0,0E0,5.7897816E0,0E0,3.2380806E1,0E0,8.3815735E1,4.1047974E0,6.020655E1,6.640997E1,0E0,0E0,0E0,0E0,0E0,0E0,0E0,0E0,0E0,0E0,0E0,0E0,0E0,0E0,0E0,0E0,0E0,0E0,0E0,0E0,0E0,0E0,0E0,0E0,0E0,0E0,0E0,0E0,0E0,0E0,0E0,0E0,0E0,0E0,0E0,0E0,0E0,0E0,0E0,0E0,0E0,0E0,0E0,0E0,0E0,0E0,0E0,0E0,0E0,0E0,0E0,0E0,0E0,0E0,0E0,0E0,0E0,0E0,0E0,0E0,0E0,0E0,0E0,0E0,0E0,0E0,0E0,0E0,0E0,0E0,0E0,0E0,0E0,0E0],"parents":[2147483647,0,0,1,1,2,2,3,3,4,4,5,5,6,6,7,7,8,8,9,9,10,10,11,11,12,12,13,13,14,14,15,15,16,16,17,17,18,18,19,19,20,20,21,21,22,22,23,23,24,24,25,25,27,27,28,28,29,29,30,30,31,31,32,32,33,33,35,35,36,36,37,37,39,39,40,40,41,41,42,42,44,44,45,45,46,46,47,47,49,49,51,51,52,52,53,53,55,55,56,56,57,57,58,58,59,59,60,60,61,61,63,63,65,65,66,66,67,67,68,68,69,69,70,70,73,73,75,75,76,76,77,77,78,78,79,79,80,80,81,81,82,82,83,83,84,84,85,85,86,86,87,87,88,88,89,89,92,92,93,93,94,94,96,96,97,97,98,98,99,99,101,101,103,103,105,105,106,106,107,107,108,108],"right_children":[2,4,6,8,10,12,14,16,18,20,22,24,26,28,30,32,34,36,38,40,42,44,46,48,50,52,-1,54,56,58,60,62,64,66,-1,68,70,72,-1,74,76,78,80,-1,82,84,86,88,-1,90,-1,92,94,96,-1,98,100,102,104,106,108,110,-1,112,-1,114,116,118,120,122,124,-1,-1,126,-1,128,130,132,134,136,138,140,142,144,146,148,150,152,154,156,-1,-1,158,160,162,-1,164,166,168,170,-1,172,-1,174,-1,176,178,180,182,-1,-1,-1,-1,-1,-1,-1,-1,-1,-1,-1,-1,-1,-1,-1,-1,-1,-1,-1,-1,-1,-1,-1,-1,-1,-1,-1,-1,-1,-1,-1,-1,-1,-1,-1,-1,-1,-1,-1,-1,-1,-1,-1,-1,-1,-1,-1,-1,-1,-1,-1,-1,-1,-1,-1,-1,-1,-1,-1,-1,-1,-1,-1,-1,-1,-1,-1,-1,-1,-1,-1,-1,-1,-1],"split_conditions":[-3.1540138E-1,-6.534897E-1,-6.534897E-1,1.303858E0,-7.1195626E-1,3.0852916E-2,-4.4725335E-1,3.2649353E-1,6.2205446E-1,-1.0988297E0,5.504729E-1,-8.4565185E-2,9.783682E0,2.6168913E-1,-3.250828E-1,-1.3024473E0,7.7445227E-1,3.0387533E-1,1.7405355E0,-1.3024473E0,-1.0173826E0,-4.8797688E-1,-7.217506E-2,-1.9998328E-1,1.4260286E0,3.6721706E-1,-1.8030277E-1,3.0852916E-2,9.899101E0,2.6168913E-1,1.4260286E0,-5.349948E-1,-1.0581062E0,1.824658E0,-1.7892312E-1,-7.217506E-2,-4.5785815E-1,8.1489605E-1,-9.790514E-3,8.879689E-1,-1.2617238E0,4.6778125E-1,8.879689E-1,-1.9097073E-1,-4.4725335E-1,3.3454409E0,1.303858E0,7.94814E-1,1.7676197E-1,1.303858E0,-1.767828E-1,2.6168913E-1,7.7445227E-1,-8.4565185E-2,1.8766998E-1,-1.3024473E0,-7.1195626E-1,-1.9998328E-1,8.879689E-1,1.303858E0,3.0852916E-2,3.0387533E-1,-1.4828423E-1,-1.1802768E0,-1.8015628E-1,3.0387533E-1,3.3454409E0,-1.1520877E0,3.1350803E-1,-7.664046E-1,4.961554E-3,2.1790458E-2,9.3978696E-2,1.6248305E0,-1.5316099E-1,3.0387533E-1,3.0387533E-1,8.879689E-1,2.1647868E0,-1.3834975E0,-5.735631E-1,1.1620109E0,-5.7081234E-1,8.151758E-1,-6.89268E-1,8.151758E-1,2.363714E-1,2.1067113E-2,1.222411E0,-1.2617238E0,1.4084338E-1,1.8656842E-1,-1.3024473E0,2.31906E0,1.140964E0,1.8186893E-1,-4.8797688E-1,2.2419233E0,1.4705572E0,-1.1802768E0,-1.540146E-1,9.30601E-1,1.7845789E-1,-3.6580634E-1,-1.5441929E-1,-8.4565185E-2,2.8590164E0,1.5481992E0,1.5481992E0,-1.0155095E-1,4.507674E-2,-1.7826383E-1,-1.03887975E-1,-6.2295537E-2,4.5900088E-2,-1.4932959E-1,-4.190238E-2,-5.418555E-2,-1.4905198E-1,4.983209E-3,-5.5164922E-2,5.611706E-3,1.3017616E-1,-2.1641048E-2,-1.0505982E-1,3.8752E-2,-4.241055E-2,-1.1497825E-1,5.2043307E-3,-2.8382255E-2,6.154069E-2,8.755707E-2,-2.5944268E-2,2.4927048E-2,-5.4714717E-2,-1.16438605E-1,-4.924435E-4,1.3993049E-1,3.944958E-2,-8.234301E-2,-1.4209583E-1,-7.968919E-2,-1.4175782E-1,3.731791E-2,-2.6362736E-2,1.3693906E-1,2.6851764E-2,-2.3279985E-2,-9.5056824E-2,7.0810854E-2,-3.1213718E-3,-1.2544065E-2,1.4633276E-1,-1.1101712E-1,1.0093901E-1,-6.874602E-2,-1.4903174E-1,5.5243608E-2,-6.0453523E-2,1.5731233E-1,-1.8776527E-2,-1.3485156E-1,6.8694256E-2,8.692684E-2,1.5510139E-1,4.718034E-2,-1.1892235E-1,1.2157364E-1,5.0618686E-2,-1.1729898E-1,6.569605E-2,1.522476E-1,9.979204E-3,-7.9922825E-2,-4.3129753E-3,1.7115785E-1,7.744051E-2,1.6296564E-1,-2.0457793E-3,-1.4943092E-1,-2.3512123E-2,1.8735033E-2,1.0262375E-1],"split_indices":[4,6,6,0,0,4,0,0,3,0,0,4,4,4,0,0,0,5,3,0,0,0,3,4,0,0,0,4,4,4,0,3,0,5,0,3,3,3,0,10,0,3,10,0,0,5,0,0,0,0,0,4,0,4,0,0,0,4,10,0,4,5,0,0,0,5,5,3,3,3,3,0,0,3,0,5,5,10,3,3,3,3,7,0,3,0,3,0,0,0,0,0,0,3,0,0,0,3,3,0,0,3,0,0,0,4,3,0,0,0,0,0,0,0,0,0,0,0,0,0,0,0,0,0,0,0,0,0,0,0,0,0,0,0,0,0,0,0,0,0,0,0,0,0,0,0,0,0,0,0,0,0,0,0,0,0,0,0,0,0,0,0,0,0,0,0,0,0,0,0,0,0,0,0,0,0,0,0,0,0,0,0,0],"split_type":[0,0,0,0,0,0,0,0,0,0,0,0,0,0,0,0,0,0,0,0,0,0,0,0,0,0,0,0,0,0,0,0,0,0,0,0,0,0,0,0,0,0,0,0,0,0,0,0,0,0,0,0,0,0,0,0,0,0,0,0,0,0,0,0,0,0,0,0,0,0,0,0,0,0,0,0,0,0,0,0,0,0,0,0,0,0,0,0,0,0,0,0,0,0,0,0,0,0,0,0,0,0,0,0,0,0,0,0,0,0,0,0,0,0,0,0,0,0,0,0,0,0,0,0,0,0,0,0,0,0,0,0,0,0,0,0,0,0,0,0,0,0,0,0,0,0,0,0,0,0,0,0,0,0,0,0,0,0,0,0,0,0,0,0,0,0,0,0,0,0,0,0,0,0,0,0,0,0,0,0,0,0,0],"sum_hessian":[7.906367E3,3.7215537E3,4.1848135E3,1.1309221E3,2.5906316E3,5.120763E2,3.672737E3,1.0897222E3,4.1199883E1,9.5022156E2,1.6404099E3,1.9481929E2,3.1725702E2,1.1509679E3,2.5217693E3,7.7278876E2,3.1693347E2,3.301316E1,8.186721E0,6.2716144E2,3.2306015E2,9.600566E2,6.8035333E2,4.0483074E1,1.5433621E2,2.651845E2,5.2072525E1,4.833872E2,6.675807E2,3.4837943E2,2.17339E3,7.4983025E1,6.978057E2,1.0403621E2,2.1289726E2,2.6062689E1,6.9504733E0,6.4501166E0,1.7366046E0,1.8625607E2,4.4090536E2,2.4470863E2,7.835151E1,6.989223E1,8.9016437E2,3.8323187E2,2.971215E2,2.5571075E1,1.4911998E1,9.331177E1,6.102445E1,9.8004326E1,1.6718018E2,3.065007E2,1.7688652E2,6.6109314E2,6.4875517E0,8.283584E1,2.6554358E2,1.5767341E3,5.966557E2,2.9063646E1,4.5919376E1,1.5508394E2,5.4272174E2,9.2854416E1,1.1181794E1,1.8621298E1,7.4413896E0,4.468641E0,2.4818323E0,1.2416385E0,5.208478E0,1.8325941E2,2.9966536E0,1.3447539E2,3.0642996E2,1.8633527E2,5.8373363E1,7.236266E1,5.9888463E0,2.9289954E2,5.9726483E2,3.6080093E2,2.2430954E1,2.4749544E2,4.9626034E1,1.6887846E1,8.68323E0,9.058195E1,2.729818E0,1.4932376E1,8.307195E1,8.3636986E1,8.354319E1,1.8703633E2,1.1946437E2,6.054826E1,6.005449E2,2.7456083E0,3.7419436E0,1.7407202E1,6.5428635E1,2.2611662E2,3.942696E1,1.355199E3,2.2153523E2,1.519598E2,4.446959E2,2.5572113E1,3.491532E0,1.09898E2,4.518594E1,8.365869E1,9.1957245E0,8.943925E0,2.23787E0,6.2100744E0,1.2411224E1,3.9670188E0,3.474371E0,2.483451E0,1.9851899E0,1.2409155E0,1.2409167E0,1.7029437E2,1.2965053E1,1.1653923E2,1.7936148E1,2.4492407E2,6.1505898E1,1.8158812E2,4.7471533E0,5.438025E1,3.9931152E0,2.988631E0,6.937403E1,2.496887E0,3.4919593E0,2.6070682E2,3.219273E1,2.4707453E1,5.725574E2,1.25381584E2,2.3541934E2,1.8188025E1,4.2429314E0,7.7817696E1,1.6967775E2,1.2216591E1,3.7409443E1,1.0175759E1,6.712086E0,5.4519405E0,3.2312896E0,9.686934E0,8.089501E1,9.220227E0,7.385172E1,8.23948E1,1.2421876E0,6.2097807E0,7.733341E1,1.0033038E2,1.9133982E1,5.9049652E1,1.4986066E0,5.4421906E2,5.632583E1,1.497372E0,1.2482364E0,1.3671541E1,3.73566E0,1.16706726E2,1.094099E2,1.0325483E2,1.2519441E3,2.2004218E2,1.4930514E0,7.2628334E1,7.933145E1,1.3658511E2,3.0811078E2],"tree_param":{"num_deleted":"0","num_feature":"14","num_nodes":"183","size_leaf_vector":"0"}},{"base_weights":[-7.2281635E-3,-7.6277906E-1,7.891129E-1,-1.241105E0,-2.1566077E-1,3.729505E-2,1.0078092E0,-1.570164E0,-1.0339978E0,-1.3206683E0,-2.3656199E-2,1.7632637E0,-2.4886267E-1,1.7558861E0,9.2585456E-1,-1.0544856E0,1.6417311E0,-1.3351226E0,1.0427109E0,-5.7929385E-2,1.7433543E0,-7.836905E-1,4.9210206E-1,3.606975E-1,1.1706698E0,-9.6126765E-1,-1.3697804E0,-1.3653374E0,-1.145711E0,5.2027944E-2,-3.745791E-1,-1.3912537E0,-4.6108967E-1,1.754086E0,2.382009E-2,-7.456853E-1,4.776994E-1,1.7455568E0,1.0587119E0,-9.4776595E-1,-1.3170184E0,-8.0463016E-1,-1.4072076E0,-9.5723915E-1,-1.545504E0,1.2194829E0,1.1509899E-2,-3.9050314E-1,7.500596E-1,-1.1951028E0,-1.5160574E0,-9.7973466E-1,-3.3054E-2,1.6713719E0,-1.0691511E-1,-7.892728E-1,1.0624923E0,4.0951815E-1,1.7121884E0,5.803768E-1,1.1226983E0,-6.8729013E-1,-9.53234E-1,-1.4119054E0,-2.073138E-1,3.883693E-2,-4.9448353E-1,-3.6599246E-1,-7.8934085E-1,-1.3733976E0,1.4219182E0,-8.0360717E-1,-1.5549822E0,1.7222354E0,-6.2259936E-1,-6.9944566E-1,7.424712E-2,-6.002968E-1,-9.682589E-1,6.918339E-1,2.513922E-3,8.758414E-2,9.742001E-1,1.1922148E0,5.8180815E-1],"categories":[],"categories_nodes":[],"categories_segments":[],"categories_sizes":[],"default_left":[1,1,1,1,1,1,1,0,1,1,1,0,1,0,1,1,0,1,0,1,0,1,1,1,1,1,1,0,1,1,1,1,1,0,1,1,1,0,1,1,0,0,1,0,0,0,1,1,0,1,0,1,1,0,1,1,0,1,0,1,1,0,0,0,0,0,0,0,0,0,0,0,0,0,0,0,0,0,0,0,0,0,0,0,0],"id":2,"left_children":[1,3,5,7,9,11,13,-1,15,17,19,-1,21,-1,23,25,-1,27,-1,29,-1,31,33,35,37,39,41,-1,43,45,47,49,51,-1,53,55,57,-1,59,61,-1,-1,63,-1,-1,-1,65,67,-1,69,-1,71,73,-1,75,77,-1,79,-1,81,83,-1,-1,-1,-1,-1,-1,-1,-1,-1,-1,-1,-1,-1,-1,-1,-1,-1,-1,-1,-1,-1,-1,-1,-1],"loss_changes":[4.6910244E3,1.0467332E3,6.2407324E2,1.4383423E2,3.9616666E2,4.2341147E2,1.786477E2,0E0,7.370117E1,1.0835022E1,9.651232E1,0E0,2.9184695E2,0E0,3.6653735E2,3.6993896E1,0E0,1.0559082E-2,0E0,5.4427616E1,0E0,8.315692E1,1.8252802E2,1.04314644E2,1.1723291E2,3.6001587E0,5.109375E0,0E0,1.8415756E0,5.4893112E1,7.5082016E0,1.8059692E0,6.2295258E1,0E0,4.8930405E1,6.922703E0,6.0480362E1,0E0,4.682312E1,7.350464E-1,0E0,0E0,1.2598267E0,0E0,0E0,0E0,1.5544903E1,3.6011314E0,0E0,3.0970787E1,0E0,1.1608299E1,1.6131396E2,0E0,2.2662739E1,1.9877777E0,0E0,7.9299995E1,0E0,3.5833588E1,5.0707764E1,0E0,0E0,0E0,0E0,0E0,0E0,0E0,0E0,0E0,0E0,0E0,0E0,0E0,0E0,0E0,0E0,0E0,0E0,0E0,0E0,0E0,0E0,0E0,0E0],"parents":[2147483647,0,0,1,1,2,2,3,3,4,4,5,5,6,6,8,8,9,9,10,10,12,12,14,14,15,15,17,17,19,19,21,21,22,22,23,23,24,24,25,25,26,26,28,28,29,29,30,30,31,31,32,32,34,34,35,35,36,36,38,38,39,39,42,42,46,46,47,47,49,49,51,51,52,52,54,54,55,55,57,57,59,59,60,60],"right_children":[2,4,6,8,10,12,14,-1,16,18,20,-1,22,-1,24,26,-1,28,-1,30,-1,32,34,36,38,40,42,-1,44,46,48,50,52,-1,54,56,58,-1,60,62,-1,-1,64,-1,-1,-1,66,68,-1,70,-1,72,74,-1,76,78,-1,80,-1,82,84,-1,-1,-1,-1,-1,-1,-1,-1,-1,-1,-1,-1,-1,-1,-1,-1,-1,-1,-1,-1,-1,-1,-1,-1],"split_conditions":[-5.868801E-1,-2.1929589E-1,-2.1929589E-1,-6.534897E-1,-6.534897E-1,-1.739751E-1,-1.739751E-1,-1.570164E-1,-5.970365E-1,-5.970365E-1,-5.970365E-1,1.7632638E-1,1.01294875E-1,1.7558861E-1,1.01294875E-1,7.648516E-1,1.6417311E-1,3.0387533E-1,1.0427109E-1,7.648516E-1,1.7433544E-1,-5.7081234E-1,1.0659425E0,-6.534897E-1,1.0659425E0,1.824658E0,-5.7081234E-1,-1.3653374E-1,1.824658E0,-5.7081234E-1,3.3454409E0,1.9069043E-1,-5.0951123E-1,1.754086E-1,5.1419985E-1,2.7821565E-1,2.7821565E-1,1.7455569E-1,-6.534897E-1,-5.7081234E-1,-1.3170184E-1,-8.0463015E-2,4.8662233E0,-9.572392E-2,-1.545504E-1,1.21948294E-1,1.824658E0,1.824658E0,7.500596E-2,-5.0951123E-1,-1.5160574E-1,7.648516E-1,1.9069043E-1,1.6713719E-1,-6.534897E-1,1.9069043E-1,1.0624923E-1,1.9069043E-1,1.7121884E-1,1.240993E0,2.8164468E0,-6.872901E-2,-9.5323406E-2,-1.4119054E-1,-2.073138E-2,3.8836931E-3,-4.9448352E-2,-3.6599245E-2,-7.893409E-2,-1.3733976E-1,1.4219181E-1,-8.036072E-2,-1.5549822E-1,1.7222355E-1,-6.225994E-2,-6.994457E-2,7.424712E-3,-6.002968E-2,-9.682589E-2,6.9183394E-2,2.5139222E-4,8.758414E-3,9.7420014E-2,1.19221486E-1,5.8180816E-2],"split_indices":[2,1,1,6,6,2,2,0,13,13,13,0,2,0,2,9,0,5,0,9,0,7,13,6,13,5,7,0,5,7,5,13,13,0,2,13,13,0,6,7,0,0,5,0,0,0,5,5,0,13,0,9,13,0,6,13,0,13,0,13,13,0,0,0,0,0,0,0,0,0,0,0,0,0,0,0,0,0,0,0,0,0,0,0,0],"split_type":[0,0,0,0,0,0,0,0,0,0,0,0,0,0,0,0,0,0,0,0,0,0,0,0,0,0,0,0,0,0,0,0,0,0,0,0,0,0,0,0,0,0,0,0,0,0,0,0,0,0,0,0,0,0,0,0,0,0,0,0,0,0,0,0,0,0,0,0,0,0,0,0,0,0,0,0,0,0,0,0,0,0,0,0,0],"sum_hessian":[7.7945913E3,3.9997546E3,3.794837E3,2.1333633E3,1.8663915E3,8.5539465E2,2.9394421E3,8.215211E2,1.3118422E3,2.7542303E2,1.5909684E3,1.2091719E2,7.344775E2,2.882143E2,2.651228E3,1.3024751E3,9.367043E0,2.7418124E2,1.2417839E0,1.5616458E3,2.9322685E1,4.2654205E2,3.0793542E2,8.020847E2,1.8491432E3,1.00839E3,2.940851E2,2.3110683E2,4.307441E1,1.1597542E3,4.0189157E2,1.4678503E2,2.7975702E2,8.2597015E1,2.253384E2,7.6195786E1,7.258889E2,2.9903778E2,1.5501055E3,9.7504846E2,3.3341515E1,1.9663616E1,2.7442148E2,3.1580807E1,1.1493603E1,3.7924694E1,1.1218295E3,3.969242E2,4.967371E0,6.119E1,8.559503E1,1.2590759E2,1.5384943E2,1.5699953E1,2.0963844E2,7.495249E1,1.2432871E0,6.891582E2,3.673072E1,1.8407909E2,1.3660264E3,2.2652803E1,9.523957E2,2.7317526E2,1.2462084E0,1.0652235E3,5.6605953E1,3.7575003E2,2.1174156E1,5.7731987E1,3.4580119E0,9.8229095E1,2.7678497E1,3.8198223E1,1.156512E2,4.8417515E1,1.6122093E2,3.8576637E1,3.637586E1,4.0649548E2,2.8266272E2,8.230851E1,1.0177057E2,1.2093884E3,1.5663792E2],"tree_param":{"num_deleted":"0","num_feature":"14","num_nodes":"85","size_leaf_vector":"0"}},{"base_weights":[9.082899E-4,-5.672168E-1,8.474915E-1,-1.0635506E0,-6.906887E-2,1.6599994E0,7.0868045E-1,-1.4269217E0,-8.560702E-1,-1.1808593E0,1.0290119E-1,-3.6362132E-1,9.7116274E-1,-1.5773096E0,-1.3902487E0,-1.3706365E0,-7.8888696E-1,-1.4598645E0,-1.1161844E0,2.0992543E-1,-1.5581189E-1,-1.2105013E0,-8.858412E-2,1.6366768E0,8.4579813E-1,-1.4081646E0,-1.1140592E0,-1.3902241E0,-8.5929334E-1,-7.0845973E-1,-8.8102746E-1,-1.1674999E0,-6.5755814E-1,3.9640948E-1,5.5384394E-2,-8.521136E-2,-5.131015E-1,-1.4768027E0,-7.2233015E-1,-6.033854E-1,1.14968434E-1,3.619607E-2,9.6492076E-1,-7.879679E-1,-1.2450398E0,2.7932644E-2,-1.3586895E0,-2.4071917E-1,-7.265884E-1,-9.1366214E-1,-5.981386E-1,-1.2093362E0,-9.237055E-1,-9.5344007E-1,-3.4468347E-1,4.3061736E-1,-3.6338425E-1,-1.9305663E-2,4.0375894E-1,-4.2574903E-1,-4.421798E-2,5.438473E-1,-5.7004577E-1,-1.5301019E0,-1.1123748E-1,-5.08737E-1,-1.012307E0,-1.0378461E0,-4.2306438E-1,1.7852433E-1,-9.496044E-1,-5.5743134E-1,2.0957434E-1,5.31668E-1,1.0240265E0,-3.8168818E-1,-8.3904225E-1,3.2963622E-1,-2.0923448E-1,6.689723E-2,-6.7328167E-1,-7.6440376E-1,-5.6421345E-1,-8.97992E-1,-1.1190187E0,-4.5902836E-1,-1.2187151E0,-7.039189E-1,-1.314813E0,-1.2414749E0,-5.0306547E-1,6.0799733E-2,-1.088109E0,4.2794687E-3,4.809061E-1,-6.102796E-1,4.799631E-1,6.3301567E-3,-3.5220692E-1,-7.1866095E-2,4.882987E-1,-3.5717282E-1,-8.2441634E-1,-1.4389135E-2,-5.1258343E-1,8.597928E-1,-9.122613E-3,-6.6543585E-1,-2.1681885E-1,3.8026115E-1,-6.0773224E-1,-6.7062736E-1,-1.6554105E-1,-2.2532433E-1,-1.249785E0,-1.5308398E0,-9.090724E-1,-3.079926E-1,-1.1161871E0,1.2341864E-2,4.33766E-1,-4.5528635E-1,-1.3721379E0,-1.0660322E0,-3.537661E-1,-1.9445863E-2,5.529314E-1,1.2751491E-1,8.6921483E-1,1.0841637E0,5.667718E-1],"categories":[],"categories_nodes":[],"categories_segments":[],"categories_sizes":[],"default_left":[1,1,1,1,1,0,1,1,1,1,1,1,1,0,1,1,1,0,1,1,1,1,1,0,1,0,1,0,1,1,1,1,1,1,1,1,1,1,1,1,1,1,1,1,0,1,0,1,1,1,1,0,1,1,1,1,1,1,1,1,1,1,1,0,1,1,1,1,1,1,1,1,1,1,1,0,0,0,0,0,0,0,0,0,0,0,0,0,0,0,0,0,0,0,0,0,0,0,0,0,0,0,0,0,0,0,0,0,0,0,0,0,0,0,0,0,0,0,0,0,0,0,0,0,0,0,0,0,0,0,0],"id":3,"left_children":[1,3,5,7,9,-1,11,13,15,17,19,21,23,-1,25,27,29,-1,31,33,35,37,39,-1,41,-1,43,-1,45,47,49,51,53,55,57,59,61,63,65,67,69,71,73,75,-1,77,-1,79,81,83,85,-1,87,89,91,93,95,97,99,101,103,105,107,-1,109,111,113,115,117,119,121,123,125,127,129,-1,-1,-1,-1,-1,-1,-1,-1,-1,-1,-1,-1,-1,-1,-1,-1,-1,-1,-1,-1,-1,-1,-1,-1,-1,-1,-1,-1,-1,-1,-1,-1,-1,-1,-1,-1,-1,-1,-1,-1,-1,-1,-1,-1,-1,-1,-1,-1,-1,-1,-1,-1,-1,-1,-1,-1],"loss_changes":[3.7233218E3,1.1453125E3,3.4945093E2,1.7372095E2,4.4237714E2,0E0,7.481743E2,2.4504395E0,5.006726E1,3.9633179E0,5.5525482E1,1.21760124E2,1.7671985E2,0E0,1.8220215E0,5.031738E-1,9.091492E0,0E0,5.2539062E0,4.0847706E1,1.4764465E1,1.5597382E1,4.1568222E1,0E0,1.734076E2,0E0,1.0064087E0,0E0,3.9690185E0,5.804199E0,5.056549E0,1.2168579E0,2.2668629E0,1.6855286E1,2.0216133E1,6.8408194E0,6.1278267E0,5.7967834E0,2.408556E0,8.364796E0,1.9428621E1,2.3965101E1,3.960083E1,1.2965202E-2,0E0,3.677244E-1,0E0,3.744837E0,3.7337036E0,7.4005127E-1,5.1097317E0,0E0,2.3194695E0,1.171299E0,4.646157E0,1.3189156E1,6.1693554E0,5.468251E0,5.5501194E0,1.1457872E0,6.135659E0,9.605799E-1,2.9626293E0,0E0,1.2457731E0,1.5108504E0,3.2713528E0,6.5719604E-1,6.124976E0,1.1423877E1,2.7577572E0,5.076662E0,1.4169996E1,2.5846802E1,3.728943E1,0E0,0E0,0E0,0E0,0E0,0E0,0E0,0E0,0E0,0E0,0E0,0E0,0E0,0E0,0E0,0E0,0E0,0E0,0E0,0E0,0E0,0E0,0E0,0E0,0E0,0E0,0E0,0E0,0E0,0E0,0E0,0E0,0E0,0E0,0E0,0E0,0E0,0E0,0E0,0E0,0E0,0E0,0E0,0E0,0E0,0E0,0E0,0E0,0E0,0E0,0E0,0E0,0E0,0E0,0E0,0E0],"parents":[2147483647,0,0,1,1,2,2,3,3,4,4,6,6,7,7,8,8,9,9,10,10,11,11,12,12,14,14,15,15,16,16,18,18,19,19,20,20,21,21,22,22,24,24,26,26,28,28,29,29,30,30,31,31,32,32,33,33,34,34,35,35,36,36,37,37,38,38,39,39,40,40,41,41,42,42,43,43,45,45,47,47,48,48,49,49,50,50,52,52,53,53,54,54,55,55,56,56,57,57,58,58,59,59,60,60,61,61,62,62,64,64,65,65,66,66,67,67,68,68,69,69,70,70,71,71,72,72,73,73,74,74],"right_children":[2,4,6,8,10,-1,12,14,16,18,20,22,24,-1,26,28,30,-1,32,34,36,38,40,-1,42,-1,44,-1,46,48,50,52,54,56,58,60,62,64,66,68,70,72,74,76,-1,78,-1,80,82,84,86,-1,88,90,92,94,96,98,100,102,104,106,108,-1,110,112,114,116,118,120,122,124,126,128,130,-1,-1,-1,-1,-1,-1,-1,-1,-1,-1,-1,-1,-1,-1,-1,-1,-1,-1,-1,-1,-1,-1,-1,-1,-1,-1,-1,-1,-1,-1,-1,-1,-1,-1,-1,-1,-1,-1,-1,-1,-1,-1,-1,-1,-1,-1,-1,-1,-1,-1,-1,-1,-1,-1,-1,-1],"split_conditions":[-5.0951123E-1,-2.1929589E-1,1.9069043E-1,-6.534897E-1,-6.534897E-1,1.6599993E-1,2.7821565E-1,-1.1520877E0,-9.978145E-1,-1.0749512E0,6.2205446E-1,-5.7081234E-1,1.0659425E0,-1.5773097E-1,-5.970365E-1,1.824658E0,3.1350803E-1,-1.4598645E-1,-5.970365E-1,2.0696208E-1,1.8562403E0,-2.1929589E-1,-2.1929589E-1,1.6366768E-1,-2.1929589E-1,-1.4081647E-1,-3.8072154E-1,-1.3902241E-1,-1.4606342E0,-5.7081234E-1,-5.970365E-1,3.0387533E-1,2.363714E-1,1.824658E0,-5.970365E-1,6.991911E-1,-5.7081234E-1,1.2391474E0,2.0696208E-1,-8.4354126E-1,1.7791038E0,-6.534897E-1,-6.534897E-1,-9.978145E-1,-1.24503985E-1,-1.692044E0,-1.3586895E-1,-3.0358493E-1,8.209817E-2,2.1647868E0,3.0387533E-1,-1.20933615E-1,1.824658E0,2.0696208E-1,1.0848742E0,-1.2292243E0,3.3454409E0,1.824658E0,-1.0749512E0,-5.970365E-1,1.824658E0,2.0105135E0,3.0387533E-1,-1.5301019E-1,1.9333769E0,3.0387533E-1,-1.1520877E0,-2.0391588E0,1.3934207E0,3.0387533E-1,2.0696208E-1,-7.664046E-1,3.0387533E-1,1.3285182E0,2.8164468E0,-3.8168818E-2,-8.390423E-2,3.2963622E-2,-2.0923449E-2,6.689723E-3,-6.732817E-2,-7.644038E-2,-5.6421347E-2,-8.97992E-2,-1.1190187E-1,-4.5902837E-2,-1.2187151E-1,-7.0391886E-2,-1.314813E-1,-1.2414749E-1,-5.0306547E-2,6.079973E-3,-1.088109E-1,4.2794688E-4,4.809061E-2,-6.1027963E-2,4.799631E-2,6.330157E-4,-3.5220694E-2,-7.18661E-3,4.8829872E-2,-3.5717282E-2,-8.2441635E-2,-1.4389135E-3,-5.1258344E-2,8.597928E-2,-9.122613E-4,-6.654359E-2,-2.1681886E-2,3.8026117E-2,-6.0773224E-2,-6.7062736E-2,-1.6554106E-2,-2.2532433E-2,-1.249785E-1,-1.5308398E-1,-9.090724E-2,-3.079926E-2,-1.1161871E-1,1.2341865E-3,4.3376602E-2,-4.5528635E-2,-1.372138E-1,-1.0660322E-1,-3.5376612E-2,-1.9445863E-3,5.5293143E-2,1.2751492E-2,8.692148E-2,1.0841637E-1,5.667718E-2],"split_indices":[13,1,13,6,6,0,13,3,3,3,3,7,13,0,13,5,3,0,13,11,3,1,1,0,1,0,3,0,3,7,13,5,3,5,13,3,7,3,11,3,3,6,6,3,0,3,0,3,3,3,5,0,5,11,3,3,5,5,3,13,5,3,5,0,3,5,3,3,3,5,11,3,5,13,13,0,0,0,0,0,0,0,0,0,0,0,0,0,0,0,0,0,0,0,0,0,0,0,0,0,0,0,0,0,0,0,0,0,0,0,0,0,0,0,0,0,0,0,0,0,0,0,0,0,0,0,0,0,0,0,0],"split_type":[0,0,0,0,0,0,0,0,0,0,0,0,0,0,0,0,0,0,0,0,0,0,0,0,0,0,0,0,0,0,0,0,0,0,0,0,0,0,0,0,0,0,0,0,0,0,0,0,0,0,0,0,0,0,0,0,0,0,0,0,0,0,0,0,0,0,0,0,0,0,0,0,0,0,0,0,0,0,0,0,0,0,0,0,0,0,0,0,0,0,0,0,0,0,0,0,0,0,0,0,0,0,0,0,0,0,0,0,0,0,0,0,0,0,0,0,0,0,0,0,0,0,0,0,0,0,0,0,0,0,0],"sum_hessian":[7.739354E3,4.631546E3,3.107808E3,2.319429E3,2.312117E3,4.518748E2,2.6559333E3,8.4087823E2,1.4785508E3,3.0894083E2,2.0031761E3,5.222076E2,2.1337258E3,1.5661728E2,6.842609E2,1.6850967E2,1.3100411E3,5.407805E1,2.5486276E2,1.4171282E3,5.860479E2,1.27185005E2,3.9502258E2,3.3631244E2,1.7974133E3,6.38729E2,4.5531914E1,1.6063748E2,7.8721914E0,7.0412036E2,6.059207E2,2.2782574E2,2.703702E1,6.414853E2,7.756429E2,4.9038602E2,9.566191E1,8.098296E1,4.620204E1,1.113769E2,2.836457E2,2.3071194E2,1.5667014E3,1.5058348E1,3.0473564E1,3.1752026E0,4.696989E0,2.6804785E1,6.7731555E2,5.4125116E2,6.466956E1,1.9107578E2,3.6749966E1,1.2843612E1,1.4193408E1,6.142628E2,2.7222475E1,6.394846E2,1.3615826E2,5.1680786E1,4.3870523E2,4.453293E0,9.120862E1,7.7824905E1,3.1580572E0,2.8191193E1,1.801085E1,3.1273E1,8.01039E1,2.6845123E2,1.5194461E1,5.1650707E1,1.7906123E2,1.892765E2,1.3774249E3,2.6278484E0,1.24305E1,1.2258685E0,1.9493343E0,1.615881E1,1.0645975E1,5.463654E2,1.3095018E2,5.0787003E2,3.338115E1,5.4248703E1,1.0420862E1,2.5320614E1,1.1429353E1,6.7622876E0,6.0813246E0,9.778294E0,4.415114E0,6.492515E1,5.493377E2,2.1271473E1,5.951001E0,5.946716E2,4.4813057E1,2.0571556E1,1.15586716E2,4.571338E1,5.967407E0,4.1340726E2,2.5297993E1,2.4809248E0,1.9723679E0,7.1118866E1,2.0089752E1,1.7046596E0,1.4533975E0,1.8507078E1,9.684113E0,4.6268067E0,1.3384044E1,4.221951E0,2.705105E1,6.993731E1,1.0166591E1,1.6322635E2,1.0522487E2,7.959837E0,7.2346244E0,1.3558255E1,3.809245E1,1.0798097E2,7.108027E1,8.676656E1,1.0250993E2,1.2161133E3,1.613116E2],"tree_param":{"num_deleted":"0","num_feature":"14","num_nodes":"131","size_leaf_vector":"0"}},{"base_weights":[-4.1404353E-3,-6.5895414E-1,6.920753E-1,-9.6518856E-1,-8.78107E-2,4.3090045E-2,9.406508E-1,-9.7890335E-1,1.6121323E0,1.3475648E0,-2.3326252E-1,1.6504678E0,-1.3754947E-1,9.6455693E-1,-1.3759749E0,-1.0315458E0,-8.608796E-1,9.7830296E-1,1.9075654E0,-8.6066E-1,-8.779393E-3,-6.100126E-1,3.4433585E-1,1.5655884E0,8.907653E-1,-1.4745868E0,-4.914394E-2,-1.0170598E0,-1.3551394E0,-8.449677E-1,-1.0760994E0,7.484952E-1,1.4223815E0,-8.783547E-1,1.2065269E0,1.8702024E0,-2.9310513E-1,-6.42114E-1,1.4138212E0,1.5876728E0,7.344822E-2,4.316699E-1,1.0934937E0,-1.042149E0,-8.6496645E-1,-2.3211382E-1,-8.479209E-1,-1.1218323E0,-6.607332E-1,6.9039965E-1,1.1341102E0,-1.0040615E0,-6.145107E-1,-3.343524E-1,1.5536999E0,-4.247273E-1,-1.0191466E0,1.5592034E0,1.0980718E-2,6.999438E-1,1.4563003E-1,1.4540285E0,9.740654E-1,-9.0311724E-1,1.9337998E-1,-2.7290028E-1,-8.480924E-1,-1.0585253E0,-4.8098868E-1,-5.6618756E-1,-9.729327E-1,-2.7539662E-1,-1.4467974E0,-7.8080845E-1,1.6093799E0,-1.0904725E0,-8.560578E-1,-4.1006353E-2,1.1587481E0,2.9841107E-1,1.562616E0,4.528007E-2,1.4982325E0,1.4618258E0,-2.4446233E-1,1.0545481E0,4.674019E-1],"categories":[],"categories_nodes":[],"categories_segments":[],"categories_sizes":[],"default_left":[1,1,1,1,1,1,1,1,0,1,1,0,1,1,1,1,1,1,0,1,1,1,1,0,1,0,0,1,0,1,1,1,0,1,0,0,1,1,0,0,1,1,1,0,1,0,0,0,1,0,0,1,1,1,0,1,1,0,1,1,1,1,1,0,0,0,0,0,0,0,0,0,0,0,0,0,0,0,0,0,0,0,0,0,0,0,0],"id":4,"left_children":[1,3,5,7,9,11,13,15,-1,17,19,-1,21,23,25,27,29,31,-1,33,35,37,39,-1,41,-1,-1,43,-1,45,47,49,-1,51,-1,-1,53,55,-1,-1,57,59,61,-1,63,-1,-1,-1,65,-1,-1,67,69,71,-1,73,75,-1,77,79,81,83,85,-1,-1,-1,-1,-1,-1,-1,-1,-1,-1,-1,-1,-1,-1,-1,-1,-1,-1,-1,-1,-1,-1,-1,-1],"loss_changes":[3.4632014E3,6.846051E2,5.9392676E2,9.1650635E1,2.858079E2,2.966014E2,1.4876123E2,1.4864258E1,0E0,2.4182053E1,1.7498407E2,0E0,2.0933432E2,1.1549487E2,3.539177E0,6.8168945E0,1.7895508E0,6.8917694E0,0E0,1.3035553E1,4.8995813E2,3.1063293E1,1.532539E2,0E0,2.182157E2,0E0,0E0,5.4993896E0,0E0,1.1398315E0,2.1992493E-1,4.1526413E-1,0E0,1.0168991E1,0E0,0E0,6.1196793E1,3.707289E1,0E0,0E0,3.478293E1,5.5256042E1,6.873694E1,0E0,1.0002228E1,0E0,0E0,0E0,3.1000495E-1,0E0,0E0,5.720825E0,1.3113823E0,5.0755646E1,0E0,2.1272845E2,1.0048676E0,0E0,2.1578077E1,1.2839012E2,4.749339E1,5.699707E0,4.9536865E1,0E0,0E0,0E0,0E0,0E0,0E0,0E0,0E0,0E0,0E0,0E0,0E0,0E0,0E0,0E0,0E0,0E0,0E0,0E0,0E0,0E0,0E0,0E0,0E0],"parents":[2147483647,0,0,1,1,2,2,3,3,4,4,5,5,6,6,7,7,9,9,10,10,12,12,13,13,14,14,15,15,16,16,17,17,19,19,20,20,21,21,22,22,24,24,27,27,29,29,30,30,31,31,33,33,36,36,37,37,40,40,41,41,42,42,44,44,48,48,51,51,52,52,53,53,55,55,56,56,58,58,59,59,60,60,61,61,62,62],"right_children":[2,4,6,8,10,12,14,16,-1,18,20,-1,22,24,26,28,30,32,-1,34,36,38,40,-1,42,-1,-1,44,-1,46,48,50,-1,52,-1,-1,54,56,-1,-1,58,60,62,-1,64,-1,-1,-1,66,-1,-1,68,70,72,-1,74,76,-1,78,80,82,84,86,-1,-1,-1,-1,-1,-1,-1,-1,-1,-1,-1,-1,-1,-1,-1,-1,-1,-1,-1,-1,-1,-1,-1,-1],"split_conditions":[-5.868801E-1,-3.1540138E-1,-3.1540138E-1,-5.970365E-1,-8.4565185E-2,-1.739751E-1,1.0187646E1,2.0407987E-1,1.6121323E-1,-1.9998328E-1,3.0852916E-2,1.6504678E-1,1.01294875E-1,-1.739751E-1,7.648516E-1,8.879689E-1,8.879689E-1,2.0407987E-1,1.9075654E-1,-5.970365E-1,2.6168913E-1,2.7821565E-1,1.0659425E0,1.5655884E-1,1.01294875E-1,-1.4745869E-1,-4.914394E-3,7.648516E-1,-1.3551395E-1,-4.308195E-1,3.0387533E-1,3.0387533E-1,1.4223816E-1,2.0407987E-1,1.2065269E-1,1.8702024E-1,-5.970365E-1,1.9069043E-1,1.4138213E-1,1.5876728E-1,5.1419985E-1,-3.634011E-2,2.6168913E-1,-1.042149E-1,1.824658E0,-2.3211382E-2,-8.479209E-2,-1.1218323E-1,1.824658E0,6.903996E-2,1.13411024E-1,8.879689E-1,1.824658E0,8.283247E0,1.5536998E-1,-5.0951123E-1,2.0407987E-1,1.5592034E-1,3.3454409E0,-5.0951123E-1,2.7821565E-1,3.3766932E0,1.824658E0,-9.031173E-2,1.9337999E-2,-2.729003E-2,-8.4809236E-2,-1.0585254E-1,-4.809887E-2,-5.6618758E-2,-9.729327E-2,-2.7539661E-2,-1.4467974E-1,-7.808085E-2,1.60938E-1,-1.0904725E-1,-8.5605785E-2,-4.100635E-3,1.1587482E-1,2.9841108E-2,1.5626161E-1,4.528007E-3,1.4982325E-1,1.4618258E-1,-2.4446232E-2,1.0545482E-1,4.674019E-2],"split_indices":[2,4,4,13,4,2,4,12,0,4,4,0,2,2,9,10,10,12,0,13,4,13,13,0,2,0,0,9,0,4,5,5,0,12,0,0,13,13,0,0,2,2,4,0,5,0,0,0,5,0,0,10,5,4,0,13,12,0,5,13,13,10,5,0,0,0,0,0,0,0,0,0,0,0,0,0,0,0,0,0,0,0,0,0,0,0,0],"split_type":[0,0,0,0,0,0,0,0,0,0,0,0,0,0,0,0,0,0,0,0,0,0,0,0,0,0,0,0,0,0,0,0,0,0,0,0,0,0,0,0,0,0,0,0,0,0,0,0,0,0,0,0,0,0,0,0,0,0,0,0,0,0,0,0,0,0,0,0,0,0,0,0,0,0,0,0,0,0,0,0,0,0,0,0,0,0,0],"sum_hessian":[7.5945444E3,3.9136665E3,3.680878E3,2.547216E3,1.3664506E3,1.0197278E3,2.6611501E3,2.53435E3,1.2865916E1,1.2496659E2,1.241484E3,1.02198845E2,9.1752893E2,2.6345469E3,2.6603216E1,1.7472703E3,7.8707983E2,7.69639E1,4.8002693E1,3.2640256E2,9.150814E2,4.6315955E2,4.5436935E2,2.858758E2,2.3486711E3,2.4659155E1,1.9440625E0,1.6763691E3,7.090112E1,7.374815E2,4.9598293E1,5.2487476E1,2.4476423E1,3.2420258E2,2.2000086E0,1.1953701E2,7.955444E2,4.5659985E2,6.559716E0,8.0414925E1,3.7395444E2,7.203982E2,1.628273E3,1.4339717E3,2.423974E2,3.9183865E0,7.335631E2,4.314689E1,6.4514055E0,4.8040264E1,4.447212E0,2.1768324E2,1.06519325E2,7.7896564E2,1.6578773E1,2.909643E2,1.6563556E2,1.4121524E1,3.5983292E2,3.7099692E2,3.4940128E2,4.023793E2,1.2258937E3,2.3410516E2,8.292248E0,2.901621E0,3.5497842E0,1.9622777E2,2.1455473E1,9.613753E1,1.0381792E1,7.409456E2,3.8020027E1,2.4814189E2,4.28224E1,1.11281044E2,5.435451E1,3.4516333E2,1.4669583E1,2.5408047E2,1.1691642E2,3.2623154E2,2.3169735E1,4.006792E2,1.7000933E0,1.0569219E3,1.689718E2],"tree_param":{"num_deleted":"0","num_feature":"14","num_nodes":"87","size_leaf_vector":"0"}},{"base_weights":[5.24836E-3,-6.108916E-1,5.502034E-1,-1.2202742E0,-3.6543983E-1,1.3836569E0,4.673931E-1,-1.2640698E0,-1.8723908E-1,1.4477743E-1,-6.638342E-1,6.8382776E-1,1.4628768E0,-2.8656012E-1,6.020713E-1,-1.3644857E0,-1.023864E0,-6.452381E-2,-1.1840476E0,-1.2591521E-1,6.6337645E-1,-1.0168474E0,-1.7565306E-1,2.4187173E-1,1.4836429E0,1.3489064E0,1.5801855E0,-1.2198435E0,3.57423E-2,1.5754628E0,4.6057183E-1,-9.1849965E-1,-1.4101571E0,-2.3203579E-1,-1.4593754E0,-2.0052147E-1,3.1893736E-1,1.8501578E-1,-2.598378E-1,7.780778E-1,2.7722764E-1,-1.5630125E0,-9.7763157E-1,2.2169323E-1,-3.505929E-1,6.2122405E-1,-4.9680817E-1,1.4048712E0,1.0451494E0,-8.1797375E-4,-1.2558702E0,8.381422E-1,-3.5792246E-1,5.0594115E-1,-1.3314219E0,-1.0197035E0,-5.7423502E-2,-1.2852569E0,-1.4419869E0,-1.4757065E-1,-8.0259216E-1,-2.976436E-1,-1.4646196E0,-3.1767747E-1,-3.5122287E-2,6.543643E-1,-7.85363E-1,2.0238855E-1,-1.175524E0,-7.557553E-1,-3.716851E-2,9.6748596E-1,5.0651705E-1,2.3152643E-1,1.0944535E0,-7.0124954E-1,-1.1252686E0,1.0887966E-1,1.3157197E0,-5.1969016E-1,1.5419792E-1,2.1131834E-1,1.2070735E0,-9.9319494E-1,6.151803E-1,-7.637368E-1,1.4339529E0,-1.1308287E0,-1.4278662E0,6.5438837E-1,1.3363814E0,1.7583752E-2,-7.029599E-1,6.0921824E-1,1.5513662E-1,-1.4311131E0,-2.4088284E-1,3.1059763E-1,-8.022665E-1,-1.4553156E0,-8.4476286E-1,2.1917509E-2,-5.9441006E-1,-1.2397631E0,2.992006E-1,4.24796E-1,8.837166E-1,3.135023E-1,3.8662333E-2,-8.7014645E-1,1.341955E-2,-1.6781022E-1,5.26816E-1,1.0649091E0,4.8615724E-1,5.370715E-1,-3.4271777E-1,1.7394042E-1,4.6173543E-1,-8.0476487E-1,-1.9256122E-1,-1.0236367E0,-1.4060494E0,4.322187E-2,1.1324171E0,-6.223557E-1,4.5601177E-1,3.3794183E-1,-3.137799E-1,6.963623E-1,-1.1650293E0,-1.363362E0,8.179425E-1,1.4957896E0,5.029516E-1,-1.2473524E0,1.2898754E0,9.3727094E-1,-3.542639E-1,-1.0335714E0,6.154333E-1,-1.2442036E0,-2.1861374E-1,4.316095E-1,7.343593E-1,-3.231078E-1,3.5301518E-1,-1.1495253E0,8.418134E-1],"categories":[],"categories_nodes":[],"categories_segments":[],"categories_sizes":[],"default_left":[1,1,1,1,1,1,1,1,1,1,1,1,1,1,1,1,1,1,0,1,1,1,1,1,0,1,0,1,1,0,1,1,1,1,1,1,1,1,1,1,1,0,1,1,1,1,1,0,1,0,1,1,1,1,1,0,1,1,0,1,1,0,0,0,0,1,0,1,0,1,1,1,1,1,0,1,1,1,0,1,1,1,0,0,0,1,1,1,0,1,0,1,1,1,1,0,1,0,0,0,0,0,0,0,0,0,0,0,0,0,0,0,0,0,0,0,0,0,0,0,0,0,0,0,0,0,0,0,0,0,0,0,0,0,0,0,0,0,0,0,0,0,0,0,0,0,0,0,0],"id":5,"left_children":[1,3,5,7,9,11,13,15,17,19,21,23,25,27,29,31,33,35,-1,37,39,41,43,45,-1,47,-1,49,51,-1,53,55,57,59,61,63,65,67,69,71,73,-1,75,77,79,81,83,-1,85,-1,87,89,91,93,95,-1,97,99,-1,101,103,-1,-1,-1,-1,105,-1,107,-1,109,111,113,115,117,-1,119,121,123,-1,125,127,129,-1,-1,-1,131,133,135,-1,137,-1,139,141,143,145,-1,147,-1,-1,-1,-1,-1,-1,-1,-1,-1,-1,-1,-1,-1,-1,-1,-1,-1,-1,-1,-1,-1,-1,-1,-1,-1,-1,-1,-1,-1,-1,-1,-1,-1,-1,-1,-1,-1,-1,-1,-1,-1,-1,-1,-1,-1,-1,-1,-1,-1,-1,-1,-1],"loss_changes":[2.5230898E3,5.270781E2,2.7456665E2,4.5559814E1,3.8308533E2,1.8951294E1,3.686297E2,2.2021729E1,5.103125E0,1.3051532E2,2.733966E2,1.3240631E1,2.178894E0,1.6567126E2,4.2336243E2,1.25896E1,9.974753E1,2.0852332E0,0E0,2.5503761E1,1.3904938E1,1.8199524E1,4.6469894E1,7.5872884E0,0E0,1.4277954E0,0E0,6.2076416E0,1.2988953E2,0E0,2.193471E2,5.7095833E0,5.975342E-1,4.901977E0,7.0373535E-1,5.5516326E-1,4.415611E0,4.601668E0,4.7200626E1,1.2124298E1,2.5314794E0,0E0,3.438562E1,2.511211E1,3.9667225E1,3.9728389E0,5.782452E0,0E0,2.2482445E1,0E0,1.3384552E0,1.1515167E1,3.5762398E1,9.4971985E1,6.905632E0,0E0,2.4478843E0,8.838501E0,0E0,6.978052E0,6.732909E0,0E0,0E0,0E0,0E0,7.8715086E-2,0E0,3.3197136E0,0E0,1.1668106E1,2.191371E1,6.205612E0,2.8532715E0,8.7264466E-1,0E0,1.5789612E1,1.4547607E1,1.249048E1,0E0,3.5106087E1,1.01790905E1,8.535655E0,0E0,0E0,0E0,6.836396E0,7.0867157E-1,2.5391861E1,0E0,2.9100395E1,0E0,8.428353E1,3.7430695E1,4.4731567E1,5.6718723E1,0E0,7.645823E0,0E0,0E0,0E0,0E0,0E0,0E0,0E0,0E0,0E0,0E0,0E0,0E0,0E0,0E0,0E0,0E0,0E0,0E0,0E0,0E0,0E0,0E0,0E0,0E0,0E0,0E0,0E0,0E0,0E0,0E0,0E0,0E0,0E0,0E0,0E0,0E0,0E0,0E0,0E0,0E0,0E0,0E0,0E0,0E0,0E0,0E0,0E0,0E0,0E0,0E0,0E0,0E0],"parents":[2147483647,0,0,1,1,2,2,3,3,4,4,5,5,6,6,7,7,8,8,9,9,10,10,11,11,12,12,13,13,14,14,15,15,16,16,17,17,19,19,20,20,21,21,22,22,23,23,25,25,27,27,28,28,30,30,31,31,32,32,33,33,34,34,35,35,36,36,37,37,38,38,39,39,40,40,42,42,43,43,44,44,45,45,46,46,48,48,50,50,51,51,52,52,53,53,54,54,56,56,57,57,59,59,60,60,65,65,67,67,69,69,70,70,71,71,72,72,73,73,75,75,76,76,77,77,79,79,80,80,81,81,85,85,86,86,87,87,89,89,91,91,92,92,93,93,94,94,96,96],"right_children":[2,4,6,8,10,12,14,16,18,20,22,24,26,28,30,32,34,36,-1,38,40,42,44,46,-1,48,-1,50,52,-1,54,56,58,60,62,64,66,68,70,72,74,-1,76,78,80,82,84,-1,86,-1,88,90,92,94,96,-1,98,100,-1,102,104,-1,-1,-1,-1,106,-1,108,-1,110,112,114,116,118,-1,120,122,124,-1,126,128,130,-1,-1,-1,132,134,136,-1,138,-1,140,142,144,146,-1,148,-1,-1,-1,-1,-1,-1,-1,-1,-1,-1,-1,-1,-1,-1,-1,-1,-1,-1,-1,-1,-1,-1,-1,-1,-1,-1,-1,-1,-1,-1,-1,-1,-1,-1,-1,-1,-1,-1,-1,-1,-1,-1,-1,-1,-1,-1,-1,-1,-1,-1,-1,-1],"split_conditions":[-3.1540138E-1,-6.534897E-1,-8.4565185E-2,1.303858E0,-7.1195626E-1,-6.534897E-1,3.0852916E-2,3.2649353E-1,1.4260286E0,-1.0988297E0,5.504729E-1,-1.9998328E-1,-1.9998328E-1,-6.534897E-1,2.6168913E-1,-1.3024473E0,7.7445227E-1,3.0387533E-1,-1.1840476E-1,-1.3024473E0,-1.0173826E0,-4.8797688E-1,8.151758E-1,8.151758E-1,1.4836429E-1,8.5589933E-1,1.5801856E-1,-1.3024473E0,3.2649353E-1,1.5754628E-1,1.0187646E1,3.0387533E-1,-1.0581062E0,1.824658E0,-4.308195E-1,2.0696208E-1,2.0696208E-1,3.3454409E0,-1.2617238E0,2.0696208E-1,1.824658E0,-1.5630125E-1,-4.4725335E-1,3.3685112E0,1.303858E0,7.0536137E-4,1.222411E0,1.4048712E-1,9.984317E-1,-8.179738E-5,1.4260286E0,-4.8797688E-1,1.4260286E0,7.648516E-1,7.648516E-1,-1.0197035E-1,1.824658E0,-1.1802768E0,-1.441987E-1,2.0696208E-1,2.0696208E-1,-2.976436E-2,-1.4646196E-1,-3.176775E-2,-3.5122286E-3,1.824658E0,-7.85363E-2,2.0696208E-1,-1.175524E-1,3.0387533E-1,3.0387533E-1,7.648516E-1,1.824658E0,2.0696208E-1,1.0944535E-1,2.0696208E-1,7.648516E-1,3.3454409E0,1.3157198E-1,1.824658E0,7.648516E-1,-3.8616806E-1,1.2070735E-1,-9.9319495E-2,6.1518032E-2,2.0696208E-1,1.824658E0,1.303858E0,-1.4278662E-1,-1.0173826E0,1.3363814E-1,5.504729E-1,1.5481992E0,3.6721706E-1,-3.250828E-1,-1.4311132E-1,-3.250828E-1,3.1059762E-2,-8.022665E-2,-1.4553156E-1,-8.4476285E-2,2.191751E-3,-5.9441008E-2,-1.2397631E-1,2.992006E-2,4.24796E-2,8.837166E-2,3.1350233E-2,3.8662334E-3,-8.7014645E-2,1.341955E-3,-1.6781023E-2,5.2681603E-2,1.0649091E-1,4.8615724E-2,5.3707153E-2,-3.4271777E-2,1.7394042E-2,4.6173543E-2,-8.0476485E-2,-1.9256122E-2,-1.0236367E-1,-1.4060494E-1,4.322187E-3,1.1324171E-1,-6.223557E-2,4.5601178E-2,3.3794183E-2,-3.137799E-2,6.963623E-2,-1.1650293E-1,-1.3633619E-1,8.1794254E-2,1.4957897E-1,5.0295163E-2,-1.24735236E-1,1.2898754E-1,9.37271E-2,-3.542639E-2,-1.03357136E-1,6.1543327E-2,-1.2442036E-1,-2.1861374E-2,4.3160953E-2,7.343593E-2,-3.231078E-2,3.5301518E-2,-1.1495253E-1,8.418134E-2],"split_indices":[4,6,4,0,0,6,4,0,0,0,0,4,4,6,4,0,0,5,0,0,0,0,0,0,0,0,0,0,0,0,4,5,0,5,4,11,11,5,0,11,5,0,0,8,0,0,0,0,0,0,0,0,0,9,9,0,5,0,0,11,11,0,0,0,0,5,0,11,0,5,5,9,5,11,0,11,9,5,0,5,9,0,0,0,0,11,5,0,0,0,0,0,0,0,0,0,0,0,0,0,0,0,0,0,0,0,0,0,0,0,0,0,0,0,0,0,0,0,0,0,0,0,0,0,0,0,0,0,0,0,0,0,0,0,0,0,0,0,0,0,0,0,0,0,0,0,0,0,0],"split_type":[0,0,0,0,0,0,0,0,0,0,0,0,0,0,0,0,0,0,0,0,0,0,0,0,0,0,0,0,0,0,0,0,0,0,0,0,0,0,0,0,0,0,0,0,0,0,0,0,0,0,0,0,0,0,0,0,0,0,0,0,0,0,0,0,0,0,0,0,0,0,0,0,0,0,0,0,0,0,0,0,0,0,0,0,0,0,0,0,0,0,0,0,0,0,0,0,0,0,0,0,0,0,0,0,0,0,0,0,0,0,0,0,0,0,0,0,0,0,0,0,0,0,0,0,0,0,0,0,0,0,0,0,0,0,0,0,0,0,0,0,0,0,0,0,0,0,0,0,0],"sum_hessian":[7.512371E3,3.525843E3,3.9865283E3,1.011248E3,2.5145952E3,3.5887567E2,3.6276526E3,9.6990515E2,4.1342804E1,9.281274E2,1.5864678E3,3.7472794E1,3.2140286E2,5.4962476E2,3.0780278E3,6.8067444E2,2.8923074E2,3.7759083E1,3.5837212E0,6.103177E2,3.1780972E2,9.200668E2,6.6640094E2,2.4974808E1,1.2497987E1,1.693607E2,1.5204218E2,1.4037102E2,4.0925375E2,3.8937027E2,2.6886575E3,6.519071E1,6.154837E2,1.03175064E2,1.8605568E2,2.8225685E1,9.533397E0,1.836205E2,4.2669717E2,2.4424457E2,7.356516E1,5.9033978E1,8.6103284E2,2.0362775E2,4.627732E2,1.6605822E1,8.368985E0,1.3995085E2,2.9409842E1,4.0587606E0,1.3631226E2,1.3432744E2,2.749263E2,2.6229673E3,6.569012E1,5.81697E1,7.021008E0,1.334002E2,4.820835E2,9.0966965E1,1.2208101E1,1.0956668E0,1.8496E2,1.5983522E1,1.2242163E1,7.6248255E0,1.9085709E0,1.8214592E2,1.4745834E0,1.314793E2,2.952179E2,1.4237686E2,1.01867714E2,7.0884445E1,2.6807177E0,3.0180054E2,5.5923224E2,1.8558968E2,1.803807E1,3.4662845E2,1.1614475E2,1.057055E1,6.0352726E0,5.8599567E0,2.509029E0,5.0324283E0,2.4377415E1,8.3316E1,5.2996254E1,9.9824814E1,3.4502632E1,1.3210486E2,1.4282144E2,2.0258264E3,5.97141E2,5.9901905E1,5.788216E0,5.089385E0,1.931623E0,9.4581795E1,3.881841E1,6.664077E1,2.432619E1,8.650514E0,3.5575874E0,5.236025E0,2.3888006E0,1.0796205E2,7.418387E1,1.14343E2,1.7136286E1,2.4026518E2,5.495271E1,1.17401764E2,2.4975096E1,9.868473E1,3.1829822E0,5.8105194E1,1.2779247E1,2.5028653E2,5.1514023E1,4.1401892E2,1.4521333E2,1.7538155E2,1.0208135E1,3.1395547E2,3.267295E1,8.359887E1,3.254588E1,8.181372E0,2.389178E0,3.7491353E0,1.2832932E0,2.2290258E1,2.0871553E0,7.9952126E1,3.3638806E0,7.801563E1,2.1809181E1,4.763062E1,8.447424E1,6.670811E1,7.6113335E1,8.392108E2,1.1866156E3,1.7457796E2,4.2256302E2,3.1135087E0,2.6747072E0],"tree_param":{"num_deleted":"0","num_feature":"14","num_nodes":"149","size_leaf_vector":"0"}},{"base_weights":[-1.6649815E-3,-5.726478E-1,6.029891E-1,-9.6847004E-1,-1.509513E-1,2.0040374E-3,7.766595E-1,-1.2236111E0,-8.066371E-1,-7.8311586E-1,-2.43679E-2,1.503685E0,-2.2702238E-1,1.4660052E0,7.026948E-1,-1.2304319E0,1.1392698E0,-8.2357246E-1,1.4666579E0,-7.948797E-1,1.0119579E0,-5.1982407E-2,1.4791403E0,-6.515997E-1,3.337512E-1,2.6150396E-1,9.0348566E-1,-1.2855794E0,-9.7144E-1,-7.4998224E-1,-1.0940741E0,-8.79458E-1,-7.035062E-1,2.9693382E-2,-2.9038602E-1,-1.088237E0,-4.2564404E-1,1.4509597E0,-7.6042585E-2,2.1096349E-1,1.3992554E0,1.443844E0,8.060983E-1,-1.2913462E0,-9.080343E-1,-1.0111912E0,7.6458654E-3,-7.1624744E-1,-8.447108E-1,-9.237946E-1,-2.622499E-1,-6.645179E-1,-1.0214276E0,1.4510322E-1,-8.02964E-2,-1.03306234E-1,-4.1206202E-1,-8.550327E-1,-1.2452862E0,-8.7102133E-1,-3.05601E-2,1.4225447E0,-1.7747645E-1,4.401688E-1,-1.1212071E-1,1.4802793E0,7.7938277E-1,-7.116883E-1,-1.3103273E0,1.4320542E-1,4.2328385E-1,-8.0614775E-2,2.5340434E-2,-4.1532755E-1,5.784656E-2,-1.0836133E0,1.263311E0,-7.395972E-1,-1.3221602E0,1.4131157E0,-4.575464E-1,-6.339462E-1,-3.6680263E-3,7.636527E-2,1.4852136E0,1.7875735E-1,-4.637449E-1,8.2964045E-1,4.746731E-1],"categories":[],"categories_nodes":[],"categories_segments":[],"categories_sizes":[],"default_left":[1,1,1,1,1,1,1,1,1,1,1,0,1,0,1,1,0,1,0,1,0,1,0,1,1,1,1,1,1,1,0,1,1,1,1,1,1,0,1,1,0,0,1,0,0,0,0,1,0,0,0,0,0,1,1,0,1,1,0,1,1,0,1,1,1,0,1,0,0,0,0,0,0,0,0,0,0,0,0,0,0,0,0,0,0,0,0,0,0],"id":6,"left_children":[1,3,5,7,9,11,13,15,17,19,21,-1,23,-1,25,27,-1,29,-1,31,-1,33,-1,35,37,39,41,43,45,47,-1,49,51,53,55,57,59,-1,61,63,-1,-1,65,-1,-1,-1,-1,67,-1,-1,-1,-1,-1,69,71,-1,73,75,-1,77,79,-1,81,83,85,-1,87,-1,-1,-1,-1,-1,-1,-1,-1,-1,-1,-1,-1,-1,-1,-1,-1,-1,-1,-1,-1,-1,-1],"loss_changes":[2.5462085E3,6.3299097E2,3.7385376E2,7.979346E1,1.4703838E2,2.7686758E2,1.4065674E2,1.3608154E1,4.7408142E1,7.277954E0,6.369027E1,0E0,1.6652502E2,0E0,2.2225208E2,9.544312E0,0E0,2.2903809E1,0E0,1.7393646E0,0E0,2.9323368E1,0E0,3.87903E1,1.3820798E2,4.4955196E1,8.964404E1,1.7700195E-1,5.330078E0,2.39917E0,0E0,3.984375E0,1.2012024E0,1.4257275E1,8.704292E0,3.880844E0,4.639686E1,0E0,3.3943333E1,5.5932175E1,0E0,0E0,2.5220764E1,0E0,0E0,0E0,0E0,9.628601E-1,0E0,0E0,0E0,0E0,0E0,2.2867966E-1,2.13902E-2,0E0,3.8078308E-1,2.9227272E1,0E0,6.3731995E0,8.746694E1,0E0,1.6537933E1,1.6780115E2,3.219653E1,0E0,2.1208801E1,0E0,0E0,0E0,0E0,0E0,0E0,0E0,0E0,0E0,0E0,0E0,0E0,0E0,0E0,0E0,0E0,0E0,0E0,0E0,0E0,0E0,0E0],"parents":[2147483647,0,0,1,1,2,2,3,3,4,4,5,5,6,6,7,7,8,8,9,9,10,10,12,12,14,14,15,15,17,17,19,19,21,21,23,23,24,24,25,25,26,26,27,27,28,28,29,29,31,31,32,32,33,33,34,34,35,35,36,36,38,38,39,39,42,42,47,47,53,53,54,54,56,56,57,57,59,59,60,60,62,62,63,63,64,64,66,66],"right_children":[2,4,6,8,10,12,14,16,18,20,22,-1,24,-1,26,28,-1,30,-1,32,-1,34,-1,36,38,40,42,44,46,48,-1,50,52,54,56,58,60,-1,62,64,-1,-1,66,-1,-1,-1,-1,68,-1,-1,-1,-1,-1,70,72,-1,74,76,-1,78,80,-1,82,84,86,-1,88,-1,-1,-1,-1,-1,-1,-1,-1,-1,-1,-1,-1,-1,-1,-1,-1,-1,-1,-1,-1,-1,-1],"split_conditions":[-5.868801E-1,-2.1929589E-1,-2.1929589E-1,-5.7081234E-1,-5.7081234E-1,-1.739751E-1,-1.739751E-1,-5.970365E-1,-5.970365E-1,-5.970365E-1,-5.970365E-1,1.503685E-1,1.01294875E-1,1.4660053E-1,1.01294875E-1,2.0407987E-1,1.13926984E-1,7.648516E-1,1.466658E-1,2.0407987E-1,1.0119579E-1,7.648516E-1,1.4791404E-1,-5.7081234E-1,1.0659425E0,2.7821565E-1,1.0659425E0,7.648516E-1,7.648516E-1,2.0407987E-1,-1.0940742E-1,7.648516E-1,7.648516E-1,2.0407987E-1,2.0407987E-1,1.9069043E-1,-5.0951123E-1,1.4509597E-1,5.1419985E-1,1.9069043E-1,1.3992554E-1,1.443844E-1,5.1419985E-1,-1.2913463E-1,-9.080344E-2,-1.0111912E-1,7.6458656E-4,3.3685112E0,-8.4471084E-2,-9.2379466E-2,-2.622499E-2,-6.645179E-2,-1.02142766E-1,3.3685112E0,3.3685112E0,-1.0330624E-2,3.3685112E0,-5.0951123E-1,-1.24528624E-1,7.648516E-1,1.9069043E-1,1.4225447E-1,-5.7081234E-1,-5.0951123E-1,2.0407987E-1,1.4802794E-1,2.8164468E0,-7.116883E-2,-1.3103274E-1,1.4320542E-2,4.2328384E-2,-8.061478E-3,2.5340435E-3,-4.1532755E-2,5.7846564E-3,-1.08361326E-1,1.263311E-1,-7.395972E-2,-1.3221602E-1,1.4131157E-1,-4.575464E-2,-6.339462E-2,-3.6680265E-4,7.636527E-3,1.4852136E-1,1.7875737E-2,-4.6374492E-2,8.296405E-2,4.746731E-2],"split_indices":[2,1,1,7,7,2,2,13,13,13,13,0,2,0,2,12,0,9,0,12,0,9,0,7,13,13,13,9,9,12,0,9,9,12,12,13,13,0,2,13,0,0,2,0,0,0,0,8,0,0,0,0,0,8,8,0,8,13,0,9,13,0,7,13,12,0,13,0,0,0,0,0,0,0,0,0,0,0,0,0,0,0,0,0,0,0,0,0,0],"split_type":[0,0,0,0,0,0,0,0,0,0,0,0,0,0,0,0,0,0,0,0,0,0,0,0,0,0,0,0,0,0,0,0,0,0,0,0,0,0,0,0,0,0,0,0,0,0,0,0,0,0,0,0,0,0,0,0,0,0,0,0,0,0,0,0,0,0,0,0,0,0,0,0,0,0,0,0,0,0,0,0,0,0,0,0,0,0,0,0,0],"sum_hessian":[7.3730337E3,3.7921292E3,3.5809045E3,1.9554056E3,1.8367234E3,8.030315E2,2.777873E3,7.563714E2,1.1990343E3,3.0555887E2,1.5311646E3,1.0552954E2,6.9750195E2,2.6735187E2,2.5105212E3,7.546722E2,1.6992041E0,1.1908009E3,8.233387E0,3.0412302E2,1.4358454E0,1.5044973E3,2.6667248E1,3.9686353E2,3.006384E2,7.8592896E2,1.7245922E3,6.189207E2,1.3575145E2,9.390925E2,2.5170836E2,1.5345505E2,1.5066797E2,1.1212415E3,3.832558E2,1.3403595E2,2.6282758E2,7.9998955E1,2.2063945E2,7.536368E2,3.2292168E1,2.6124374E2,1.4633484E3,6.072254E2,1.1695317E1,1.3042343E2,5.328022E0,6.987973E2,2.4029523E2,1.4270708E2,1.0747975E1,1.3696185E2,1.370612E1,5.46984E2,5.7425745E2,1.51764E2,2.314918E2,5.653329E1,7.750266E1,1.2298367E2,1.3984389E2,1.3161827E1,2.0747763E2,4.4065848E2,3.1297833E2,5.370334E1,1.4096451E3,6.9565656E2,3.14077E0,5.447822E2,2.201795E0,5.7276807E2,1.4894215E0,2.3000957E2,1.4822468E0,5.146807E1,5.0652184E0,9.728295E1,2.5700716E1,3.1392788E1,1.084511E2,5.6484936E1,1.5099269E2,3.2766428E2,1.129942E2,1.7155367E2,1.4142465E2,1.2085833E3,2.0106186E2],"tree_param":{"num_deleted":"0","num_feature":"14","num_nodes":"89","size_leaf_vector":"0"}},{"base_weights":[-4.693853E-3,-5.2851796E-1,5.487682E-1,-7.899799E-1,-6.752833E-2,3.255947E-3,7.665656E-1,-8.0369496E-1,1.4459746E0,1.1331936E0,-1.8595366E-1,1.4821633E0,-1.5654263E-1,1.3813186E0,6.978217E-1,-8.398813E-1,-7.2445184E-1,7.69682E-1,1.645751E0,-6.7946064E-1,-1.7717164E-2,-5.408336E-1,2.2983699E-1,2.5533128E-1,9.0397227E-1,-8.253438E-1,-1.1542555E0,-7.28994E-1,-1.1785972E-1,5.463581E-1,1.1952771E0,-6.9868314E-1,1.1667498E0,1.5929685E0,-2.6841342E-1,-5.631634E-1,1.2816781E0,1.4366403E0,-6.7785247E-3,1.3681194E0,1.8030167E-1,1.3692689E0,8.133421E-1,-8.497055E-1,-6.829041E-1,-3.3923907E-3,-7.318452E-1,-5.8998287E-1,2.759969E-1,4.9652863E-1,1.1627066E0,-7.563842E-1,-2.73521E-1,-3.03459E-1,1.3701612E0,-4.0578818E-1,-8.384433E-1,-6.99743E-2,1.3533398E0,1.4244555E0,5.4922855E-1,-6.043848E-1,3.0413523E-1,1.198695E0,7.2224396E-1,5.143283E-1,-6.961892E-1,-7.273964E-1,-1.0790471E0,-8.460755E-1,-5.4619396E-1,-1.7464802E-1,-7.3008937E-1,-1.7487617E-1,-6.970201E-1,-6.918151E-1,1.4408599E0,-7.4810255E-1,-1.2598642E0,1.4132802E0,-1.3054837E-1,1.3157962E-1,7.4091554E-1,-7.973755E-1,1.2704958E0,1.4635148E0,1.8922623E-1,1.0524373E0,1.3924214E0,8.1883895E-1,4.3101844E-1],"categories":[],"categories_nodes":[],"categories_segments":[],"categories_sizes":[],"default_left":[1,1,1,1,1,1,1,1,0,1,1,0,1,0,1,1,1,1,0,1,1,1,1,1,1,1,0,1,1,1,0,1,0,0,1,1,0,0,1,1,1,0,1,0,1,0,1,0,0,0,0,1,1,1,0,1,1,1,0,0,1,1,1,1,1,0,0,0,0,0,0,0,0,0,0,0,0,0,0,0,0,0,0,0,0,0,0,0,0,0,0],"id":7,"left_children":[1,3,5,7,9,11,13,15,-1,17,19,-1,21,-1,23,25,27,29,-1,31,33,35,37,39,41,43,-1,45,47,49,-1,51,-1,-1,53,55,-1,-1,57,59,61,-1,63,-1,65,-1,67,-1,-1,-1,-1,69,71,73,-1,75,77,79,-1,-1,81,83,85,87,89,-1,-1,-1,-1,-1,-1,-1,-1,-1,-1,-1,-1,-1,-1,-1,-1,-1,-1,-1,-1,-1,-1,-1,-1,-1,-1],"loss_changes":[2.0934648E3,4.470913E2,4.171593E2,7.375195E1,1.9127916E2,2.37232E2,1.05079834E2,6.1396484E0,0E0,2.1235306E1,1.0160568E2,0E0,1.3464296E2,0E0,2.0582825E2,6.4019775E0,1.9667664E0,6.241272E0,0E0,1.185701E1,3.694107E2,1.921849E1,1.29207E2,5.9811283E1,6.3853638E1,4.769409E0,0E0,1.526947E0,1.4142938E0,9.4035244E-1,0E0,7.3626556E0,0E0,0E0,4.5871876E1,1.9141708E1,0E0,0E0,3.2695164E1,1.3068008E0,6.577783E1,0E0,4.4486633E1,0E0,4.0203934E0,0E0,3.5253906E-1,0E0,0E0,0E0,0E0,4.6490326E0,1.6076713E0,3.913861E1,0E0,1.5314842E2,5.2493057E0,3.2833897E1,0E0,0E0,2.6616693E-1,3.4426476E1,7.748488E1,5.49057E0,2.9111755E1,0E0,0E0,0E0,0E0,0E0,0E0,0E0,0E0,0E0,0E0,0E0,0E0,0E0,0E0,0E0,0E0,0E0,0E0,0E0,0E0,0E0,0E0,0E0,0E0,0E0,0E0],"parents":[2147483647,0,0,1,1,2,2,3,3,4,4,5,5,6,6,7,7,9,9,10,10,12,12,14,14,15,15,16,16,17,17,19,19,20,20,21,21,22,22,23,23,24,24,25,25,27,27,28,28,29,29,31,31,34,34,35,35,38,38,39,39,40,40,42,42,44,44,46,46,51,51,52,52,53,53,55,55,56,56,57,57,60,60,61,61,62,62,63,63,64,64],"right_children":[2,4,6,8,10,12,14,16,-1,18,20,-1,22,-1,24,26,28,30,-1,32,34,36,38,40,42,44,-1,46,48,50,-1,52,-1,-1,54,56,-1,-1,58,60,62,-1,64,-1,66,-1,68,-1,-1,-1,-1,70,72,74,-1,76,78,80,-1,-1,82,84,86,88,90,-1,-1,-1,-1,-1,-1,-1,-1,-1,-1,-1,-1,-1,-1,-1,-1,-1,-1,-1,-1,-1,-1,-1,-1,-1,-1],"split_conditions":[-5.868801E-1,-3.1540138E-1,-3.1540138E-1,-5.970365E-1,-8.4565185E-2,-1.739751E-1,-1.739751E-1,2.0407987E-1,1.4459746E-1,-1.9998328E-1,3.0852916E-2,1.4821634E-1,1.01294875E-1,1.3813186E-1,1.01294875E-1,8.879689E-1,3.3685112E0,2.0407987E-1,1.645751E-1,-5.970365E-1,2.6168913E-1,2.7821565E-1,1.0659425E0,-8.4565185E-2,1.0659425E0,7.648516E-1,-1.1542555E-1,-4.308195E-1,7.648516E-1,8.879689E-1,1.1952771E-1,8.879689E-1,1.1667498E-1,1.5929686E-1,-5.970365E-1,1.9069043E-1,1.2816781E-1,1.4366403E-1,3.3685112E0,8.879689E-1,3.0852916E-2,1.3692689E-1,2.6168913E-1,-8.4970556E-2,-4.308195E-1,-3.3923908E-4,3.3766932E0,-5.8998287E-2,2.759969E-2,4.9652863E-2,1.1627066E-1,2.0407987E-1,3.3766932E0,7.648516E-1,1.3701612E-1,-5.0951123E-1,7.648516E-1,5.1419985E-1,1.3533399E-1,1.4244555E-1,-1.9998328E-1,2.7821565E-1,2.6168913E-1,3.0852916E-2,8.879689E-1,5.143283E-2,-6.9618925E-2,-7.2739646E-2,-1.0790471E-1,-8.460755E-2,-5.4619398E-2,-1.7464802E-2,-7.300894E-2,-1.7487617E-2,-6.9702014E-2,-6.918151E-2,1.4408599E-1,-7.481026E-2,-1.2598643E-1,1.4132802E-1,-1.30548375E-2,1.3157963E-2,7.409155E-2,-7.973755E-2,1.2704958E-1,1.4635149E-1,1.8922623E-2,1.05243735E-1,1.3924214E-1,8.18839E-2,4.3101843E-2],"split_indices":[2,4,4,13,4,2,2,12,0,4,4,0,2,0,2,10,8,12,0,13,4,13,13,4,13,9,0,4,9,10,0,10,0,0,13,13,0,0,8,10,4,0,4,0,4,0,10,0,0,0,0,12,10,9,0,13,9,2,0,0,4,13,4,4,10,0,0,0,0,0,0,0,0,0,0,0,0,0,0,0,0,0,0,0,0,0,0,0,0,0,0],"split_type":[0,0,0,0,0,0,0,0,0,0,0,0,0,0,0,0,0,0,0,0,0,0,0,0,0,0,0,0,0,0,0,0,0,0,0,0,0,0,0,0,0,0,0,0,0,0,0,0,0,0,0,0,0,0,0,0,0,0,0,0,0,0,0,0,0,0,0,0,0,0,0,0,0,0,0,0,0,0,0,0,0,0,0,0,0,0,0,0,0,0,0],"sum_hessian":[7.218917E3,3.7087837E3,3.510133E3,2.3660852E3,1.3426986E3,1.0018464E3,2.5082866E3,2.3522969E3,1.3788154E1,1.1977038E2,1.2229282E3,9.68882E1,9.049582E2,2.503551E2,2.2579316E3,1.6082788E3,7.440182E2,7.15371E1,4.8233276E1,3.101352E2,9.127931E2,4.5350497E2,4.514532E2,7.183255E2,1.539606E3,1.54066E3,6.761876E1,7.382881E2,5.7301335E0,4.841559E1,2.3121517E1,3.0755453E2,2.580661E0,1.22216484E2,7.905766E2,4.4869843E2,4.806555E0,7.317406E1,3.7827914E2,4.4285072E1,6.740404E2,2.4869484E2,1.2909111E3,1.3114028E3,2.292572E2,2.898208E0,7.353899E2,2.3796456E0,3.3504882E0,4.6464687E1,1.9509016E0,2.7011652E2,3.7438015E1,7.748197E2,1.5756905E1,2.8706174E2,1.6163669E2,3.623898E2,1.5889325E1,4.0742653E1,3.5424178E0,9.134446E1,5.82696E2,2.4449956E2,1.0464116E3,2.1021278E0,2.2715508E2,7.291422E2,6.2476344E0,1.8720718E2,8.290934E1,3.1910173E1,5.527842E0,5.8510175E2,1.8971791E2,2.4910352E2,3.7958214E1,1.3538843E2,2.624826E1,1.334262E1,3.4904718E2,1.6449088E0,1.8975089E0,8.3340515E1,8.003943E0,5.14863E1,5.3120966E2,1.4298369E2,1.0151586E2,7.844199E2,2.6199173E2],"tree_param":{"num_deleted":"0","num_feature":"14","num_nodes":"91","size_leaf_vector":"0"}},{"base_weights":[4.5405766E-3,-5.084404E-1,4.538885E-1,-8.9174134E-1,-6.298358E-2,8.2102284E-2,7.547258E-1,-1.1753609E0,-7.338629E-1,-8.7039757E-1,1.0555154E-1,1.1483531E0,-3.0329196E-2,1.3384964E0,6.674371E-1,-1.2101836E0,-5.8787274E-1,-8.098094E-1,-2.1704288E-1,-1.0671107E0,-3.52958E-1,-7.7758916E-2,5.119563E-1,3.340887E-2,1.2945529E0,-8.080037E-1,8.773924E-2,-5.040553E-2,8.360522E-1,1.1117208E0,-7.675846E-1,-1.1379851E0,-7.6182306E-1,1.3570324E0,-5.350861E-1,-1.077935E0,-4.769336E-2,1.1689019E0,-4.699422E-1,1.4366983E-2,-3.4890163E-1,1.3762876E0,3.5685235E-1,-3.2192585E-1,1.205624E0,9.70321E-1,1.4735435E0,-1.1975546E0,-4.49869E-1,2.0571311E-1,-2.7838522E-1,-8.5518557E-1,1.0174013E-1,1.3271469E0,7.533007E-1,-4.9286142E-1,-1.2441031E0,-1.175857E0,-7.5842476E-1,-6.983615E-1,-9.638286E-1,-8.751604E-1,-2.8754207E-1,1.282213E-1,-2.0228346E-1,-3.585763E-1,-1.7023509E0,1.4288316E-3,6.407772E-1,-2.695374E-1,-9.624519E-1,-3.9504883E-1,5.350088E-1,-7.438509E-1,8.991497E-1,5.006939E-1,1.5501043E0,3.955803E-1,1.4832842E0,-1.2746577E0,-3.577582E-1,1.595303E0,-6.709955E-1,-2.6210925E-1,3.2342267E-1,1.4645356E-1,-4.039542E-1,-1.0860149E0,-3.0073723E-1,2.7002966E-1,-3.7239906E-1,1.1524317E0,6.6236186E-1,-2.4549608E-1,-1.2768456E0,-1.4183925E0,-6.2111133E-1,-2.6895875E-1,-8.219305E-1,-5.741534E-1,-8.54186E-1,-3.364314E-1,-9.8374003E-1,-4.145811E-1,-9.618615E-1,1.3357362E0,-6.922191E-1,-5.0219434E-1,3.251026E-1,1.3410554E-2,-4.1592753E-1,9.571211E-1,-4.4867942E-1,-3.196381E-1,5.3746928E-2,-1.0185666E0,-3.4840137E-1,-3.595269E-2,-6.1229944E-1,7.1760195E-1,-1.12162575E-1,-8.213308E-1,-7.2755694E-2,1.0531188E0,3.1628588E-1,6.032258E-1,-5.8329636E-1,-1.7198238E-1,-8.5237134E-1,-4.2186996E-1,-1.2866937E0,-8.6105335E-1,3.9866698E-1,1.4163843E0,1.3577674E-1,-4.544668E-1,1.3710032E0,-3.59148E-1,-9.6724194E-1,-1.2286243E0,-6.9365376E-1,-1.363532E-1,-9.025567E-1,4.2120737E-1,-3.317012E-1,-7.931692E-1,-1.081194E-1,8.351352E-1,1.228689E0,7.167343E-1,1.6259532E-1],"categories":[],"categories_nodes":[],"categories_segments":[],"categories_sizes":[],"default_left":[1,1,1,1,1,1,1,1,1,1,1,1,1,0,1,0,1,1,1,1,1,1,1,1,1,1,1,1,1,0,1,1,1,0,1,0,1,0,1,1,1,0,1,1,0,1,1,1,1,1,1,1,1,0,1,1,1,0,1,1,1,1,1,0,0,1,0,1,1,1,1,1,1,1,1,1,0,0,0,0,1,0,1,1,1,1,1,1,1,1,1,1,1,0,0,0,0,0,0,0,0,0,0,0,0,0,0,0,0,0,0,0,0,0,0,0,0,0,0,0,0,0,0,0,0,0,0,0,0,0,0,0,0,0,0,0,0,0,0,0,0,0,0,0,0,0,0,0,0,0,0],"id":8,"left_children":[1,3,5,7,9,11,13,15,17,19,21,23,25,-1,27,-1,29,31,33,35,37,39,41,43,45,47,49,51,53,-1,55,57,59,-1,61,-1,63,-1,65,67,69,-1,71,73,-1,75,77,79,81,83,85,87,89,-1,91,93,95,-1,97,99,101,103,105,-1,-1,107,-1,109,111,113,115,117,119,121,123,125,-1,-1,-1,-1,127,-1,129,131,133,135,137,139,141,143,145,147,149,-1,-1,-1,-1,-1,-1,-1,-1,-1,-1,-1,-1,-1,-1,-1,-1,-1,-1,-1,-1,-1,-1,-1,-1,-1,-1,-1,-1,-1,-1,-1,-1,-1,-1,-1,-1,-1,-1,-1,-1,-1,-1,-1,-1,-1,-1,-1,-1,-1,-1,-1,-1,-1,-1,-1,-1,-1,-1],"loss_changes":[1.623822E3,5.615858E2,4.199449E2,7.830237E1,2.0725867E2,2.015132E2,1.04868164E2,1.2188416E1,4.4507507E1,2.6394592E1,9.393773E1,2.6092972E1,1.3975716E2,0E0,2.188252E2,0E0,1.2224378E1,1.4757935E1,7.442869E1,2.045929E0,1.3713255E1,2.1724018E1,5.205056E1,8.55797E0,6.7951813E0,2.745076E1,5.714562E1,4.2300655E1,5.8486694E1,0E0,3.8718605E0,8.9849854E-1,1.0462494E1,0E0,1.0119106E1,0E0,1.08698525E-1,0E0,8.911309E0,5.266574E0,1.0479662E1,0E0,4.4904903E1,8.830049E0,0E0,1.374699E1,3.5179138E-1,5.727417E0,4.9066376E1,5.5161808E1,1.7264545E1,6.7023506E0,2.3307323E1,0E0,4.4789185E1,4.222106E0,4.0816116E-1,0E0,2.1772861E-1,1.2372986E1,2.2302704E0,1.6540756E0,4.8737247E1,0E0,0E0,6.535043E0,0E0,3.1949353E0,4.9615765E0,3.2026186E0,5.021248E-1,5.008789E0,3.2004723E1,5.8084583E-1,7.261276E-2,3.7912917E0,0E0,0E0,0E0,0E0,7.1903396E-1,0E0,1.42555275E1,8.0137436E1,1.6378946E2,5.5306957E1,5.942314E0,1.296093E0,1.6108524E0,1.9718863E1,8.43311E0,4.5760803E0,2.7722137E1,0E0,0E0,0E0,0E0,0E0,0E0,0E0,0E0,0E0,0E0,0E0,0E0,0E0,0E0,0E0,0E0,0E0,0E0,0E0,0E0,0E0,0E0,0E0,0E0,0E0,0E0,0E0,0E0,0E0,0E0,0E0,0E0,0E0,0E0,0E0,0E0,0E0,0E0,0E0,0E0,0E0,0E0,0E0,0E0,0E0,0E0,0E0,0E0,0E0,0E0,0E0,0E0,0E0,0E0,0E0,0E0,0E0,0E0],"parents":[2147483647,0,0,1,1,2,2,3,3,4,4,5,5,6,6,7,7,8,8,9,9,10,10,11,11,12,12,14,14,16,16,17,17,18,18,19,19,20,20,21,21,22,22,23,23,24,24,25,25,26,26,27,27,28,28,30,30,31,31,32,32,34,34,36,36,38,38,39,39,40,40,42,42,43,43,45,45,46,46,47,47,48,48,49,49,50,50,51,51,52,52,54,54,55,55,56,56,58,58,59,59,60,60,61,61,62,62,65,65,67,67,68,68,69,69,70,70,71,71,72,72,73,73,74,74,75,75,80,80,82,82,83,83,84,84,85,85,86,86,87,87,88,88,89,89,90,90,91,91,92,92],"right_children":[2,4,6,8,10,12,14,16,18,20,22,24,26,-1,28,-1,30,32,34,36,38,40,42,44,46,48,50,52,54,-1,56,58,60,-1,62,-1,64,-1,66,68,70,-1,72,74,-1,76,78,80,82,84,86,88,90,-1,92,94,96,-1,98,100,102,104,106,-1,-1,108,-1,110,112,114,116,118,120,122,124,126,-1,-1,-1,-1,128,-1,130,132,134,136,138,140,142,144,146,148,150,-1,-1,-1,-1,-1,-1,-1,-1,-1,-1,-1,-1,-1,-1,-1,-1,-1,-1,-1,-1,-1,-1,-1,-1,-1,-1,-1,-1,-1,-1,-1,-1,-1,-1,-1,-1,-1,-1,-1,-1,-1,-1,-1,-1,-1,-1,-1,-1,-1,-1,-1,-1,-1,-1,-1,-1,-1,-1],"split_conditions":[-3.1540138E-1,-2.1929589E-1,-5.0951123E-1,-6.534897E-1,-6.534897E-1,-8.4565185E-2,1.9069043E-1,3.2197824E-1,-5.0951123E-1,-5.0951123E-1,-5.0951123E-1,-6.534897E-1,-6.534897E-1,1.3384965E-1,2.7821565E-1,-1.21018365E-1,1.0659425E0,-9.978145E-1,1.9069043E-1,2.4733334E0,1.9069043E-1,6.2205446E-1,1.9069043E-1,-1.9998328E-1,-2.1929589E-1,3.0852916E-2,7.648516E-1,-6.534897E-1,1.0659425E0,1.1117208E-1,1.1534678E0,-5.970365E-1,7.648516E-1,1.3570325E-1,2.7821565E-1,-1.077935E-1,2.7047431E0,1.1689019E-1,2.6413965E0,3.3454409E0,2.0105135E0,1.3762876E-1,2.7821565E-1,-2.1929589E-1,1.205624E-1,-1.9998328E-1,-1.6149075E0,-5.970365E-1,2.6168913E-1,3.0852916E-2,2.6168913E-1,-7.217506E-2,7.648516E-1,1.3271469E-1,2.6168913E-1,3.0387533E-1,2.0724826E0,-1.175857E-1,-1.692044E0,3.1350803E-1,-9.2067784E-1,-1.306361E0,1.0659425E0,1.2822131E-2,-2.0228347E-2,1.4160434E0,-1.7023508E-1,1.824658E0,-3.0358493E-1,3.0387533E-1,3.051858E0,-7.664046E-1,1.9411948E0,7.377594E-1,6.2205446E-1,1.547694E0,1.5501043E-1,3.955803E-2,1.4832842E-1,-1.2746577E-1,3.0387533E-1,1.5953031E-1,5.3400855E0,-2.1929589E-1,2.6168913E-1,3.0852916E-2,1.824658E0,-2.1929589E-1,1.8948087E0,6.2205446E-1,-4.5785815E-1,-2.1929589E-1,1.3934207E0,-2.4549609E-2,-1.2768456E-1,-1.4183925E-1,-6.2111136E-2,-2.6895875E-2,-8.2193054E-2,-5.7415344E-2,-8.5418604E-2,-3.364314E-2,-9.8374E-2,-4.145811E-2,-9.618615E-2,1.3357362E-1,-6.922191E-2,-5.0219435E-2,3.2510262E-2,1.3410555E-3,-4.1592754E-2,9.571211E-2,-4.4867944E-2,-3.196381E-2,5.374693E-3,-1.01856664E-1,-3.4840137E-2,-3.595269E-3,-6.1229944E-2,7.17602E-2,-1.1216258E-2,-8.213308E-2,-7.2755697E-3,1.05311885E-1,3.162859E-2,6.0322583E-2,-5.8329638E-2,-1.7198239E-2,-8.523714E-2,-4.2186998E-2,-1.2866937E-1,-8.610534E-2,3.9866697E-2,1.4163844E-1,1.35776745E-2,-4.544668E-2,1.3710032E-1,-3.59148E-2,-9.67242E-2,-1.22862436E-1,-6.9365375E-2,-1.363532E-2,-9.025567E-2,4.2120736E-2,-3.317012E-2,-7.931692E-2,-1.081194E-2,8.351352E-2,1.22868896E-1,7.167343E-2,1.6259532E-2],"split_indices":[4,1,13,6,6,4,13,13,13,13,13,6,6,0,13,0,13,3,13,3,13,3,13,4,1,4,9,6,13,0,13,13,9,0,13,0,3,0,13,5,3,0,13,1,0,4,3,13,4,4,4,3,9,0,4,5,13,0,3,3,3,3,13,0,0,13,0,5,3,5,3,3,13,3,3,3,0,0,0,0,5,0,4,1,4,4,5,1,3,3,3,1,3,0,0,0,0,0,0,0,0,0,0,0,0,0,0,0,0,0,0,0,0,0,0,0,0,0,0,0,0,0,0,0,0,0,0,0,0,0,0,0,0,0,0,0,0,0,0,0,0,0,0,0,0,0,0,0,0,0,0],"split_type":[0,0,0,0,0,0,0,0,0,0,0,0,0,0,0,0,0,0,0,0,0,0,0,0,0,0,0,0,0,0,0,0,0,0,0,0,0,0,0,0,0,0,0,0,0,0,0,0,0,0,0,0,0,0,0,0,0,0,0,0,0,0,0,0,0,0,0,0,0,0,0,0,0,0,0,0,0,0,0,0,0,0,0,0,0,0,0,0,0,0,0,0,0,0,0,0,0,0,0,0,0,0,0,0,0,0,0,0,0,0,0,0,0,0,0,0,0,0,0,0,0,0,0,0,0,0,0,0,0,0,0,0,0,0,0,0,0,0,0,0,0,0,0,0,0,0,0,0,0,0,0],"sum_hessian":[7.0425674E3,3.2883809E3,3.7541863E3,1.7669644E3,1.5214165E3,1.679665E3,2.0745215E3,6.295568E2,1.1374076E3,2.6201187E2,1.2594047E3,1.5934006E2,1.520325E3,2.679809E2,1.8065405E3,5.9332806E2,3.622872E1,9.9118616E2,1.4622139E2,1.8907112E2,7.294076E1,8.684814E2,3.9092325E2,1.8614132E1,1.4072592E2,1.9962474E2,1.3207002E3,3.437594E2,1.4627811E3,2.9685032E0,3.326022E1,1.2354619E2,8.6763995E2,2.402901E1,1.2219238E2,1.8702782E2,2.0432987E0,4.564802E0,6.837595E1,6.48939E2,2.1954236E2,5.827987E1,3.3264337E2,1.48407955E1,3.7733355E0,5.2338528E1,8.838739E1,9.449578E1,1.0512896E2,9.991794E2,3.2152084E2,5.392107E1,2.8983832E2,2.0877165E2,1.2540094E3,2.2387585E1,1.0872633E1,1.10429756E2,1.3116436E1,6.63617E2,2.0402296E2,5.0407513E1,7.178487E1,1.0355147E0,1.0077841E0,6.3893234E1,4.482721E0,6.3678876E2,1.2150235E1,1.9567113E2,2.3871237E1,6.3486034E1,2.6915735E2,1.1320116E1,3.5206792E0,2.9945843E1,2.2392685E1,1.1641717E0,8.722322E1,8.607524E1,8.420541E0,9.651253E0,9.547771E1,2.0061852E2,7.9856085E2,7.331321E1,2.4820763E2,3.7394268E1,1.6526806E1,2.1423048E2,7.560784E1,2.3053189E2,1.02347754E3,1.8016193E1,4.371392E0,7.498182E0,3.3744514E0,2.1075819E0,1.1008854E1,3.718772E2,2.917398E2,6.8263097E0,1.9719666E2,8.901591E0,4.150592E1,1.3865507E1,5.7919365E1,5.302079E1,1.0872441E1,6.199585E2,1.6830282E1,9.510232E0,2.6400027E0,1.6942578E2,2.6245338E1,2.126883E1,2.6024084E0,2.4370022E1,3.9116013E1,2.0984328E2,5.931408E1,9.947752E0,1.3723643E0,2.1467845E0,1.3738948E0,2.7763294E1,2.1825478E0,7.101094E0,1.3194472E0,6.917366E1,2.6304045E1,1.0507386E2,9.554466E1,1.1605267E2,6.825082E2,4.9601334E1,2.3711876E1,2.3143587E2,1.6771765E1,2.5862717E1,1.15315485E1,1.3944501E1,2.5823038E0,1.7145457E2,4.277591E1,2.8396072E1,4.7211765E1,4.6984966E1,1.8354692E2,9.2266174E2,1.008158E2],"tree_param":{"num_deleted":"0","num_feature":"14","num_nodes":"151","size_leaf_vector":"0"}},{"base_weights":[-2.5714773E-3,-4.4726756E-1,4.805692E-1,-1.0736927E0,-2.534414E-1,1.3392501E0,3.8771087E-1,-1.1188158E0,-9.3430525E-1,1.15732305E-1,-2.676262E-1,-2.4097385E-2,6.3723946E-1,-1.1494339E0,-9.779769E-1,-2.6968476E-1,4.6496537E-1,-2.569402E-1,-5.059287E-1,-7.910791E-1,1.2151278E-1,9.274488E-1,3.96364E-1,-1.1710948E0,-9.1602385E-1,-4.0791818E-1,1.0680747E-1,9.140533E-1,-9.5699705E-2,-2.7415955E-1,-1.1417214E-1,-5.7353127E-1,-2.3981704E-1,-8.823378E-1,-5.446575E-1,2.2977503E-1,-1.807414E-2,6.298E-1,1.3840882E0,1.6089367E-2,4.7762668E-1,-7.1361184E-1,-1.1551846E0,-3.4729844E-1,-9.9730444E-1,2.2186711E-1,-2.7175686E-1,7.926383E-1,1.1800243E0,-2.923443E-1,-2.4754433E-1,-1.6637702E-1,-5.553597E-2,-6.978024E-1,-4.8854607E-1,-4.3835226E-1,-1.6683512E-3,-8.386519E-1,-1.1002271E0,-3.414629E-1,-7.303293E-1,1.10389054E-1,3.5803762E-1,1.9204149E-1,-3.2140672E-1,1.321112E0,3.607977E-1,1.367417E-1,-4.416754E-1,4.4901127E-1,1.2991621E0,-2.7476093E-1,-7.9087526E-1,-2.8999385E-1,-6.6712993E-1,-2.0069088E-1,-2.8037423E-1,-1.21125445E-1,-2.553077E-1,4.0981613E-2,-1.1052126E-1,-5.445542E-1,-9.244492E-1,-7.0441103E-1,4.519735E-1,5.325034E-1,-4.5679298E-1,-8.970636E-1,-4.261292E-1,-3.194189E-1,-1.1642381E0,-5.382087E-1,-1.035221E0,8.4700817E-1,7.89102E-2,2.8982556E-1,5.181157E-1,1.6534904E-1,8.90815E-1,-4.322151E-1,-1.19031645E-1,4.4811627E-1,-5.0061125E-1,-5.2071813E-2,4.052864E-1,-5.9942615E-1,5.837475E-1,5.5158967E-1,3.0421227E-1],"categories":[],"categories_nodes":[],"categories_segments":[],"categories_sizes":[],"default_left":[1,1,1,1,1,0,1,1,0,1,1,1,1,1,0,1,1,1,1,1,1,1,1,0,1,1,1,1,0,1,1,1,1,1,1,1,1,1,0,1,1,0,0,1,0,0,0,0,0,1,1,1,1,1,0,1,1,1,1,0,1,1,1,1,1,0,1,1,1,1,0,0,0,0,0,0,0,0,0,0,0,0,0,0,0,0,0,0,0,0,0,0,0,0,0,0,0,0,0,0,0,0,0,0,0,0,0,0,0],"id":9,"left_children":[1,3,5,7,9,-1,11,13,-1,15,17,19,21,23,-1,25,27,29,31,33,35,37,39,-1,41,43,45,47,-1,49,51,53,55,57,59,61,63,65,-1,67,69,-1,-1,71,-1,-1,-1,-1,-1,73,75,77,79,81,-1,83,85,87,89,-1,91,93,95,97,99,-1,101,103,105,107,-1,-1,-1,-1,-1,-1,-1,-1,-1,-1,-1,-1,-1,-1,-1,-1,-1,-1,-1,-1,-1,-1,-1,-1,-1,-1,-1,-1,-1,-1,-1,-1,-1,-1,-1,-1,-1,-1,-1],"loss_changes":[1.4685475E3,4.3187762E2,2.606944E2,4.2425537E0,1.4271881E1,0E0,3.0394308E2,1.5928345E0,0E0,1.3763411E1,6.539673E0,1.2483564E2,1.2838025E2,1.5150757E0,0E0,2.5832443E0,1.3564035E1,6.1362305E0,1.8660889E0,3.530136E0,1.4203174E1,1.12565E2,3.1147095E1,0E0,1.5020752E0,9.36326E-1,6.656462E-1,2.7435303E-2,0E0,1.0108032E0,8.2255554E-1,5.8947945E-1,1.1472831E0,3.0078125E-1,1.6676159E0,8.064627E0,2.6278759E1,9.382448E1,0E0,9.921446E0,1.8943634E1,0E0,0E0,8.794861E-1,0E0,0E0,0E0,0E0,0E0,9.729309E-1,1.3511314E0,5.4554224E-1,6.917044E-1,6.5818214E-1,0E0,3.4541397E0,3.1710436E0,2.2990417E0,5.408001E-1,0E0,9.466295E-1,6.3226275E0,2.6308594E0,4.3970423E0,3.7317696E0,0E0,2.7785473E1,7.224488E0,6.4125586E0,1.1777206E1,0E0,0E0,0E0,0E0,0E0,0E0,0E0,0E0,0E0,0E0,0E0,0E0,0E0,0E0,0E0,0E0,0E0,0E0,0E0,0E0,0E0,0E0,0E0,0E0,0E0,0E0,0E0,0E0,0E0,0E0,0E0,0E0,0E0,0E0,0E0,0E0,0E0,0E0,0E0],"parents":[2147483647,0,0,1,1,2,2,3,3,4,4,6,6,7,7,9,9,10,10,11,11,12,12,13,13,15,15,16,16,17,17,18,18,19,19,20,20,21,21,22,22,24,24,25,25,26,26,27,27,29,29,30,30,31,31,32,32,33,33,34,34,35,35,36,36,37,37,39,39,40,40,43,43,49,49,50,50,51,51,52,52,53,53,55,55,56,56,57,57,58,58,60,60,61,61,62,62,63,63,64,64,66,66,67,67,68,68,69,69],"right_children":[2,4,6,8,10,-1,12,14,-1,16,18,20,22,24,-1,26,28,30,32,34,36,38,40,-1,42,44,46,48,-1,50,52,54,56,58,60,62,64,66,-1,68,70,-1,-1,72,-1,-1,-1,-1,-1,74,76,78,80,82,-1,84,86,88,90,-1,92,94,96,98,100,-1,102,104,106,108,-1,-1,-1,-1,-1,-1,-1,-1,-1,-1,-1,-1,-1,-1,-1,-1,-1,-1,-1,-1,-1,-1,-1,-1,-1,-1,-1,-1,-1,-1,-1,-1,-1,-1,-1,-1,-1,-1,-1],"split_conditions":[-5.868801E-1,-6.534897E-1,-1.739751E-1,2.0407987E-1,-5.7081234E-1,1.33925E-1,1.01294875E-1,2.0696208E-1,-9.343053E-2,2.0407987E-1,1.824658E0,-6.534897E-1,1.8905498E0,3.0387533E-1,-9.779769E-2,2.0696208E-1,2.0696208E-1,3.0387533E-1,3.3454409E0,2.0407987E-1,-3.634011E-2,6.5183485E-1,-6.534897E-1,-1.1710948E-1,1.824658E0,3.3685112E0,3.0387533E-1,3.0387533E-1,-9.569971E-3,2.0696208E-1,2.0696208E-1,2.0696208E-1,2.0696208E-1,1.824658E0,-3.634011E-2,2.0696208E-1,2.0407987E-1,5.1419985E-1,1.3840882E-1,1.824658E0,3.3685112E0,-7.1361184E-2,-1.15518466E-1,3.0387533E-1,-9.973045E-2,2.2186711E-2,-2.7175685E-2,7.926383E-2,1.1800243E-1,3.3685112E0,2.0407987E-1,2.0407987E-1,2.0407987E-1,2.0407987E-1,-4.8854608E-2,2.0407987E-1,2.0407987E-1,3.0387533E-1,-3.634011E-2,-3.414629E-2,2.0696208E-1,-5.7081234E-1,3.0387533E-1,3.3454409E0,3.0387533E-1,1.321112E-1,1.824658E0,2.0696208E-1,3.3454409E0,2.0407987E-1,1.2991622E-1,-2.7476093E-2,-7.9087526E-2,-2.8999386E-2,-6.6713E-2,-2.0069089E-2,-2.8037423E-2,-1.2112545E-2,-2.553077E-2,4.0981616E-3,-1.1052126E-2,-5.445542E-2,-9.244492E-2,-7.0441104E-2,4.519735E-2,5.3250343E-2,-4.5679297E-2,-8.970636E-2,-4.261292E-2,-3.194189E-2,-1.1642381E-1,-5.3820875E-2,-1.035221E-1,8.4700815E-2,7.891021E-3,2.8982555E-2,5.1811572E-2,1.6534904E-2,8.90815E-2,-4.322151E-2,-1.1903165E-2,4.481163E-2,-5.0061125E-2,-5.2071814E-3,4.052864E-2,-5.9942614E-2,5.837475E-2,5.515897E-2,3.0421227E-2],"split_indices":[2,6,2,12,7,0,2,11,0,12,5,6,2,5,0,11,11,5,5,12,2,2,6,0,5,8,5,5,0,11,11,11,11,5,2,11,12,2,0,5,8,0,0,5,0,0,0,0,0,8,12,12,12,12,0,12,12,5,2,0,11,7,5,5,5,0,5,11,5,12,0,0,0,0,0,0,0,0,0,0,0,0,0,0,0,0,0,0,0,0,0,0,0,0,0,0,0,0,0,0,0,0,0,0,0,0,0,0,0],"split_type":[0,0,0,0,0,0,0,0,0,0,0,0,0,0,0,0,0,0,0,0,0,0,0,0,0,0,0,0,0,0,0,0,0,0,0,0,0,0,0,0,0,0,0,0,0,0,0,0,0,0,0,0,0,0,0,0,0,0,0,0,0,0,0,0,0,0,0,0,0,0,0,0,0,0,0,0,0,0,0,0,0,0,0,0,0,0,0,0,0,0,0,0,0,0,0,0,0,0,0,0,0,0,0,0,0,0,0,0,0],"sum_hessian":[6.8331973E3,3.558203E3,3.2749944E3,8.397342E2,2.7184688E3,3.1828864E2,2.9567058E3,6.2906384E2,2.1067033E2,1.0032227E2,2.6181465E3,1.1159337E3,1.8407721E3,5.1084567E2,1.1821818E2,4.779881E1,5.252346E1,2.5077708E3,1.10375786E2,1.7734743E2,9.3858624E2,8.335961E2,1.0071759E3,4.6378796E2,4.7057697E1,3.4901028E1,1.2897781E1,2.8813662E1,2.3709799E1,2.237039E3,2.707315E2,8.709508E1,2.3280712E1,1.2753575E2,4.981167E1,5.2824133E2,4.1034494E2,5.0609207E2,3.275041E2,1.7754393E2,8.2963196E2,2.7644657E1,1.9413038E1,3.308719E1,1.8138398E0,1.02088585E1,2.6889231E0,2.2515545E1,6.2981176E0,1.3230712E3,9.13968E2,1.42248E2,1.2848352E2,3.2443348E1,5.465173E1,1.2237838E1,1.1042873E1,1.1027502E2,1.7260736E1,2.513911E1,2.467256E1,2.7455136E2,2.5368994E2,2.4263844E2,1.6770648E2,1.4067046E2,3.6542163E2,1.4106494E2,3.6478977E1,8.032017E2,2.6430264E1,2.9828754E1,3.2584348E0,1.316588E3,6.4831734E0,3.794895E2,5.344785E2,9.584178E1,4.6406216E1,4.6723255E1,8.176026E1,2.138586E1,1.10574875E1,9.5829525E0,2.654886E0,5.0020447E0,6.0408287E0,9.5568306E1,1.4706709E1,1.7616878E0,1.5499048E1,1.6831696E1,7.8408637E0,1.019015E1,2.643612E2,1.7985928E2,7.3830666E1,2.3490205E2,7.736394E0,1.07635864E2,6.0070614E1,3.3222473E2,3.319689E1,8.3301704E1,5.776324E1,3.1975338E1,4.5036407E0,4.6849884E2,3.3470288E2],"tree_param":{"num_deleted":"0","num_feature":"14","num_nodes":"109","size_leaf_vector":"0"}},{"base_weights":[2.458019E-3,-4.090389E-1,4.5067188E-1,-1.0175425E0,-2.3120259E-1,1.2982799E0,3.647402E-1,-1.0259583E0,1.2341341E0,-2.5056112E-1,1.3891658E0,-1.9373594E-2,6.0247785E-1,-1.0884151E0,-8.441663E-1,-1.8967548E-1,-4.4382265E-1,-7.923184E-1,1.2030046E-1,1.2650167E0,4.875424E-1,-1.1142486E0,-9.672128E-1,-1.1534277E0,-8.096514E-1,-6.802698E-1,-1.5768613E-1,-2.837796E-1,-5.5263084E-1,-9.1820717E-1,-4.365685E-1,8.013347E-2,1.3063235E0,7.788577E-2,5.534329E-1,-1.1974708E0,-1.0812681E0,-5.529313E-1,-1.0747656E0,-2.9346964E-1,-1.2523637E0,-4.19963E-1,-8.410212E-1,-8.427377E-1,-3.2136393E-1,-9.854949E-2,-4.2746583E-1,-6.5428114E-1,-2.3265994E-1,-4.7018465E-1,-6.2252104E-1,-1.2463064E0,-8.1842935E-1,-1.5367238E-1,-9.317022E-1,1.9708182E-1,-2.8610116E-1,-1.5763159E-1,6.0761356E-1,6.156639E-1,7.5698115E-2,-9.4587004E-1,3.0357195E-2,-2.5300637E-1,-6.455327E-1,-8.779317E-1,-7.0380926E-1,-9.1822773E-1,-5.633514E-1,5.0688647E-3,-5.6930506E-1,-3.2418758E-1,-6.7278564E-2,-3.627974E-1,-6.206586E-1,-8.361559E-1,-1.746249E-1,1.107279E-1,-2.724438E-1,-5.528054E-1,-3.6354646E-1,-6.920337E-1,-5.1960033E-1,-9.688029E-1,-6.958831E-1,2.548157E-2,-4.3687698E-1,-1.1539675E0,-6.1042565E-1,2.7284718E-1,-3.9645836E-1,-1.13207385E-1,-4.853341E-1,-7.5421494E-1,-1.05439514E-1,-8.2626694E-1,7.572668E-1,5.5099434E-1,1.4055588E0,2.7674145E-1,-7.1969867E-1],"categories":[],"categories_nodes":[],"categories_segments":[],"categories_sizes":[],"default_left":[1,1,1,1,1,0,1,1,0,1,0,1,1,1,1,1,1,1,1,0,1,1,1,1,1,1,1,1,1,1,1,1,0,1,1,0,0,1,0,0,0,1,1,1,1,1,1,1,1,1,1,0,1,1,1,1,1,1,1,1,1,0,0,0,0,0,0,0,0,0,0,0,0,0,0,0,0,0,0,0,0,0,0,0,0,0,0,0,0,0,0,0,0,0,0,0,0,0,0,0,0],"id":10,"left_children":[1,3,5,7,9,-1,11,13,-1,15,-1,17,19,21,23,25,27,29,31,-1,33,35,37,39,41,43,45,47,49,51,53,55,-1,57,59,-1,-1,61,-1,-1,-1,63,65,67,69,71,73,75,77,79,81,-1,83,85,87,89,91,93,95,97,99,-1,-1,-1,-1,-1,-1,-1,-1,-1,-1,-1,-1,-1,-1,-1,-1,-1,-1,-1,-1,-1,-1,-1,-1,-1,-1,-1,-1,-1,-1,-1,-1,-1,-1,-1,-1,-1,-1,-1,-1],"loss_changes":[1.2398604E3,3.7902533E2,2.3388641E2,1.6280518E1,8.5461975E1,0E0,2.669197E2,8.050171E0,0E0,3.1477036E1,0E0,1.2083656E2,1.3686652E2,7.522583E-1,1.2697601E0,3.192984E1,1.1019966E1,7.270706E0,4.5061234E1,0E0,4.1529938E1,9.5825195E-3,4.3189163E0,1.19557E0,1.9581375E0,6.998146E0,3.055304E1,4.806488E0,1.9027786E0,3.0923462E0,6.3953E0,3.9378918E1,0E0,2.686499E1,3.939319E1,0E0,0E0,5.7096376E0,0E0,0E0,0E0,4.424019E-1,2.6329803E-1,1.2795982E0,3.2777338E0,1.108585E1,4.078747E0,2.575077E0,3.1944132E0,1.375164E0,1.0936203E0,0E0,1.1545639E0,1.5791225E0,4.935007E-1,3.1428473E1,7.6135025E0,4.5699434E0,1.4840284E1,5.9174194E1,2.483018E1,0E0,0E0,0E0,0E0,0E0,0E0,0E0,0E0,0E0,0E0,0E0,0E0,0E0,0E0,0E0,0E0,0E0,0E0,0E0,0E0,0E0,0E0,0E0,0E0,0E0,0E0,0E0,0E0,0E0,0E0,0E0,0E0,0E0,0E0,0E0,0E0,0E0,0E0,0E0,0E0],"parents":[2147483647,0,0,1,1,2,2,3,3,4,4,6,6,7,7,9,9,11,11,12,12,13,13,14,14,15,15,16,16,17,17,18,18,20,20,21,21,22,22,23,23,24,24,25,25,26,26,27,27,28,28,29,29,30,30,31,31,33,33,34,34,37,37,41,41,42,42,43,43,44,44,45,45,46,46,47,47,48,48,49,49,50,50,52,52,53,53,54,54,55,55,56,56,57,57,58,58,59,59,60,60],"right_children":[2,4,6,8,10,-1,12,14,-1,16,-1,18,20,22,24,26,28,30,32,-1,34,36,38,40,42,44,46,48,50,52,54,56,-1,58,60,-1,-1,62,-1,-1,-1,64,66,68,70,72,74,76,78,80,82,-1,84,86,88,90,92,94,96,98,100,-1,-1,-1,-1,-1,-1,-1,-1,-1,-1,-1,-1,-1,-1,-1,-1,-1,-1,-1,-1,-1,-1,-1,-1,-1,-1,-1,-1,-1,-1,-1,-1,-1,-1,-1,-1,-1,-1,-1,-1],"split_conditions":[-5.868801E-1,-6.534897E-1,-1.739751E-1,-5.970365E-1,-5.970365E-1,1.2982799E-1,1.01294875E-1,2.0407987E-1,1.2341341E-1,7.648516E-1,1.3891658E-1,-6.534897E-1,1.0659425E0,2.0696208E-1,-1.1520877E0,-1.2292243E0,-1.4931169E-1,2.363714E-1,2.7821565E-1,1.2650166E-1,-6.534897E-1,-9.978145E-1,-9.2067784E-1,-1.7691807E0,-9.2067784E-1,2.0696208E-1,1.0848742E0,-1.306361E0,6.2205446E-1,-1.6149075E0,1.0848742E0,7.648516E-1,1.3063236E-1,2.02872E0,2.8164468E0,-1.1974708E-1,-1.0812681E-1,-1.1520877E0,-1.07476555E-1,-2.9346963E-2,-1.2523638E-1,2.0696208E-1,8.5346437E-1,2.0407987E-1,-1.5377707E0,-8.4354126E-1,2.0105135E0,2.0696208E-1,-1.1520877E0,2.0696208E-1,1.316284E0,-1.24630645E-1,-5.0951123E-1,-3.634011E-2,-5.0951123E-1,1.2391474E0,1.9069043E-1,-1.4606342E0,-1.4606342E0,2.02872E0,7.648516E-1,-9.4587006E-2,3.0357195E-3,-2.5300637E-2,-6.4553276E-2,-8.779317E-2,-7.0380926E-2,-9.182277E-2,-5.633514E-2,5.0688646E-4,-5.693051E-2,-3.2418758E-2,-6.7278566E-3,-3.627974E-2,-6.206586E-2,-8.361559E-2,-1.746249E-2,1.107279E-2,-2.724438E-2,-5.5280544E-2,-3.6354646E-2,-6.920337E-2,-5.1960032E-2,-9.6880294E-2,-6.958831E-2,2.548157E-3,-4.3687697E-2,-1.1539675E-1,-6.1042566E-2,2.7284717E-2,-3.9645836E-2,-1.1320739E-2,-4.853341E-2,-7.54215E-2,-1.0543952E-2,-8.262669E-2,7.572668E-2,5.5099435E-2,1.4055589E-1,2.7674144E-2,-7.196987E-2],"split_indices":[2,6,2,13,13,0,2,12,0,9,0,6,13,11,3,3,3,3,13,0,6,3,3,3,3,11,3,3,3,3,3,9,0,13,13,0,0,3,0,0,0,11,3,12,3,3,3,11,3,11,3,0,13,2,13,3,13,3,3,13,9,0,0,0,0,0,0,0,0,0,0,0,0,0,0,0,0,0,0,0,0,0,0,0,0,0,0,0,0,0,0,0,0,0,0,0,0,0,0,0,0],"split_type":[0,0,0,0,0,0,0,0,0,0,0,0,0,0,0,0,0,0,0,0,0,0,0,0,0,0,0,0,0,0,0,0,0,0,0,0,0,0,0,0,0,0,0,0,0,0,0,0,0,0,0,0,0,0,0,0,0,0,0,0,0,0,0,0,0,0,0,0,0,0,0,0,0,0,0,0,0,0,0,0,0,0,0,0,0,0,0,0,0,0,0,0,0,0,0,0,0,0,0,0,0],"sum_hessian":[6.720347E3,3.503727E3,3.2166199E3,7.9132477E2,2.712402E3,2.947891E2,2.9218308E3,7.889205E2,2.404298E0,2.681215E3,3.1187105E1,1.1173853E3,1.8044456E3,5.8347363E2,2.0544682E2,2.0403873E3,6.408278E2,1.7029791E2,9.470874E2,2.652753E2,1.5391703E3,4.7420645E2,1.0926721E2,1.7371946E1,1.8807487E2,1.2365941E2,1.9167279E3,2.60813E2,3.8001483E2,1.24618324E2,4.5679592E1,9.170957E2,2.9991673E1,2.135655E2,1.3256047E3,1.24567955E2,3.496385E2,2.3786242E1,8.5480965E1,2.2016165E0,1.517033E1,1.5083907E1,1.7299097E2,8.419728E1,3.946213E1,1.5732347E3,3.4349316E2,3.019181E1,2.3062117E2,1.7789177E2,2.0212305E2,2.6380505E1,9.823782E1,2.9904137E1,1.5775454E1,6.9547437E2,2.2162137E2,1.4832329E2,6.524222E1,1.1725736E3,1.530312E2,1.3840691E1,9.945551E0,9.887358E0,5.1965494E0,1.3206625E2,4.092471E1,6.448648E1,1.97108E1,1.7457542E1,2.2004587E1,1.9035373E2,1.382881E3,2.5950543E2,8.3987724E1,2.1352274E1,8.839538E0,2.375974E1,2.0686143E2,9.78759E1,8.001587E1,1.17225204E2,8.489785E1,4.1009933E1,5.7227886E1,1.887434E1,1.1029798E1,7.7925777E0,7.9828763E0,6.172258E2,7.824851E1,1.1949347E2,1.0212789E2,1.0850101E1,1.3747319E2,5.7384934E0,5.9503723E1,1.0854077E3,8.716591E1,1.22675896E2,3.035531E1],"tree_param":{"num_deleted":"0","num_feature":"14","num_nodes":"101","size_leaf_vector":"0"}},{"base_weights":[-8.633636E-3,-5.517447E-1,3.0090988E-1,-8.0425864E-1,-2.3752242E-2,-4.0482506E-2,4.843288E-1,-1.0314825E0,-6.785697E-1,7.996405E-1,-1.3953155E-1,-4.746341E-1,6.2392384E-2,9.593185E-1,3.4137565E-1,-1.2078347E0,-9.920997E-1,-6.276575E-1,-8.644741E-1,3.8626102E-1,1.4454297E0,-6.461908E-1,1.580549E-1,-5.9438545E-1,4.349539E-1,8.942723E-2,-5.665574E-1,7.7312994E-1,1.3016944E0,4.240142E-1,4.2589847E-3,-1.0089489E0,-4.6043953E-1,-6.09072E-1,-9.215492E-1,1.7667997E-1,-8.704262E-1,-4.7421896E-1,6.5065634E-1,-1.061549E0,-4.5105398E-1,1.3645188E0,-1.2782802E-1,-4.5567763E-1,-7.6645374E-1,6.382077E-1,-2.9412818E-1,2.064448E-1,-2.8131608E-2,-3.740889E-1,-6.2816316E-1,1.3264182E0,2.929235E-1,1.3049865E0,4.1784832E-1,5.174948E-1,1.0740493E-1,8.4212884E-2,-2.1267931E-1,-1.0239869E0,-7.666991E-1,-5.726308E-1,3.0118132E-1,-5.425446E-1,-7.2172195E-1,-1.0492694E0,-3.4128746E-1,-7.7280027E-1,-9.393802E-1,-2.2670113E-2,-6.483157E-1,7.649969E-1,-4.54801E-2,-1.088713E0,3.882189E-1,-3.7951705E-1,-7.6216817E-1,1.3642995E-2,-1.1850723E0,-1.1055192E0,-4.0102136E-1,-7.9898995E-1,-5.3140134E-1,7.1953785E-1,-2.0411219E-1,-8.3719414E-1,7.434222E-1,2.345493E-1,-4.5024726E-1,2.4663375E-1,-6.314523E-2,-4.2517537E-1,-1.6221312E-1,-7.815473E-1,-4.5708427E-1,-6.5143424E-1,4.8777512E-1,5.4861146E-1,-2.1001917E-1,2.538925E-1,-3.6558923E-1,9.456818E-2,-1.1506848E0,-1.7996898E-1,-7.0488065E-1,-8.902858E-1,-1.0537649E0,-5.691015E-1,-1.137228E0,-1.2666225E-1,-7.6510394E-1,-7.164814E-1,-4.3172556E-1,-7.295819E-1,1.3128904E-1,-1.1756845E0,-7.739759E-1,-3.585344E-2,-6.9680136E-1,-1.0138856E0,-6.891952E-1,-1.0156084E0,-7.115572E-1,-6.075639E-1,8.355914E-1,-7.6949173E-1,-2.780015E-1,7.9790956E-1,-1.880769E-2,5.076242E-1,-5.115714E-1,-1.1264654E0,-7.22731E-1,-8.1260216E-1,-3.12474E-1,-4.7910128E-2,-8.072726E-1,9.500991E-2,-9.430093E-1,-1.2442932E0,-2.8072482E-1,-3.6804846E-1,-1.0513217E0,-4.98724E-1,-8.325204E-1,-3.159838E-1,-6.827677E-1,8.316146E-1,4.229546E-1,1.8334769E-1,9.3657273E-1,-1.2280533E-1,2.8363872E-1,2.0083803E-1,-8.727223E-1,-3.4385535E-1,2.7850717E-1,8.231695E-3,-2.9265597E-1,-6.087391E-1,-5.9734383E-3,5.926813E-1,-6.073948E-1,4.361763E-1,-7.1148586E-1,-7.7070355E-1,1.268593E-1,-1.5363505E-1,5.878602E-1,5.541468E-1,-1.0436981E0,2.7660197E-1,-5.181886E-1,-3.4966198E-1,3.2431433E-1,-1.3184717E0,-2.7710995E-1,1.4931896E-1,-5.5203706E-2,-2.6734135E-1,3.8169146E-1,-2.8087562E-1,-1.1588473E0],"categories":[],"categories_nodes":[],"categories_segments":[],"categories_sizes":[],"default_left":[1,1,1,1,1,1,1,1,1,1,1,1,1,1,1,0,1,1,1,1,0,1,1,1,1,1,1,1,1,1,1,1,1,1,1,0,1,1,1,1,1,0,1,1,1,1,1,1,1,1,1,0,1,0,0,1,1,1,1,1,1,1,0,1,1,1,1,1,1,1,1,1,1,1,0,1,1,1,1,0,1,1,1,1,0,0,1,1,1,1,1,1,1,0,1,1,1,1,1,1,1,1,0,1,1,0,0,0,0,0,0,0,0,0,0,0,0,0,0,0,0,0,0,0,0,0,0,0,0,0,0,0,0,0,0,0,0,0,0,0,0,0,0,0,0,0,0,0,0,0,0,0,0,0,0,0,0,0,0,0,0,0,0,0,0,0,0,0,0,0,0,0,0,0,0,0,0,0,0,0,0,0,0],"id":11,"left_children":[1,3,5,7,9,11,13,15,17,19,21,23,25,27,29,-1,31,33,35,37,-1,39,41,43,45,47,49,51,53,55,57,59,61,63,65,-1,67,69,71,73,75,-1,77,79,81,83,85,87,89,91,93,-1,95,-1,-1,97,99,101,103,105,107,109,-1,111,113,115,117,119,121,123,125,127,129,131,-1,133,135,137,139,-1,141,143,145,147,-1,-1,149,151,153,155,157,159,161,-1,163,165,167,169,171,173,175,177,-1,179,181,-1,-1,-1,-1,-1,-1,-1,-1,-1,-1,-1,-1,-1,-1,-1,-1,-1,-1,-1,-1,-1,-1,-1,-1,-1,-1,-1,-1,-1,-1,-1,-1,-1,-1,-1,-1,-1,-1,-1,-1,-1,-1,-1,-1,-1,-1,-1,-1,-1,-1,-1,-1,-1,-1,-1,-1,-1,-1,-1,-1,-1,-1,-1,-1,-1,-1,-1,-1,-1,-1,-1,-1,-1,-1,-1,-1,-1,-1],"loss_changes":[1.1099675E3,3.19547E2,2.633586E2,4.5606445E1,7.4135315E1,6.571694E1,1.8543506E2,2.7990112E0,9.365723E0,2.503532E1,1.0287228E2,3.0959251E1,2.028268E1,3.9302612E1,5.8625458E1,0E0,3.8000793E0,3.9474487E0,1.5320587E0,1.3917833E1,0E0,1.9979149E1,1.4855582E2,5.6052856E0,5.1324368E0,1.5711479E1,3.48073E-1,1.0909134E2,9.857178E-2,4.9966675E1,7.221626E0,8.928833E-1,1.5792179E0,5.448822E0,3.136032E0,0E0,7.6390076E-1,1.1360879E0,3.7106133E0,3.570816E0,3.5714455E0,0E0,5.217219E1,4.550476E0,4.1578674E-1,1.9560337E0,5.1068716E0,1.06677E1,5.503225E0,8.6848974E-2,5.8161926E-1,0E0,4.1145752E1,0E0,0E0,2.9648376E1,2.6874466E1,3.9986928E0,1.678443E0,7.7667236E-1,1.6152878E0,1.1644039E0,0E0,9.212479E0,2.0154724E0,4.1805267E-1,1.0595124E0,1.2614098E0,1.4492722E0,3.072689E0,2.585454E-1,1.0397091E0,2.182584E0,2.7368164E-1,0E0,3.8989735E0,9.7413635E-1,2.410648E1,1.8553658E0,0E0,2.427599E0,5.366249E-1,3.1728077E-1,4.5614815E-1,0E0,0E0,1.8139374E-1,9.673555E0,6.7299795E0,1.3130286E0,8.3036175E0,8.4143806E-1,1.8432326E0,0E0,4.7012687E0,3.6603374E0,1.1934471E1,1.160791E1,8.27629E0,1.268236E1,7.3752785E0,2.4894578E0,0E0,5.3276596E0,9.534917E-1,0E0,0E0,0E0,0E0,0E0,0E0,0E0,0E0,0E0,0E0,0E0,0E0,0E0,0E0,0E0,0E0,0E0,0E0,0E0,0E0,0E0,0E0,0E0,0E0,0E0,0E0,0E0,0E0,0E0,0E0,0E0,0E0,0E0,0E0,0E0,0E0,0E0,0E0,0E0,0E0,0E0,0E0,0E0,0E0,0E0,0E0,0E0,0E0,0E0,0E0,0E0,0E0,0E0,0E0,0E0,0E0,0E0,0E0,0E0,0E0,0E0,0E0,0E0,0E0,0E0,0E0,0E0,0E0,0E0,0E0,0E0,0E0,0E0,0E0,0E0,0E0,0E0,0E0],"parents":[2147483647,0,0,1,1,2,2,3,3,4,4,5,5,6,6,7,7,8,8,9,9,10,10,11,11,12,12,13,13,14,14,16,16,17,17,18,18,19,19,21,21,22,22,23,23,24,24,25,25,26,26,27,27,28,28,29,29,30,30,31,31,32,32,33,33,34,34,36,36,37,37,38,38,39,39,40,40,42,42,43,43,44,44,45,45,46,46,47,47,48,48,49,49,50,50,52,52,55,55,56,56,57,57,58,58,59,59,60,60,61,61,63,63,64,64,65,65,66,66,67,67,68,68,69,69,70,70,71,71,72,72,73,73,75,75,76,76,77,77,78,78,80,80,81,81,82,82,83,83,86,86,87,87,88,88,89,89,90,90,91,91,92,92,94,94,95,95,96,96,97,97,98,98,99,99,100,100,101,101,103,103,104,104],"right_children":[2,4,6,8,10,12,14,16,18,20,22,24,26,28,30,-1,32,34,36,38,-1,40,42,44,46,48,50,52,54,56,58,60,62,64,66,-1,68,70,72,74,76,-1,78,80,82,84,86,88,90,92,94,-1,96,-1,-1,98,100,102,104,106,108,110,-1,112,114,116,118,120,122,124,126,128,130,132,-1,134,136,138,140,-1,142,144,146,148,-1,-1,150,152,154,156,158,160,162,-1,164,166,168,170,172,174,176,178,-1,180,182,-1,-1,-1,-1,-1,-1,-1,-1,-1,-1,-1,-1,-1,-1,-1,-1,-1,-1,-1,-1,-1,-1,-1,-1,-1,-1,-1,-1,-1,-1,-1,-1,-1,-1,-1,-1,-1,-1,-1,-1,-1,-1,-1,-1,-1,-1,-1,-1,-1,-1,-1,-1,-1,-1,-1,-1,-1,-1,-1,-1,-1,-1,-1,-1,-1,-1,-1,-1,-1,-1,-1,-1,-1,-1,-1,-1,-1,-1],"split_conditions":[-2.1929589E-1,-3.1540138E-1,-3.1540138E-1,-5.7081234E-1,-8.4565185E-2,-5.7081234E-1,2.6168913E-1,-1.1520877E0,7.648516E-1,-1.9998328E-1,3.0852916E-2,7.648516E-1,1.7791038E0,3.0852916E-2,1.0077376E0,-1.2078347E-1,7.648516E-1,8.879689E-1,-4.308195E-1,-5.7081234E-1,1.4454298E-1,-5.7081234E-1,2.6168913E-1,2.0696208E-1,2.363714E-1,2.0696208E-1,1.933377E0,-8.4565185E-2,2.5119016E0,7.648516E-1,1.8562403E0,8.879689E-1,1.2391474E0,3.1350803E-1,9.30601E-1,1.7667998E-2,-7.217506E-2,-7.664046E-1,7.648516E-1,7.648516E-1,7.648516E-1,1.3645189E-1,1.0187646E1,-1.6149075E0,1.0077376E0,8.879689E-1,1.1620109E0,8.879689E-1,-1.1520877E0,7.648516E-1,2.2419233E0,1.3264182E-1,-5.7081234E-1,1.3049865E-1,4.1784834E-2,3.3766932E0,8.879689E-1,8.052411E0,3.167563E0,-6.89268E-1,3.3766932E0,-4.5785815E-1,3.0118132E-2,-6.89268E-1,2.8590164E0,4.961552E-3,1.8948087E0,-9.978145E-1,2.0696208E-1,-9.978145E-1,7.763277E-1,1.7019671E0,-2.264483E-1,8.879689E-1,3.882189E-2,-1.1520877E0,-1.3834975E0,3.3766932E0,7.648516E-1,-1.10551916E-1,1.547694E0,-1.306361E0,1.316284E0,2.0696208E-1,-2.041122E-2,-8.371942E-2,1.5862622E0,-1.2292243E0,-6.1213136E-1,-2.0005906E0,7.648516E-1,1.8562403E0,1.8562403E0,-7.8154735E-2,2.31906E0,8.879689E-1,-9.978145E-1,9.783682E0,-6.1213136E-1,-1.1520877E0,-5.7081234E-1,7.648516E-1,-1.1506849E-1,2.7047431E0,8.879689E-1,-8.902858E-2,-1.053765E-1,-5.6910153E-2,-1.137228E-1,-1.2666225E-2,-7.651039E-2,-7.164814E-2,-4.3172557E-2,-7.295819E-2,1.3128904E-2,-1.1756845E-1,-7.739759E-2,-3.5853442E-3,-6.968014E-2,-1.01388566E-1,-6.8919525E-2,-1.01560846E-1,-7.115572E-2,-6.0756393E-2,8.355914E-2,-7.694917E-2,-2.7800148E-2,7.979096E-2,-1.880769E-3,5.0762422E-2,-5.1157143E-2,-1.1264654E-1,-7.22731E-2,-8.126022E-2,-3.1247402E-2,-4.791013E-3,-8.0727264E-2,9.500991E-3,-9.430093E-2,-1.2442932E-1,-2.8072482E-2,-3.6804847E-2,-1.0513218E-1,-4.9872402E-2,-8.325204E-2,-3.159838E-2,-6.827677E-2,8.3161466E-2,4.229546E-2,1.8334769E-2,9.365728E-2,-1.2280533E-2,2.8363872E-2,2.0083804E-2,-8.7272234E-2,-3.4385536E-2,2.7850717E-2,8.231695E-4,-2.9265597E-2,-6.0873907E-2,-5.9734384E-4,5.9268128E-2,-6.0739484E-2,4.3617632E-2,-7.114859E-2,-7.7070355E-2,1.2685931E-2,-1.5363506E-2,5.8786023E-2,5.5414684E-2,-1.0436981E-1,2.7660197E-2,-5.181886E-2,-3.4966197E-2,3.2431435E-2,-1.3184717E-1,-2.7710995E-2,1.4931897E-2,-5.520371E-3,-2.6734134E-2,3.8169146E-2,-2.8087562E-2,-1.15884736E-1],"split_indices":[1,4,4,7,4,7,4,3,9,4,4,9,3,4,3,0,9,10,4,7,0,7,4,11,3,11,3,4,3,9,3,10,3,3,3,0,3,3,9,9,9,0,4,3,3,10,3,10,3,9,3,0,7,0,0,10,10,4,3,3,10,3,0,3,3,3,3,3,11,3,3,3,3,10,0,3,3,10,9,0,3,3,3,11,0,0,3,3,3,3,9,3,3,0,3,10,3,4,3,3,7,9,0,3,10,0,0,0,0,0,0,0,0,0,0,0,0,0,0,0,0,0,0,0,0,0,0,0,0,0,0,0,0,0,0,0,0,0,0,0,0,0,0,0,0,0,0,0,0,0,0,0,0,0,0,0,0,0,0,0,0,0,0,0,0,0,0,0,0,0,0,0,0,0,0,0,0,0,0,0,0,0,0],"split_type":[0,0,0,0,0,0,0,0,0,0,0,0,0,0,0,0,0,0,0,0,0,0,0,0,0,0,0,0,0,0,0,0,0,0,0,0,0,0,0,0,0,0,0,0,0,0,0,0,0,0,0,0,0,0,0,0,0,0,0,0,0,0,0,0,0,0,0,0,0,0,0,0,0,0,0,0,0,0,0,0,0,0,0,0,0,0,0,0,0,0,0,0,0,0,0,0,0,0,0,0,0,0,0,0,0,0,0,0,0,0,0,0,0,0,0,0,0,0,0,0,0,0,0,0,0,0,0,0,0,0,0,0,0,0,0,0,0,0,0,0,0,0,0,0,0,0,0,0,0,0,0,0,0,0,0,0,0,0,0,0,0,0,0,0,0,0,0,0,0,0,0,0,0,0,0,0,0,0,0,0,0,0,0],"sum_hessian":[6.6003833E3,2.3958865E3,4.2044966E3,1.6204015E3,7.75485E2,1.4697228E3,2.734774E3,5.745352E2,1.0458662E3,9.487214E1,6.8061285E2,2.8085358E2,1.1888693E3,6.313337E2,2.1034402E3,9.946626E1,4.7506894E2,8.244554E2,2.2141089E2,5.88192E1,3.605294E1,2.5140643E2,4.292064E2,2.4848584E2,3.2367737E1,1.1406952E3,4.8173958E1,4.110548E2,2.202789E2,1.6891222E3,4.1431796E2,4.5960553E2,1.5463403E1,7.783082E2,4.6147156E1,1.0955194E0,2.2031537E2,1.3638576E1,4.5180622E1,7.893965E1,1.7246678E2,8.149858E1,3.477078E2,1.3959981E2,1.0888603E2,2.5408882E1,6.958855E0,5.712848E2,5.6941046E2,1.3395635E1,3.4778324E1,1.9017511E2,2.2087968E2,2.1898676E2,1.2921437E0,1.3035944E3,3.855278E2,3.0318802E2,1.1112994E2,4.297039E2,2.9901657E1,1.3694293E1,1.7691095E0,4.9298407E2,2.8532416E2,3.715973E1,8.987426E0,9.62504E1,1.24064964E2,4.109673E0,9.528903E0,3.872166E1,6.4589596E0,7.773223E1,1.2074152E0,1.4202885E2,3.0437939E1,3.0754233E2,4.016548E1,9.338766E0,1.3026103E2,9.353908E1,1.5346956E1,2.3304483E1,2.104398E0,4.6947E0,2.2641551E0,5.484553E2,2.2829458E1,6.367605E1,5.0573444E2,9.982083E0,3.4135516E0,1.6456013E1,1.8322311E1,3.737871E1,1.8350098E2,1.2503608E3,5.3233536E1,2.9471652E2,9.081128E1,3.0158252E2,1.6055151E0,1.0548531E2,5.644619E0,8.3899155E1,3.4580472E2,2.1155607E1,8.74605E0,4.6283293E0,9.065964E0,1.8972873E2,3.0325534E2,2.8286246E2,2.4616873E0,2.322441E1,1.3935321E1,5.4263306E0,3.561095E0,2.1918543E1,7.4331856E1,9.036989E1,3.3695076E1,2.617786E0,1.491887E0,6.367392E0,3.1615105E0,3.714396E1,1.577704E0,2.9130151E0,3.5459447E0,6.858003E1,9.152204E0,1.7548477E1,1.2448038E2,1.9304363E0,2.8507502E1,2.8426517E2,2.3277147E1,3.7344112E1,2.821368E0,1.25465385E2,4.795646E0,1.0990723E1,8.2548355E1,7.6076474E0,7.7393093E0,1.5603895E1,7.7005887E0,1.0804486E0,1.1837066E0,6.605985E1,4.8239548E2,9.19046E0,1.3638998E1,2.7597928E0,6.0916252E1,3.8649893E2,1.1923548E2,6.627736E0,3.3543472E0,1.1433867E0,2.270165E0,3.903109E0,1.4419203E1,3.2420235E1,4.958475E0,2.4696268E1,1.588047E2,1.246679E3,3.681871E0,2.068031E1,3.2553223E1,3.0379753E1,2.6433676E2,6.5346394E0,8.427664E1,2.20851E2,8.0731514E1,9.173843E1,1.3746888E1,3.7556007E0,1.8890183E0],"tree_param":{"num_deleted":"0","num_feature":"14","num_nodes":"183","size_leaf_vector":"0"}},{"base_weights":[1.7689768E-3,-3.9926526E-1,3.5279456E-1,-7.286436E-1,-4.333705E-2,6.943252E-2,5.9980774E-1,-1.0219102E0,-5.914439E-1,-6.538985E-1,6.95378E-2,9.780038E-1,-1.9133493E-2,1.2430171E0,5.1588714E-1,-1.0742314E0,-6.4276063E-1,-6.4007133E-1,-2.649089E-1,-8.9353573E-1,-1.3953786E-1,-6.9479086E-2,3.8681892E-1,4.7168434E-1,1.353164E0,-6.3052595E-1,6.0621705E-2,-6.963067E-2,6.656702E-1,-1.1239976E0,-8.344855E-1,1.1376935E0,-7.5237453E-1,-6.1900604E-1,-1.0834055E0,1.26357E0,-5.404983E-1,-8.057985E-1,-9.9172753E-1,-2.0173E-2,-1.5484202E0,8.596154E-3,-1.4729622E-1,1.2761675E0,2.4422422E-1,1.1184227E-2,1.3939476E0,-1.0353965E0,-2.9477736E-1,3.1611112E-1,-4.261563E-2,1.2204556E0,-1.2689173E-1,1.2141207E0,5.8525085E-1,-8.986374E-1,-1.3576747E-1,-1.0513355E0,-5.0568956E-1,-5.7167506E-1,-7.6963794E-1,-3.3935755E-1,-7.4076295E-1,-1.0244368E0,-6.058338E-1,1.1164423E0,-1.1465163E-1,3.944468E-2,-7.316432E-1,2.602009E-1,-1.6144115E-1,3.658722E-1,-3.058093E-1,-8.653392E-1,3.004217E-1,-1.1004303E0,-4.0436465E-1,1.3623672E0,-5.0504214E-1,-2.2324395E-1,1.3048038E0,7.7853453E-1,-8.223503E-2,1.2777308E0,2.7041963E-1,-6.723094E-1,-2.6146382E-2,6.2750196E-1,-4.5649084E-1,6.6582516E-2,-6.763594E-1,1.0952066E0,-7.363072E-1,-1.4481506E-1,-5.891899E-1,-7.939695E-1,-5.2531517E-1,-7.282839E-1,1.2112415E0,-8.369945E-1,3.1186196E-1,-5.475757E-1,3.820368E-2,2.1899828E-1,3.3462297E-2,6.1464526E-2,-8.303099E-1,5.2577865E-1,-1.0350361E0,4.2410195E-1,-1.6875519E-1,-1.9106402E-1,5.48163E-1,-5.9317726E-1,2.1523747E-1,-9.805446E-1,-2.2505615E-2,2.636438E-1,6.1551523E-1,-2.3663099E-1,-7.855415E-1,-2.867682E-1,-1.1547282E0,-6.675952E-1,2.2450083E-1,1.1897733E-1,9.2009115E-1,-1.3834396E-1,1.2529695E-1,1.9780055E-1,1.3739427E0,-1.0497568E0,3.9393143E-3,1.340687E0,-1.0794703E-1,1.005635E0,5.487942E-1,-9.6790475E-1,-7.127745E-2],"categories":[],"categories_nodes":[],"categories_segments":[],"categories_sizes":[],"default_left":[1,1,1,1,1,1,1,1,1,1,1,1,1,0,1,1,1,1,1,1,1,1,1,1,0,1,1,1,1,0,1,0,1,1,0,0,1,0,1,1,0,1,1,0,1,1,0,1,1,1,1,1,1,0,1,0,1,0,1,1,1,1,1,0,0,0,1,1,1,1,1,1,1,1,1,0,1,0,1,1,0,1,1,1,0,1,1,1,1,0,0,0,0,0,0,0,0,0,0,0,0,0,0,0,0,0,0,0,0,0,0,0,0,0,0,0,0,0,0,0,0,0,0,0,0,0,0,0,0,0,0,0,0,0,0,0,0,0,0],"id":12,"left_children":[1,3,5,7,9,11,13,15,17,19,21,23,25,-1,27,29,31,33,35,37,39,41,43,45,-1,47,49,51,53,-1,55,-1,57,59,-1,-1,61,-1,63,65,-1,67,69,-1,71,73,-1,75,77,79,81,83,85,-1,87,-1,89,-1,91,93,95,97,99,-1,-1,-1,101,103,105,107,109,111,113,115,117,-1,119,-1,121,123,-1,125,127,129,-1,131,133,135,137,-1,-1,-1,-1,-1,-1,-1,-1,-1,-1,-1,-1,-1,-1,-1,-1,-1,-1,-1,-1,-1,-1,-1,-1,-1,-1,-1,-1,-1,-1,-1,-1,-1,-1,-1,-1,-1,-1,-1,-1,-1,-1,-1,-1,-1,-1,-1,-1,-1,-1],"loss_changes":[9.101081E2,3.5373505E2,2.4126157E2,6.245288E1,1.00071815E2,1.2931029E2,9.8773254E1,9.19104E0,1.6821442E1,2.7800179E1,5.4095963E1,2.6473358E1,7.147437E1,0E0,1.4307654E2,4.266815E0,1.3130392E1,8.020691E0,5.9825592E1,5.307312E-1,1.2276951E1,5.1851254E0,4.706981E1,2.6435421E1,0E0,2.2687103E1,3.421957E1,2.4763227E1,5.6572937E1,0E0,3.4132347E0,0E0,3.8820763E0,5.910797E0,0E0,0E0,4.568531E0,0E0,2.4409485E-1,7.4823503E0,0E0,9.776151E0,2.5054035E0,0E0,2.1739487E1,1.1046859E1,0E0,2.68544E0,3.339331E1,1.993775E2,3.014193E1,4.2995644E-1,1.7558802E1,0E0,5.0226196E1,0E0,8.993916E-1,0E0,1.362395E1,5.0112305E0,8.318329E-1,3.7996716E1,6.2489433E0,0E0,0E0,0E0,4.2651243E0,4.3385488E-1,1.3913584E0,5.607724E0,1.8431253E0,2.7023582E1,8.974616E0,1.0279894E0,2.170558E-1,0E0,3.7086117E-1,0E0,1.1584145E1,4.838006E1,0E0,3.872467E0,1.0297853E1,1.0969181E0,0E0,1.2723591E1,3.0449078E1,3.191278E1,8.757361E0,0E0,0E0,0E0,0E0,0E0,0E0,0E0,0E0,0E0,0E0,0E0,0E0,0E0,0E0,0E0,0E0,0E0,0E0,0E0,0E0,0E0,0E0,0E0,0E0,0E0,0E0,0E0,0E0,0E0,0E0,0E0,0E0,0E0,0E0,0E0,0E0,0E0,0E0,0E0,0E0,0E0,0E0,0E0,0E0,0E0,0E0,0E0,0E0,0E0,0E0],"parents":[2147483647,0,0,1,1,2,2,3,3,4,4,5,5,6,6,7,7,8,8,9,9,10,10,11,11,12,12,14,14,15,15,16,16,17,17,18,18,19,19,20,20,21,21,22,22,23,23,25,25,26,26,27,27,28,28,30,30,32,32,33,33,36,36,38,38,39,39,41,41,42,42,44,44,45,45,47,47,48,48,49,49,50,50,51,51,52,52,54,54,56,56,58,58,59,59,60,60,61,61,62,62,66,66,67,67,68,68,69,69,70,70,71,71,72,72,73,73,74,74,76,76,78,78,79,79,81,81,82,82,83,83,85,85,86,86,87,87,88,88],"right_children":[2,4,6,8,10,12,14,16,18,20,22,24,26,-1,28,30,32,34,36,38,40,42,44,46,-1,48,50,52,54,-1,56,-1,58,60,-1,-1,62,-1,64,66,-1,68,70,-1,72,74,-1,76,78,80,82,84,86,-1,88,-1,90,-1,92,94,96,98,100,-1,-1,-1,102,104,106,108,110,112,114,116,118,-1,120,-1,122,124,-1,126,128,130,-1,132,134,136,138,-1,-1,-1,-1,-1,-1,-1,-1,-1,-1,-1,-1,-1,-1,-1,-1,-1,-1,-1,-1,-1,-1,-1,-1,-1,-1,-1,-1,-1,-1,-1,-1,-1,-1,-1,-1,-1,-1,-1,-1,-1,-1,-1,-1,-1,-1,-1,-1,-1,-1],"split_conditions":[-3.1540138E-1,-2.1929589E-1,-5.0951123E-1,-6.534897E-1,-6.534897E-1,-8.4565185E-2,1.9069043E-1,-5.0951123E-1,-5.0951123E-1,-5.0951123E-1,-5.0951123E-1,-2.1929589E-1,-6.534897E-1,1.2430171E-1,2.7821565E-1,2.0407987E-1,1.9069043E-1,8.879689E-1,1.9069043E-1,2.0407987E-1,2.466346E0,2.0407987E-1,1.9069043E-1,-1.9998328E-1,1.353164E-1,3.0852916E-2,2.6168913E-1,-8.4565185E-2,1.0659425E0,-1.1239976E-1,8.879689E-1,1.1376935E-1,2.7821565E-1,2.0407987E-1,-1.08340554E-1,1.26357E-1,1.0659425E0,-8.057985E-2,-5.970365E-1,1.9069043E-1,-1.5484202E-1,8.879689E-1,-5.7081234E-1,1.2761675E-1,1.9411948E0,-6.534897E-1,1.3939476E-1,-5.970365E-1,2.6168913E-1,3.0852916E-2,-5.7081234E-1,8.879689E-1,3.0852916E-2,1.21412076E-1,3.3766932E0,-8.986374E-2,3.3766932E0,-1.0513355E-1,1.0659425E0,-5.7081234E-1,-5.970365E-1,2.7821565E-1,2.0724826E0,-1.0244369E-1,-6.0583383E-2,1.1164423E-1,2.7821565E-1,-5.7081234E-1,-5.7081234E-1,8.879689E-1,-4.308195E-1,2.7821565E-1,2.02872E0,2.0407987E-1,8.879689E-1,-1.1004303E-1,2.0407987E-1,1.3623671E-1,3.771072E-1,-2.1929589E-1,